{"biases": [[[-0.6112126897874027], [-0.18670505611729846], [-1.860065744333339], [-2.2147355209800774], [-1.7388170061396986], [-1.3388059976401674], [0.46958236654932484], [0.11543625886695037], [-1.3359376914747594], [-2.8471401470895024], [0.21527056406020947], [-0.9401836090338944], [-2.9531250502164506], [-3.277153371625186], [0.9578808061757975], [2.307409127003772], [-1.7704121082821234], [-0.9393289564700413], [0.17643394841086268], [-1.035326833056119], [-2.546952257097125], [0.10442474563395086], [2.8437630862204712], [-1.6067924183143412], [-0.5023482021962857], [-0.8308917109362587], [-0.3445995836598185], [-2.50892177501342], [-2.2192403256558433], [-1.1550174350558082]], [[-7.637897617951563], [-3.817006361205695], [-3.9328312614518226], [-3.27455571108634], [-7.29179702475955], [-4.104542144744406], [-5.898636718164431], [-3.507535513847988], [-3.8155284994620042], [-7.324731364072459]]], "weights": [[[1.4034566133041139e-05, -1.9796715293009206e-05, -2.795303505094235e-05, -2.4995140877778038e-05, 1.9898008598001612e-05, -1.6786733626788596e-05, 1.7987195503260627e-05, -9.311495910704244e-07, 4.568958012841431e-06, -1.892352271414154e-05, -7.183400036034412e-06, 2.7191942786730413e-05, -0.003401189954516644, -0.007428374663613306, 2.973892903204667e-05, -2.6355078995769438e-06, 6.6191351362565284e-06, -2.2104791398498994e-05, 5.226694420512354e-06, -6.792679871797297e-06, -1.9940686902409724e-05, 9.566510725459634e-06, 1.8536015126411534e-05, 2.9569356660604368e-05, 8.891494378813881e-06, -5.278758989206048e-06, 5.2288420617981064e-06, -1.9310815766529914e-06, -2.431127440250319e-05, -6.938224527540729e-08, 2.250940829252008e-05, 9.652007608605348e-08, -2.2377015073739623e-06, -2.230999625005575e-05, -0.009467502779124361, -0.014243957927218083, -0.015117136231937552, -0.0032067488283275703, -0.0008401964603564228, -0.0024880414819370804, -0.006307738520437541, -0.008531941125895401, -0.0022534654256658707, -0.00041364971882617066, -0.0010394378323414135, -0.0005045468321099977, -0.000301142848566498, -0.00037772440162349625, -0.00010981265301741924, -0.0002432235630725973, -0.0019012870882104988, -0.0023100068572301127, -1.6792759609039627e-05, -2.714861166777536e-06, 7.041446070378356e-06, 2.405679536715844e-05, 8.294570609225386e-06, -1.5596550618960113e-05, 1.3166743544576628e-05, 2.296140215332154e-05, -2.9915879446420656e-05, -9.39745433366407e-06, -0.0052795392665651334, -0.03357115933385085, -0.03827769883104243, -0.014958893122752809, -0.03638756700517461, -0.06484376179549849, -0.0907263699079567, -0.11602578718582061, -0.11592901742743876, -0.06330645493126584, -0.039481299749274563, 0.021383515642593685, 0.08502627577456962, 0.0008745030012927151, 0.0019483590073998392, -0.0005330904777804916, -0.0021592810982722726, -0.001877876543262113, -6.396048914470496e-05, -1.3754324265208837e-05, 1.2978853059848236e-05, 1.6441355060231915e-05, 1.0403468364067692e-05, 4.708315726483597e-06, -1.4942484302929571e-05, 7.872936158997028e-06, -6.32386597591622e-05, -0.015003386556136913, -0.02737329712741898, -0.048330808128716644, -0.07073570209603194, -0.10253417857198059, -0.10974912202102519, -0.16991399099954585, -0.16448133105912177, -0.225171383449978, -0.248985690294812, -0.16382215390602348, -0.16090958068697536, 0.02219760206927859, 0.1273716304044646, 0.03605894757756223, -0.032114351877817165, -0.03213245763300225, -0.036054212273055726, 0.02305664762380008, 0.02839086107429249, -0.0008933206778634977, -0.0004266986998289561, -1.8018694847491047e-05, -1.0847180899846697e-05, -3.0629283149392354e-06, -4.472134124975664e-05, 0.01049452263438305, 0.03976294660211321, 0.01658140096856732, -0.03523205832750388, -0.047179428488329324, -0.049428102903689215, -0.10834010251914691, 0.008993205045018493, 0.028876798106975535, -0.03608729369207846, -0.16892341123933866, -0.09935396305568957, -0.1548007545012472, -0.20776450236646762, -0.06710341292595501, -0.08273626795543583, -0.08748911807864053, -0.16788169659391272, -0.04077671015529607, 0.0332263998161583, 0.11195368704957112, 0.09015387952884027, 0.006065015990713591, -0.0541152429140569, -0.021104522241135883, 2.2500915029501813e-05, 6.2379876777929655e-06, 0.0002575047348180908, 0.001512329786052939, -0.00554603658226107, 0.008056740383579123, -0.02233815747589171, -0.09726000839003794, -0.1487577295570811, -0.21488906976588765, -0.13913932562393722, -0.2756388691249028, -0.19962230549148183, -0.1275093674692927, -0.18742189992083896, -0.13398307221414862, -0.11650954988623734, -0.08870756533595318, -0.2966488667709243, -0.20480163824063158, 0.12486052985284261, -0.05797261971990615, -0.0272274643408528, 0.09589037517005472, 0.06907971946775673, 0.0044261022346865075, 0.009015887626725911, -0.0025643834361438835, -1.6542676158457023e-05, 6.134415326744759e-05, 0.008552985736082855, 0.002590935306177778, 0.0391118207373847, 0.02615751431880806, 0.04318964859829613, -0.07724986876113973, 0.02075071601133762, -0.03980665949337902, 0.018231691888309136, -0.041403096730490446, -0.07133946268046949, -0.061276468420977045, -0.002514421417164796, -0.13821837495926362, -0.20627439157978247, -0.15226419593489593, 0.12318199750993071, 0.0006054606413343626, 0.14998147232481013, -0.1036021649809726, -0.15852544849317507, -0.10409764079932377, 0.03327689894036244, 0.06013487985663972, 0.07221009847840423, 0.013880497516322707, -1.6758999005229917e-05, 0.0026869543033145866, -0.00033976161725986844, -0.0468433509434377, 0.04111220684620485, 0.012351254670268447, 0.0930144849565998, -0.042040165586295655, 0.10483987590594329, 0.06672164652836997, 0.04586851414783548, 0.186525550822235, 0.08685584699303216, -0.07493824926755867, 0.07063358161068825, 0.0032484657597633155, 0.10632327206339537, -0.12135867676717664, 0.09646295330346527, -0.07837897706691833, 0.11802882156421797, 0.13729836210119756, -0.04086290569235838, -0.06330600624193597, 0.07763605140785211, 0.09068573738378606, 0.09100285434702415, 0.00883819237009456, -2.044159269106672e-05, -0.029416037273555375, -0.009257426276555396, 0.05499005728230718, 0.08344004653755134, -0.006218399382085577, -0.1928971284367312, -0.07612268003184698, -0.2160045677928018, -0.161794282610645, -0.32145722182836406, -0.07778676346827253, -0.2197257669815645, -0.20142905872820838, -0.13759212458645562, -0.03360674368023175, 0.16355284809818163, 0.11108014466076793, 0.14783903128312867, 0.10935877993855934, -0.24525194224589988, 0.004637948597493481, -0.03832148168034279, -0.11957192982464708, 0.08953747988631058, 0.11349624753902093, 0.020980252686021036, 0.002116324874304704, -0.00012287176744231134, -0.03720102214425722, 0.018526958444629232, 0.015291391401489622, 0.01000028964329121, -0.14551001089028626, 0.05368717636824172, 0.25398137530778636, -0.1205861880873831, 0.05246214946265712, -0.16082569704974256, -0.07104620459040667, -0.06777591004449113, 0.2040300635604071, 0.08192602063333286, 0.015641478045362995, 0.041187910460478656, 0.02729928142274754, -0.11606528570988141, -0.3224818054111174, -0.06760603125369716, -0.09520319549415006, -0.09318385805768087, -0.14272815478500026, -0.00962233844791108, 0.052949160440906, -0.017201068742257346, -0.016702561334163604, -0.00025393336748659033, -0.03597850380633721, -0.004743951462652667, 0.09299126070500924, -0.06058296382576522, -0.1145439316261017, 0.10289533133426201, 0.014824678984878678, -0.12359379136990659, -0.08028738770442125, 0.14146346948326424, 0.04820685780557711, 0.057744064375397565, -0.06870839212358164, -0.36243991350898885, -0.3081847603261304, -0.0824774877885017, -0.002549659902712376, -0.05166245176284055, -0.21278393315904787, -0.1790361676220181, -0.10855537665259798, -0.21418752661526042, -0.10079150431755052, 0.11438686995464778, 0.16246732208410938, 0.04391842752099461, 0.011701303740219717, -0.0002507449919894602, -0.020603571916119078, -0.053296636711867795, -0.04239270953509156, -0.04183253130218474, -0.04472646637878855, -0.08290429610307333, -0.2996465664528771, -0.10728829993317775, 0.07080576848421472, -0.2556967775059694, -0.05286961143813983, -0.24689268745745008, -0.19858837418409045, -0.3337963664236618, -0.11622681546573842, 0.08918701784729569, 0.09836134718267626, 0.16517496230405215, -0.03643152299132849, 0.02888159387863734, -0.12492777179553635, -0.14176423096221588, -0.06863923765260395, 0.023703801103511474, 0.09791638041918774, 0.035361580857818195, -0.007047796089711802, -0.00021591694808733997, -0.005620110578899385, -0.05709396776678714, -0.09791812396467413, 0.0015937685403876714, -0.10932104258571156, 0.021391168634055057, 0.04532611546463082, -0.12413763983412984, -0.07878007520724134, 0.017665663133014372, -0.19825430272769037, -0.10634509373700003, 0.0035710423021064128, -0.033777348718834366, -0.10192709443232138, -0.22469987246127998, -0.03635595116881955, -0.05289912788348498, -0.23096091352988055, 0.14443816779864602, -0.14973691663138047, -0.1929739478820434, -0.15254211430385742, -0.20550992977556445, -0.09461395815774348, -0.037387999265483106, -0.02391744852971353, -3.566218156124925e-05, -0.0020434206628033367, -0.023592380154964804, -0.06607779758094887, 0.19000763768546478, 0.11976833451384575, 0.1995657637078822, 0.2357502834129028, 0.12007940203245451, -0.04396807450169141, -0.08294891419867172, -0.13364528455278726, 0.13437271476531776, -0.02313380498610964, -0.09963514102683563, -0.31634478358430185, -0.01185658171174227, -0.2568129367910058, -0.010350266714224747, 0.03672617489341087, -0.14958484512802075, -0.40604174034847895, -0.40906511124383477, -0.24949314221427077, -0.32774605600633094, -0.19989693760489208, -0.033030618756348155, -0.007904789912584819, -0.0002718830649402185, -0.00042289571868037103, -0.017234583696201816, -0.03673011463874288, 0.1799536115937846, 0.291210758355457, 0.5029809716806513, 0.3662841666091741, 0.5707484728265246, 0.4159917001335359, 0.3185262761288182, -0.1949142814834878, 0.08581670472238455, 0.2946468046259848, 0.1681489774137101, 0.1708624532459292, 0.14267850438765153, -0.0017064404857016898, 0.05120740113785819, -0.3040962763668631, 0.015671640843662363, -0.2548209393411695, -0.24369694237867942, -0.3688444192103189, -0.2934580995654439, -0.22628687679933054, -0.021331420491815113, -0.0009297246710161481, -0.00011094175663863275, 0.0017823677683262635, -0.005307005954529837, -0.006943714881587687, 0.03730091401870462, 0.2650357683956682, 0.4528695695439847, 0.5531436205121165, 0.6631572347466281, 0.6726345146224669, 0.7160764347138233, 0.5188145209843389, 0.47216935822915, 0.17182200404399797, 0.12874227966509438, 0.15085587294648858, 0.19409352492479393, -0.45397652130744204, -0.24551274065939221, -0.5424853918471478, -0.2657369567373783, -0.3022210119309657, -0.43415084954599953, -0.13920733025310916, -0.20301105270475983, -0.23676667035015297, -0.00959403358641057, -5.42964063899176e-05, -0.00015052023189047673, 0.0008930657857719887, 0.004813209805678994, -0.035733820278092875, -0.18890790075357572, -0.04606949304590114, -0.05457868247330039, 0.20610586449064952, 0.30708957276463306, 0.2780985857716216, 0.5742096487193752, 0.611334275352043, 0.8755050631561264, 0.6909715719803897, 0.14909431744177976, 0.04548779214732478, -0.3415277752909745, -0.5184256664685968, -0.1955429658707024, -0.33033016070430016, -0.43606042782383453, -0.17285859985755947, -0.3399826656187555, -0.19489840562050548, -0.1297611108311346, -0.15132176402928776, -0.03153146335654077, 0.0008152732148024613, -1.8575110058785682e-06, 0.00028839694430240315, 0.006624700587928513, -0.05071195242850466, -0.3260359395875764, -0.41744008127673343, -0.4148143032325846, -0.1226362322799057, -0.13593591680399275, 0.08409885658457782, 0.3648583671769741, 0.5253784894559642, 0.808248971322142, 0.6567360583214621, 0.04234338682342565, -0.3050419022489046, -0.40641340283350047, -0.29797908453689825, -0.11262888576552547, -0.36737411009212284, -0.6394281838802757, -0.16986878457659726, -0.15717520160687187, -0.15088249325826983, -0.15370954565209316, -0.11225446450408552, -0.027774549644944073, 0.0004526589234400259, -3.595565937561102e-05, 2.3215882385110495e-05, 0.0026717760504945567, -0.06760419540022261, -0.3479720952976114, -0.6506421326604682, -0.7373718457297727, -0.5583976158414209, -0.8043839326692985, -0.4084577829558049, -0.17520229356865646, 0.12849059126231263, 0.006693411574703001, -0.3889855704101027, -0.526391595371255, -0.33527938766791476, -0.13796051452492958, -0.07218252847171366, -0.1324976731699427, -0.10062447056631897, 0.026489439955990707, 0.14016951561251503, 0.13954737419693303, 0.1478906249381466, -0.04833573384499731, -0.045296217429529974, -0.008453895207005641, -0.0021860457471009668, 1.0695195350613048e-05, 0.00048017740291964636, 0.00039529718850917823, -0.10911946342448985, -0.32616937401669244, -0.5031087216255664, -0.753229445791681, -0.9652827856713238, -1.392080999130651, -1.69030735621973, -2.0636966361116444, -1.6778640027512957, -1.4477972733101463, -0.8929961152529043, -0.36344240151981005, -0.1502031306562308, 0.09658637522612429, -0.04811064256689716, 0.0616158028071958, 0.06048778564016079, 0.18131348082570678, 0.28097475788602216, 0.19115973588720928, 0.1645332395655189, -0.008488763424509082, -0.004987972748538397, -0.004824094876617875, 6.671512050878347e-05, -2.7377628376599505e-05, 0.0010542678465000216, -0.002094032198551846, -0.008290536559081952, -0.2175137666329474, -0.41821135308489643, -0.5642345346922476, -0.6896720685485429, -1.0158426120519035, -1.0024190300961986, -1.2720576996834814, -0.9407777016648476, -1.020894559892128, -0.38614810921225556, -0.040282035401976425, -0.11801690723091063, 0.3560077820639992, 0.13533932973318558, 0.45562853463514164, 0.08112089214408022, 0.0898404039959615, 0.20683512455203884, 0.3161449198443469, 0.24334106893298935, -0.027167005247263263, 0.020544789492056934, -1.8652034778285446e-05, -9.196278896004948e-05, 3.407894126054668e-05, 0.0006514616732009928, 0.012775234056100494, 0.01471476342682724, 0.10783567660236908, -0.16814524506343959, -0.2579954250847588, -0.06711169409615732, -0.10607752112819163, -0.145964344834545, 0.11140009389299921, 0.3059990060585214, 0.04972822896017401, -0.020733624168285555, -0.08208666843991488, 0.05565808501051108, 0.027393792447238295, 0.17167869482647263, 0.31454420494307783, -0.06777042160639275, -0.05819048987834155, 0.2900467825972413, 0.27800055938005563, 0.12940467184253848, 0.005556380958788608, 0.013475377384437779, -0.002735808743924481, -1.951975332710104e-05, 6.130076980376548e-05, 4.228295161523173e-05, 0.013753469885661137, 0.03859304635666159, 0.10004543170026262, 0.09945859650103979, 0.06442585914305633, 0.07841645867959665, -0.05189868051883608, 0.2588631705363821, 0.25576133323340383, 0.33639048656127724, -0.01652507184742247, 0.028666669767356098, -0.05370679792912343, -0.0899607266724514, -0.03421884919078708, -0.024197333185745493, 0.0576665949204821, -0.3053772524726933, 0.07361677376887761, 0.2630274477527719, 0.2986533119071981, 0.128269736150395, 0.01783896183333665, 0.01678801341091041, -0.00032041079625751785, -4.351760287752117e-06, 6.088440845526176e-06, 2.459620509447938e-05, 0.014555501961282009, 0.07095559489141423, 0.17980744845476604, 0.14201844098279637, 0.22554496275710795, 0.13644492138032538, 0.16490315929845278, 0.09119956577698883, 0.18524436583133294, 0.046947065877885816, -0.08113094736634165, 0.34845412526794, 0.27646847024804194, 0.10937519681798884, -0.19003176152812878, -0.12121598763966712, -0.15616608728395306, -0.006989529173941773, 0.33333117538323115, 0.14236239810256934, 0.18444063037890074, 0.07057590337530684, 0.04929644349717655, 0.009413872735392731, 3.6011479865899625e-05, 3.440106819521621e-05, 4.365942744479176e-06, -2.3580924643599854e-05, 0.02075473904244581, 0.07419382829803536, 0.09533715837724041, 0.008956323542759314, 0.19037898694364633, 0.28794396307379133, 0.343375852597606, 0.3651931084201138, 0.46438675583855316, 0.2640652175374136, -0.0026490002843832378, 0.17206814218067992, 0.29900207531835754, -0.02009754878152955, -0.14157408555162376, 0.019871774229325307, 0.018153093093903935, 0.095983017707406, 0.1699150098830022, 0.10371152740381968, 0.12515343146463404, 0.14436188073086997, 0.0013198719561417686, -0.011886335255371068, -0.006717669852052506, 1.5812336557209474e-05, -3.1003068869628236e-05, 2.4728793633997507e-06, 0.003568837996635009, -0.004870905101552486, -0.03473303151317166, 0.048289125411203185, 0.1228097967549161, 0.15960038599286352, 0.24634422985072402, 0.31462463269565694, 0.31787173533166, 0.2201688028941668, 0.21665641990967852, 0.27425714657192846, -0.13486222138715717, -0.059739623783576765, -0.054020649206375955, -0.02098293106337468, 0.14028633106791652, 0.24646897659286782, 0.01814119361085939, -0.03160846489410069, 0.029384931587327863, 0.07837880840725325, 0.031071027090938657, -0.003776121003557034, -0.007119552001354518, -3.3326453038603796e-05, -4.228505476657231e-06, -1.430754342745287e-05, -2.6858539090276274e-05, 6.551873825054745e-05, 0.008391953240280503, 0.09612776699242367, 0.11913051293571826, 0.026341172286057833, 0.0008950615542856798, -0.021704140316412733, 0.04723607819291666, 0.06773149339053729, 0.17185376912607375, -0.022047391915092297, -0.03939505655217365, -0.09028296063896155, -0.1842402915817017, -0.09883982581580535, -0.0852353900071305, -0.08432589809410586, 0.052838887315830065, 0.0029453283057735194, -0.04315560714996045, 0.0012028003113943979, -1.1194173855836096e-05, -3.548336611174826e-07, -4.577479272481468e-06, 1.271321263751365e-05, -8.0627796871366e-06, -9.910672272871022e-06, -2.0603827298982218e-05, -7.209898065953224e-07, 1.0217223475858423e-05, -4.850659124398291e-05, 0.00036893294698198847, 0.0022736657233196, 0.0018416114409947496, 0.004548890453300776, 0.013652231847647333, 0.03931470550036582, 0.05851787043411251, -0.007104502417839558, -0.0016371069074218028, -0.017575628029115064, -0.031863037558179846, -0.02572650438975067, 0.015323290355060025, 0.006362535601461004, -0.008607297920407094, -0.05415913082170296, -0.048878342724741244, -0.006100013856399408, -1.164858229948446e-05, -2.187779767404721e-05, 8.119512751028019e-06, 1.0987819301947388e-05], [6.584410621221002e-06, 3.813563200373833e-05, -2.413291384151103e-05, 2.5581548144310833e-05, -2.4186151670356265e-05, 4.2946950087915634e-05, 3.873200953614867e-05, 3.9147355463451245e-05, 2.130738403054495e-06, -1.0732786041872142e-05, 2.967912464241842e-06, 1.3924623502490697e-05, -3.957364882420087e-05, -0.0001374087222609228, -1.4320002070515627e-05, 1.729703955089295e-05, 1.0653519620514993e-05, 1.387054501660306e-05, -2.1080872504593007e-05, -3.964447947395516e-05, 1.182162553265846e-05, 5.78226992518376e-06, -8.460202297465834e-06, 4.2499964573520795e-06, -2.1097260800098566e-05, -2.8721395305942153e-05, 1.092791800860265e-05, -2.8458866320178186e-05, -2.9881704965035845e-05, -1.2660818732565948e-05, 3.525006291196429e-05, -9.909229366513512e-06, -2.7054708908220024e-05, -2.5274078458023294e-05, -1.3816192508710095e-06, -2.38735410500783e-06, 8.815796383481092e-05, 3.8438033106209824e-05, -0.00019603309340411734, -0.00011498195535682925, -0.0003418045598589698, -0.002220241272969612, -0.038282790407128675, -0.08181473226798075, -0.00487321261374611, 0.0005683497800223409, -0.00031096613103712123, -0.00024645030411856486, -0.0002374537174257298, -0.00012728028077102133, -0.002689117659541217, -0.003717231304454057, -2.640765854363778e-05, 3.5844426594216506e-05, -1.6152658497509112e-05, -1.692727202637946e-05, -2.635239829905641e-06, 6.004516267220355e-06, -7.83970582099792e-05, -3.672138794762419e-05, -0.0001668457253871376, 0.0007151226783609227, 0.003731431142576335, 0.002086512716042714, 0.02858567838667996, 0.07202009464822379, 0.02930009498641918, 0.03197329040797379, 0.022468750108101444, -0.052155616940566765, -0.07006391972510805, -0.26572878699021213, -0.1454478069564047, -0.014384089214667741, -0.059832522389136895, -0.06418017970640225, -0.03773485460992735, -0.02417035268104875, -0.01601942037754625, -0.006727333053805336, -0.0008821618320811681, 0.0001280649633388552, -2.9294167275173864e-06, -8.234633902427451e-08, 2.0702317343351757e-05, -1.701652484343692e-05, -0.00018941588350635959, -1.3969929307814096e-05, 0.0038117662122285883, 0.013879822427305694, 0.030533890829154513, 0.028654971597358418, 0.01751002700210984, 0.0996589927902963, 0.12387742056725841, 0.11156491560072924, -0.038203451227126775, -0.17684638160417945, -0.1804379415754118, -0.20891666759226818, -0.1715330843370486, -0.16428238450280389, -0.3905251645445617, -0.2329352056201315, -0.13736753061275192, -0.012023954389554193, -0.023068936504720947, -0.027150637468743452, -0.011245888333795485, 0.0018429835719442787, 0.006948252043390464, 2.044907610810136e-05, -1.3344017686817888e-05, 1.2285668639185039e-05, 2.8477146960250584e-05, -0.0013786656758204387, 0.0031165955360351505, 0.02681678385877959, 0.053670851865003845, 0.10357746810980584, 0.049342817947897924, 0.13834606932246377, 0.1284828228547608, 0.07031733177127489, 0.2761305269607855, 0.13978248966091233, 0.047952629898838986, -0.26745061606689485, -0.20960905204482272, 0.06154208884744807, -0.19950731757097057, -0.07701053318633866, 0.0006257819779581458, -0.024209442107846042, -0.07495144260482739, -0.0018233484267172956, 0.039974861471912176, -0.00018020404000617057, -0.048582675363649984, -0.01581175375702993, 1.1056229101619216e-05, 3.4848927568646367e-06, -0.0008869041615769298, -0.0029185682233266686, 0.0011327744473466313, 0.022649684572844185, 0.07492989820119711, 0.06587090674366952, 0.0957288530775516, 0.04853491263196424, 0.09632892646449573, -0.14627581315598398, 0.13860598494392226, -0.1656642319537727, 0.03601575275511305, 0.02467644890990826, -0.055812116608550705, 0.23464042582699518, -0.17058083348849537, -0.3880428063900721, -0.09628244180832722, -0.17687128800741236, -0.04583826388095966, 0.0860428212582206, -0.0033998298914101797, -0.05015098424962405, -0.04557855306410751, -0.010133405459107804, -1.903222303945527e-05, -4.5316117848362556e-05, -0.0018414900926618128, -0.011013971419151171, 0.023398112410982035, 0.13431335850293818, 0.1456666733872441, -0.10554271287892994, -0.036857367048008946, -0.11858326920988202, -0.6746438871500378, -0.8138399838394915, -0.3283356314284737, -0.15171290453463038, -0.3261070692359133, -0.15007954890077746, -0.2622246759546583, -0.42377908576854006, -0.7566713221597507, -0.7112666452034851, -0.5314644081600018, -0.24871365024529807, 0.09822546782543051, 0.3011409537188427, 0.08232896983584014, 0.011525063985608304, -0.0024849171956816255, -0.005442972186828534, -8.646176124710956e-06, -0.0006480794227142272, -0.0013031526269233623, -0.0011767005570360479, 0.027774842127391917, 0.12042236694875984, -0.026906103770300723, -0.06710343506606592, -0.06691329418926784, -0.16266259470789268, -0.7528309030409467, -0.6149223980276886, -0.34300550046330336, -0.16423915229650474, -0.37412361423860313, -0.5867785516490072, -0.6800674515462938, -0.5489192732155722, -1.1653883699697576, -0.889516039329771, -0.7094808050764839, -0.305299258069701, -0.016069409124084194, 0.11467794451336107, 0.25954097641354723, 0.16052171203609608, 0.034776869719378566, -0.0030933401585058894, 1.6265328206703586e-05, 0.0005822695353917059, -0.00080820813589282, -0.03970708516698844, -0.08613525266498319, 0.13865884436046125, -0.09525887845042932, -0.10567643248642077, -0.22507809256231934, -0.027996792019345396, -0.33549670333278514, -0.3483587817452669, -0.34363526652406856, -0.10544957462698834, -0.3708673006613652, -0.30765855178249146, -0.8100722641821243, -0.3770584265991849, -0.7466312774316081, -0.426529276551296, -0.06922868905956846, -0.21364509625776548, -0.19306282012514697, 0.024953074289625284, 0.23332073745018786, 0.25191506311534057, -0.02222732161590212, -0.01367327561522791, -2.4104917359289543e-05, 0.0002721402703347697, -0.002663542256752343, -0.11262824344032257, -0.18460848252948192, 0.04432471271592822, -0.41619884108314503, -0.2038664811353799, -0.12073764593451287, -0.4334511188128597, -0.6732448517335319, -0.6816350604909195, -0.33166795787706665, -0.3358790307111671, -0.6573481196475149, -0.683211590058623, -0.2811761717973156, 0.0014384219595791948, -0.09016653999308999, 0.03784157505389763, 0.41952655354765517, 0.35006459830830977, 0.0024124625160265325, -0.04344570799604886, 0.00030413055289554717, 0.06673924293632257, -0.00790801801728098, 0.0007692066969026027, -2.2585996197519483e-06, 0.00025261518666252656, -0.012276039485692426, -0.11604209754042812, -0.26019203396316504, -0.22419382347938294, -0.3793818128402218, 0.01312970026524405, -0.22744284797658057, -0.23120834728789985, -0.4580108568214456, -0.4199747581044182, 0.14801753534225495, -0.5253910451103341, -0.30593994778638894, 0.12106491306938881, -0.039715100188770294, 0.22582842992091187, 0.23329494890516855, 0.23632394862911527, 0.28440645850657104, 0.15977609519171712, 0.12431461995512874, -0.26454227050974405, -0.05928757854652363, 0.05358998266868277, -0.010917962170122383, -0.016813232569328748, 3.1698488464549625e-05, 4.498027117984459e-05, -0.05772490730133217, -0.04925340372915021, -0.3343537381407635, -0.3798207612544305, -0.5227042561630664, -0.36167878476822723, -0.07053858199184358, 0.056010599491535036, -0.3334768347374618, -0.1349332381473597, 0.16187586469658996, -0.5672357995744466, -0.3063252028826104, -0.05128684549765813, 0.5333430823905825, -0.23994574859872259, -0.3152278645468648, -0.11658761428783555, -0.32431495746748956, -0.08295775197876919, -0.11349790135674674, -0.16248145808348918, -0.13316806632810502, -0.037858079544843326, -0.07771955396116663, -0.015375830100734506, -1.1579295508975978e-05, 0.003083812464078464, -0.0326199544228624, -0.06699674605442212, -0.6558918742527261, -0.42785197897067084, -0.4500258920334927, -0.1920650858150055, 0.3634412828098646, 0.15928306580160448, 0.05162539140518816, 0.3771039906351262, 0.6309396310377694, 0.42845607381848355, -0.30684794025125883, -0.16466072922444272, 0.12175622881205297, -0.7670056521973494, -0.5970097196480808, -0.4443211835028442, -0.3177362017351332, -0.284343971439846, -0.024439521846319586, -0.24023209371287355, 0.04732069476137351, -0.011047413362168374, -0.027237886414235916, -0.0021784634490281864, 2.6630364770576196e-05, -8.565903659232764e-05, -0.0074124735119140955, -0.14278375250972858, -0.5805195618049527, 0.0783220773566077, 0.20408079175347726, -0.10746361585147361, 0.4104375334771322, 0.4733694217632948, 0.35169713060407004, 0.691699372940904, 0.8255278481053472, -0.027512334485884707, -0.4993762392807523, -0.03011873576076679, -0.15254000712144222, -0.23798992404896335, 0.09594766632046081, -0.044435308739486444, -0.11491382269999212, 0.18329054357948696, 0.21725073916932827, 0.206680981498185, 0.16284345021510357, 0.09469685744910143, 0.06976445475301102, 0.03806582275514675, -9.228739109894412e-06, -0.0022655090604743015, -0.011148124012675845, -0.06671316659192522, -0.037685129063658694, 0.46593658819948114, 0.18146552371582533, 0.4699445295105869, 0.4447814915991597, 0.6028179548108124, 0.31424768498893035, 0.648356796640032, 1.0103868809505925, 0.33803880419904164, -0.1383607492382521, 0.07169673223075314, 0.24876502902359057, 0.5541208735249665, 0.5400629080960978, 0.27738206696534123, 0.1441358956692729, 0.2849124242279276, 0.28282266037367176, 0.3509611807463865, 0.315914131709384, 0.11433752187730471, 0.07743333660753092, 0.0004815319192561655, 2.5034656941674502e-05, -0.00023635304578128468, 0.008219002561321225, 0.15019930837406728, 0.09769496457047117, 0.189913707777119, 0.39314272779670867, 0.5608365849336847, 0.40843131641592684, 0.711437144668143, 0.18378684918294422, 0.3118891309785447, 0.7504305089488348, 0.38175727153443023, 0.45571065859128124, 0.5449666457681368, 0.23937424382794784, 0.3865482958699831, 0.16508845405175648, 0.09036508963920536, 0.04871186316963051, -0.01592106755929897, 0.17215330227569356, 0.2058326968436357, 0.24652838887361314, 0.14718638606578244, 0.12883880845991014, 0.002685938892963803, 2.998707073969982e-05, -0.00023108279795626605, -0.03467406892873472, 0.11110304089589321, -0.13601760854847053, -0.0797841349363208, 0.30311357430778524, 0.5768431696273958, 0.3733185516445934, 0.21749885744023434, -0.05687771686479422, 0.25951894636365, 0.03483540979285695, 0.18133167533131592, 0.2906633418579079, 1.172645754048449, 0.5673554713419924, 0.4152009116099938, 0.5270355213103465, 0.2368610098592699, 0.4020218567455879, 0.27619261179440163, 0.2657044176624508, 0.4499144377812736, 0.362097422442499, 0.1650247241377159, 0.028577108378844026, 0.00043426904607926203, -3.0999349659242206e-05, -0.0003693016522895548, -0.06509879270125211, 0.027012521616378796, 0.07942667965856395, 0.12677526645165668, 0.3251648739080358, 0.35283665950594273, 0.3680620646412918, 0.03798810486266308, -0.30765398111269215, 0.16082052700413008, -0.011066746288458823, 0.18329406268670959, 0.19791876287813046, 0.8053711109144314, 0.5590285501422666, 0.5580987780353517, 0.6367973678407913, -0.052195732224608014, 0.1370083945755399, 0.1502874376160964, 0.17081028315384847, 0.24909657211206834, 0.2960414869474475, 0.09615644959028208, 0.016980380033822594, 0.023996374037258107, -0.00022055970617336384, -0.00013001787762679493, -0.05952222458793512, 0.05240818089517245, 0.3438065621736422, 0.40117933224442753, 0.45905720857958693, 0.3177833618327451, 0.3712204432594993, -0.06580771988362756, -0.3395117550980394, 0.019319985815324014, 0.22224816175889284, -0.029456450813521506, 0.38515206821705733, 0.3568406185634969, 0.9898016312291619, 0.706222784966254, 0.6715156530991997, 0.362620424970519, 0.05192242580278827, 0.10478578841991042, 0.27728335651832, 0.4992108609884782, 0.4473285740540429, 0.16255951031452198, 0.07715775764495343, 0.05145725589261844, -2.5671604034496536e-06, -0.000288405447750883, -0.01655981252266316, 0.08141049800143585, 0.30244605433779975, 0.3064853075285545, 0.04357885082134797, 0.012757064638739012, -0.01644235452209431, -0.09165745704105016, -0.05798395054827988, 0.2478982944779305, -0.14899343518471514, 0.17920177776588259, 0.5814498847019941, 0.9286981355571873, 0.7926276236704916, 0.5105799011067941, 0.5985443714889597, -0.2285831963473956, -0.021325013077180592, 0.06125009588293455, 0.15037801356030991, 0.30134297109721897, 0.26103504595697635, 0.10185012493705141, 0.03723581768463418, 0.003614166857631381, 1.2949064051919156e-05, -0.0005628941694265355, -0.023140912004819842, 0.09252982478559367, 0.17636618080578736, -0.01686137193165688, -0.10462258904882392, 0.0742044389556935, 0.07061101230680404, -0.12455389108453216, 0.21522552606709636, 0.14222963771789596, 0.05067808485909963, -0.1649694814845801, 0.008499700054260373, 0.24427452843651315, -0.0015382417928008832, -0.19961440101662545, -0.0011133067913654986, -0.42448915844145574, -0.17628678309237383, -0.19131311334702478, -0.1424957134871048, 0.12180540999706939, 0.02559046077139508, -0.026518545800917195, 0.011513213158945556, -3.655165182861633e-05, 3.2564564310277057e-06, 5.031809200008182e-05, -0.03531611762058259, -0.002702088814989898, 0.047847886868158024, -0.15514843714170679, -0.2374504503264377, -0.19015917592209364, -0.01696410139063355, 0.0020505042775130155, -0.016858899452176727, -0.07063406904560468, -0.11711579339452112, -0.5540852854149405, -0.6211059254519764, -0.788551188078129, -0.8754665294399997, -0.5821008287399799, -0.22923425827986593, -0.2894782403717486, -0.30769746407373866, -0.2399763349228729, -0.15896935424690237, -0.06446404848883225, -0.03527421605905582, -0.0011524404004969481, 0.0021635948341106187, 1.2151831182628565e-05, 2.0511794776010447e-05, 2.2365697933953493e-05, -0.0160696547318383, -0.01678780057630726, -0.03355993851633683, -0.2587330284074402, -0.4189049086123129, -0.30689762407094434, -0.2202329855455758, -0.06185641116845681, -0.010609756720548296, -0.09013926973431986, -0.2487999152170396, -0.8231708469079939, -0.9121498693735872, -0.5981786633805407, -0.687624581817249, -0.4852923170961336, -0.3362746263229842, -0.27547062054409543, -0.2384204535635766, -0.08962172407711202, -0.2502446845082447, -0.30419807793690423, -0.07054842632211678, 0.032737043888773326, 0.009225841798870262, 2.8102420565898004e-06, 3.6099428906217572e-06, -4.830646110948957e-05, -4.294891755387947e-05, -0.004404800112432411, -0.019975896873767877, -0.19104323564737363, -0.2337622688240218, -0.33219311842928567, -0.3016870477348458, -0.2835785476571486, -0.1621249957463841, -0.01002135344251883, -0.19132755916624428, -0.6230907826320202, -0.2036693903925773, -0.25989443772506765, -0.4959660050414308, -0.5652060174138315, -0.4649783080228136, -0.3234153909261174, -0.2733193180218306, -0.025710251392449274, -0.39628855723908407, -0.3543046026750662, -0.10816272110657385, 0.04135017961681985, 0.010219321137308734, -4.263784287869523e-06, -3.931716994212616e-05, -2.713388556523703e-05, -0.00014236858036808492, -0.01114967595579188, -0.09952113448273912, -0.11627601164201873, -0.21546927226475773, -0.3772785514940764, -0.6090457496864006, -0.6475366606768876, -0.726933400898703, -0.455868868270842, -0.3246564879227396, -0.3875617152430948, -0.1062168692128364, -0.21324897323464967, -0.006282858112448123, -0.4116683147072585, -0.38642574114316347, -0.15364943033699702, -0.21144321403146701, -0.1519701719594995, -0.31144189347306683, -0.23629310504233353, 0.004332486167534828, 0.09790015700765413, 0.039369645117035786, -1.2049468395529303e-06, -1.3683557566086269e-05, -2.7483855805134306e-05, -2.4745569225311304e-05, 2.1102805052973167e-05, -0.032140537771577375, -0.04627336329931566, -0.1041864047311215, -0.3323029485477654, -0.5122092495931935, -0.5561906898752451, -0.4719549242287434, -0.4610920095502477, -0.6417030682856796, -0.6771127973490698, -0.5308113583305188, -0.46023170116850537, -0.47290744707539767, -0.6712386671562807, -0.6134729349431494, -0.6779887855874995, -0.4010651796327022, -0.30161589798372945, -0.18038371282796095, 0.0019002778477028972, 0.02954280564755874, 0.034310529531413746, 0.04174301780770282, -1.0174224534790591e-05, 2.2146530895432482e-05, -1.751610411487214e-05, 2.2851939799904865e-06, -0.00033032292033819056, -0.011243260405853451, -0.06671191144391006, -0.1820971603145766, -0.26322685942718876, -0.32884880140760675, -0.38553913661716815, -0.5165787499087441, -0.31939794242019803, -0.45882239206271513, -0.4153327421640679, -0.6844630577517323, -0.4634764934498885, -0.41707970148007323, -0.3512444630481261, -0.4818771337880329, -0.4379786173677834, -0.32610703862261725, -0.21419412250243816, -0.09482851055014649, -0.014650630373141061, 8.265361777290902e-05, 2.006359960299247e-05, -3.610167556717815e-05, -3.200901544440611e-05, 2.0357507913882684e-06, -4.560745162252911e-06, 2.054449982317853e-05, -1.0777836030529978e-06, 2.291277165296545e-05, 0.0005791560382470783, 5.242583378994293e-05, -0.001086242852900327, -0.003536312104929899, -0.01467682861235398, -0.0417211462989757, -0.03479507440867541, -0.10019669985201653, -0.04838889153496001, -0.12823216708398502, -0.0578418948144483, -0.04806613218917733, -0.03900711904801686, -0.06902143354758124, -0.07802549802726153, -0.003345676814337197, -0.01654121923861414, -0.01962305379912337, -0.0026644837447964923, -1.7167954194851835e-05, -1.4885191572667483e-05, 1.151039320579622e-05, 2.1385041716976887e-06], [-2.74498678154312e-06, -8.48875189042752e-06, -1.0374738573908165e-06, -3.3704126525282094e-05, -2.3620018247833692e-05, -1.547098756422063e-05, -6.693126175884114e-06, -1.6116314236288052e-05, 8.9547408150513e-06, -1.0533225335961772e-05, 1.2584249660722492e-05, -3.0446035621415946e-05, -0.00013144458058205328, -0.00030708415141384273, -5.464565095201143e-05, -1.545394857593279e-05, 2.6744017670467516e-05, -6.68527293506271e-06, -5.801621064081521e-06, 5.917231948667899e-06, 4.773330425372731e-07, -1.4053498607308195e-05, -2.5395323781584243e-06, -1.6359850833884813e-05, -4.4860670941746545e-05, 1.0463814200453484e-06, 2.4677481635570688e-05, -1.4490660757209173e-05, 2.3128114455788484e-05, 2.7468976944605453e-05, -5.289314803672337e-06, 3.2329579597871076e-05, 6.336695763924704e-06, -6.65776409263586e-05, -0.009891028024939477, -0.020679514037946385, -0.04863711844768985, -0.010714396680373581, -0.005166017497964939, -0.015312772296388333, -0.02530712309556084, -0.014023681746668553, -0.009412968439194527, -0.01125461797571126, -0.011244113899956235, -0.0026544383978697275, -0.0017051150252036303, -0.011558643240862195, -0.009205869917313463, -0.0009160629972613688, -0.00933822243150498, -0.012326878107282927, 6.067603501829066e-06, -2.460349196958041e-05, 3.9083398177081034e-05, -2.420962656541671e-05, -1.957336893475231e-05, 3.24481053708867e-05, 6.925509028658856e-06, -0.0015610847277604156, -0.0006486084528926711, -0.00027054196773164895, -0.009123449622585074, -0.025325353342943287, -0.060915957457332866, -0.03360065377833917, -0.03224371051960003, -0.04309459502817374, -0.08415267255344855, -0.11853880889970121, -0.07795078105541207, -0.07183288896448675, -0.09223508937352227, -0.025942235837565948, -0.05005805787576833, -0.05055822024175685, -0.014423411633220848, -0.010454307170715913, -0.015553374453980192, -0.012488512639792627, -0.0018474568980697934, -2.060648735734429e-05, 2.3824285449541395e-05, 1.2138543297096452e-06, -6.736881621037964e-06, -4.7417878106786894e-07, 1.8499406544860664e-07, -0.004777601401402546, -0.0015066056045971836, 0.0010664241625441518, -0.023252067607848804, -0.047536196033496014, -0.1309597431343755, -0.08507741613267461, -0.06206169817691072, -0.16481115911320462, -0.2867019578780134, -0.3159170927508155, -0.2600277429366074, -0.4007226882680467, -0.2547335893738307, -0.10546676241905784, -0.1384048539138253, -0.1832048401403439, -0.09364829054803181, -0.028432290281549047, 0.0136370277418828, 0.002908287554296245, 0.0040364275270863646, 0.0002094300588387009, 2.8950444817677628e-05, -1.729192972659641e-05, 6.676889195861696e-07, 1.6174474673467284e-06, -1.0470376960427003e-05, -0.00022717333428398954, -0.0023207183022401247, 0.01804769601701154, -0.004932225973756068, -0.08957835468493297, -0.13030501755394905, -0.18837504591153773, -0.2594247800452647, -0.44856211580216365, -0.5071422208914006, -0.5192129619033987, -0.6941444680510874, -0.6068485190157684, -0.3830005026526173, -0.38117270478133664, -0.2850319364343085, -0.2345342082798991, -0.06808894117043472, 0.06937858433307142, 0.07274124346393533, 0.0453344483361853, -0.03858244696750502, -0.08357851933186368, -0.026075843968910984, -0.0007600814300581647, -2.5629540874345394e-05, -1.8098049849192362e-05, -0.00030039958447760994, -0.0017771649161731828, -0.009875640339895913, 0.020334341125048342, -0.04772443202589017, -0.12833924680650888, -0.0295100041342249, -0.2477399318468651, -0.4349875123939465, -0.17619471277237084, -0.21102252276222982, -0.13586466206474765, -0.28346904728255795, -0.1980515777304944, -0.3917970311423508, -0.5277528870164087, -0.5655128661030272, -0.5481324049045992, -0.18681906531605327, -0.08457143882821294, 0.01592916325997842, 0.09276193419542982, -0.09947284325675723, -0.05947002521197677, -0.021986527303127446, 6.634366858272025e-06, -1.607911534899126e-05, -0.0005338238699110732, 0.009019540460610974, 0.019270387665296897, 0.00940201468751845, 0.05732217543080899, 0.04579411763142496, 0.03401802063886597, 0.22441566927037268, -0.08584992183897575, -0.3228887559781543, 0.0661746764421686, 0.047025107003927785, -0.18659148832411893, -0.07305320286746529, -0.12418091388486094, -0.007617529458475977, 0.11489740148843758, -0.11275504084489346, -0.2907693776749645, -0.1841165720503717, 0.1236562738755401, 0.07069881717007145, -0.04526626034793731, -0.216050962233494, -0.1357586960932772, 0.039363032015768545, 0.0009457680954877356, 9.06262227383286e-06, -0.02911141531629019, 0.0372609946381644, 0.09808916551058197, 0.21248290015196442, 0.237411614721351, 0.3500473247817146, 0.26369766796977295, -0.06106434691849497, 0.14620397308815872, -0.042983424551541694, -0.221600949226074, -0.018474909461071956, 0.027550000508908167, -0.1768856070607876, -0.06081647651615315, 0.1563485579110184, 0.3419126892636368, -0.2069076281446553, -0.11645878380405818, -0.044058072791816706, -0.1369530331632517, 0.131089478495176, 0.18649395723058976, -0.012540250882483912, -0.06909756935524182, 0.11880266485192008, -0.0006440095295968557, -2.2289338673469995e-05, 0.017200749996344036, 0.04661663728127032, 0.042924137385884256, 0.2060910213133393, 0.4786012064041017, 0.3685918647762134, 0.010095173543742859, 0.4222665160755683, 0.24735750079655316, 0.0035245077695803583, -0.07449905689653533, -0.34011789091277295, -0.38888536601758145, 0.03749125041876154, 0.3114668059302893, -0.23806967565782897, 0.08911363853631601, 0.2497710382708191, -0.24711309558761801, -0.13016765836495375, -0.33725082280443536, -0.23252297775886463, -0.05416027885518721, -0.18127422200926874, -0.15871499742046818, -0.05526280542183313, -0.00677476161081057, 0.00010710770974360197, 0.024130372650738773, 0.03875175716858508, 0.1242219725357308, 0.2728937934069396, 0.5564609898489778, 0.22616833927344002, -0.3541744268509676, -0.012991097332772152, -0.22590524193746878, 0.1632599342415608, 0.2192738265000224, 0.19689765003971782, 0.013756695051317663, 0.08962409436081599, 0.15950240865170717, -0.05059127487525796, 0.26124450013415557, 0.20293157834573003, -0.19109674388224784, -0.18867876623257906, -0.33564420078978685, -0.30652123070184856, -0.40525103691204367, -0.23256570236400506, -0.3829717628066637, -0.1973549310004379, -0.0035838721146350962, 0.00026769629886438695, 0.0174636348624443, 0.04549133104971709, 0.09527845908666482, 0.14767337522064028, 0.13970918655349845, -0.03196578488119152, -0.2986319384224762, -0.10825009517089115, 0.06869286735371616, -0.04552007709251338, 0.14997781688534392, 0.24931544410286957, -0.43678026142757076, -0.14410163714329657, 0.2813741921444115, 0.22844073516257668, -0.04950371182812792, 0.08769614314672293, -0.20996914799267283, -0.2816717939758079, -0.32941409375844805, -0.14951799088040138, -0.37232188992416365, -0.32798987586826023, -0.3213991552221632, -0.15294878854378144, -0.018005844705020233, 0.0006811762764892615, 0.012665048507543086, 0.0323636007234657, 0.1202347829698974, -0.008719806719446761, -0.29261957818339907, -0.30133740824199184, 0.0920236234527158, 0.14752537424846246, 0.1347097172566154, 0.47404167693757115, 0.521806393433247, 0.17731912052482987, -0.7096683328003728, -0.1905202565466352, 0.6020475988162699, 0.48409298472744017, 0.7951860068550815, 0.3327736674410589, 0.15380508758817252, 0.22618884226201982, -0.16283915656695427, -0.320944867609197, -0.5729498193820336, -0.4432192061334941, -0.25508895984245544, -0.11166892504767535, -0.012492074227681723, 0.0007282448208016934, 0.00964665892059532, 0.056678964574816436, 0.10933997364871997, 0.01670948463573493, -0.3420464992959584, -0.352820117307054, 0.05031743811150974, 0.38498110136656527, 0.1516822788910381, 0.42690633453415944, 0.5791913766376936, 0.19248862674269043, -0.34988413158876047, -0.2349775291376279, 0.42271396376264037, 0.7027190209696902, 0.6560568763975869, 0.6360458031643869, 0.35258710324487946, 0.28969488138261806, 0.17398790272756556, -0.14804365602022962, -0.6018974812698781, -0.33234358764644567, -0.186542028705487, 0.003941898316128529, -0.0014256281807229533, -3.57849865452549e-06, 0.009587574266704244, 0.04298942463338965, 0.13185567392399813, 0.2165223965672767, 0.014122307124714436, -0.07101015824378114, 0.4499758073426239, 0.16183143460380983, 0.3715309092397303, 0.541917199560767, 0.12976426498621868, -0.29040335766907016, -0.7926488977314727, 0.13070179452801156, 0.46895710021017145, 0.42568284103022785, 0.6911516657239428, 0.29856837704541456, 0.023854607388542764, 0.22194727542709836, 0.14435991146492205, -0.2763507037908434, -0.4205209804756224, -0.1560429016867294, -0.09312600217855019, 0.021696717053655168, -0.026402666347590843, -0.0022208261189046617, 0.006876530052070013, 0.03330597132831109, 0.10142540366446734, 0.23931212840131091, 0.21894858194429245, 0.2005103611564638, 0.5373635565166036, 0.3248618234265772, 0.46535130359906657, 0.17964309344298648, 0.15849810492780902, -0.2998661106883365, -0.4554401089591874, 0.13732466305597843, 0.24025023599050566, 0.5891444786462042, 0.7083891685376668, 0.8935147757315963, 0.6593670767140662, 0.4387629898487725, 0.04185268603939756, 0.05028281140799607, -0.14227271757177495, -0.17209348819208437, -0.03946800672943633, -0.03669282327821958, -0.002920006843719528, -0.000462133953496456, 3.512615266172387e-05, 0.015919273653771982, 0.04211398425408308, 0.19491554832390706, 0.11512094108026737, 0.16274767363089468, 0.09027371834256515, 0.1046680030509406, 0.1545112457292305, 0.2850016219529652, -0.07761209866171012, -0.5075671310189309, -0.6100842408376993, -0.45714085045973774, 0.41525889156714724, 0.6377829071226476, 0.7241529390890294, 0.5863594197753537, 0.5281751357200185, 0.22598279781575364, 0.11998300865897306, 0.05682271620180124, -0.17113985084628378, -0.2353446732329712, -0.10107836309809022, -0.02994727751825369, -0.0004936656640549032, 0.0015715697851816355, -0.00014084295416974204, 0.00020522973642733903, -0.027272372060474497, 0.04453671081719032, -0.06633547623423248, 0.009360555731227122, 0.15024253200019466, 0.2587075010670867, -0.016228163375746035, 0.056370303428518585, -0.06479437023653031, -0.3603717849437, -0.3375196512545788, 0.18599864908018374, 0.5273472868770768, 0.6298671634750623, 0.5568237839023353, 0.2792227619553795, 0.15899670685657397, -0.021289935196709853, -0.1675951035537238, -0.15277501976794114, -0.18643877858809305, -0.2036240516115688, -0.14416914460617355, -0.07198034118252997, -0.0009766077191156368, 2.7490654738135337e-06, 1.0145242381633055e-05, 0.006789998768393233, -0.10078215210252406, -0.11937772214938464, -0.18819944601750244, -0.27534054053110724, -0.310594276947587, -0.0743304248377322, -0.02711395074464722, 0.032683678604891554, -0.017211416849866705, -0.24277922300701352, 0.06145501180170969, 0.10142772528773283, 0.6588848438106437, 0.27655553517960846, -0.12000546840447802, 0.5512351508954969, -0.3608530253294071, -0.5154929551812525, -0.4552654206332957, -0.45345839841706304, -0.35113396232814587, -0.23884062424364463, -0.09866078656061142, -0.05189104513737579, -0.0034062981657243265, -1.6093996555660764e-05, -3.0578941067245524e-05, 7.448208010779954e-05, -0.12915081504518566, -0.13801357565750846, -0.2985344316666755, -0.37741770935562485, -0.3092775944609146, -0.447772436459592, -0.5844532069892707, -0.5128344528508996, -0.309302343844394, -0.6155626494741282, -0.22929816330003902, -0.055779802198800965, -0.1695787236330674, -0.15443197459091498, -0.1491014737744612, -0.27238152740531796, -0.6357475081742286, -0.8631784657268382, -0.6169513095698069, -0.707197886781043, -0.5995134782177487, -0.22646504443211216, -0.038989308781246027, -0.005597368164694353, 0.00013552650823390572, -2.6873076909635997e-05, -0.0007799637991748235, -0.008898507691002248, -0.04878888250816347, -0.12277419303217728, -0.3061632773396434, -0.4347686426747786, -0.39531763222519717, -0.6568145361984268, -0.750131556644658, -0.6358202509131239, -0.49402890280881734, -0.7411688427524759, -0.48373175919855177, -0.24570099762155384, -0.4860679622532166, -0.4183231073904379, -0.5640483628049775, -0.6889156319397424, -0.37644920568908, -0.7425069769329125, -0.7108463232383626, -0.6866081176582679, -0.5695443485125167, -0.16445548472981006, -0.0009230470503221414, -0.00284500462941899, 6.0573099175780324e-05, 2.8570598843531703e-06, -0.002157500082050011, -0.03393421317877891, -0.14064249485921315, -0.1824937966157688, -0.3383438711465744, -0.634116683240754, -0.7662014219045814, -0.6346624043471303, -0.4188012942691396, -0.33883674770807737, -0.24896154721416905, -0.42940697312288817, -0.27304741128334303, -0.4465097726601194, -0.5767460863721744, -0.35279140465906395, -0.6540162794189923, -0.7895931308898093, -0.5463716524777252, -0.755930104326836, -0.6046538076485973, -0.4772522197011474, -0.5306040125526179, -0.08518153545060858, 0.041896213782310315, -0.0014748158691386191, -6.1009052360968144e-06, -2.744152470925293e-06, -0.0011581995150893474, -0.06720363695627898, -0.18030713489891667, -0.24527295347628636, -0.4787734716264947, -0.828654368080652, -0.769274930969457, -0.377697026471303, 0.11950173955517064, -0.05323310387147819, -0.060458293996162586, -0.1726674210687442, -0.3880271344352869, -0.5822363088398343, -0.5648517969970478, -0.14166415965074988, -0.5244942999669123, -0.5317900197692974, -0.41954989025058426, -0.3780965958130508, -0.4225806275220137, -0.3933822856975629, -0.35823555578766814, -0.04099197399723676, -0.01793296089538586, -0.002242722911459782, -1.289669992371228e-05, 3.987434796488527e-05, -6.932583778911752e-05, -0.054988207296885645, -0.10770201101683849, -0.2374436282856871, -0.5469730796043116, -0.5886872975483969, -0.35325306819958563, -0.13106276014042434, -0.05510393414117025, 0.10990643960055255, -0.01977125023994835, -0.16238095638220593, -0.24080310464142585, -0.12155985417621215, -0.06202844943504941, -0.28044994354937464, -0.16733391973482423, -0.370733977390652, -0.32628123309889484, -0.34182603749190354, -0.480252122913087, -0.33440837820236735, -0.22764146271773913, -0.019344035095029858, 0.0002515242956379871, -0.00037504299703928215, 7.412251530529345e-06, -1.924971760488544e-05, 6.881069646361818e-06, -0.05136954710555369, -0.08851774725014423, -0.33669084391114307, -0.45284103058217956, -0.24813070400371412, 0.06160966364765727, -0.11991660183875216, -0.08625773340829852, 0.006386084309767584, -0.23763830394723193, 0.04975281190627261, -0.0339424171477475, -0.0021767406565756675, -0.1289441237404955, -0.3240030623972961, -0.12215034478788625, -0.2093543384125805, -0.19069266273491614, -0.1617478964241884, -0.2678332146977636, -0.19930961110505876, -0.06761041847114826, -0.05229080778906759, -0.01714397572692039, -0.004184338278014218, 2.5990307222674535e-06, -1.1351178808051766e-05, 1.3236383097423225e-05, -0.012065113212190531, -0.053097195881230706, -0.18589696132227504, -0.10745799720523218, 0.006355731604019908, -0.04828463352511554, -0.15666138675565566, -0.3045727718996246, -0.2714325382114447, -0.412553764075234, -0.4390079913847828, -0.4498002306851836, -0.4782959966199107, -0.42043323346851547, -0.11672688407911844, 0.16292358422735287, -0.14944625299630732, -0.04136024231346019, 0.04836761812676377, 0.047461737706498315, 0.07470575599135577, 0.08325800474595467, -0.0010355162083979194, -0.006303096437851872, -0.0011682072629862936, 4.371052791012072e-06, -2.7042294350661002e-05, 2.8366833926885045e-05, 0.00016391213535711457, -0.0007605500595586332, 0.03380370887671473, 0.07006738542675695, 0.10912191261441911, -0.0454612173421124, -0.18973022093452294, -0.19867102879947088, -0.20620774740316594, 0.00026384141898201814, -0.09788251633406372, -0.24024860538354936, 0.02249581747629762, -0.16736584563363405, -0.11701168542526462, -0.08917654025652087, 0.03268858899759578, -0.0526724816369858, 0.07041032183962205, 0.11678023015618715, 0.05001657719544895, -0.017770546205980293, -0.01834032827795321, -0.0006437867146937758, -0.0012477814999247215, -7.223255462605254e-06, -7.639499070682939e-06, 2.2999306273231234e-05, 1.9326802799534973e-05, 0.0003445814895532149, 0.01010984698269044, 0.003246560814943237, 0.06781797818023588, 0.15535361115520524, 0.15411845493705098, 0.2031758886940114, 0.15256890755335092, -0.007328093763857627, -0.08573425270938477, 0.04304707613827997, 0.2043839954713982, 0.07981526192362363, -0.029806100594381744, -0.05432907348670566, -0.0025438438443855867, 0.08505413100178597, 0.05290034483155407, 0.03986168607061639, 0.0024822920214006517, 0.0005785424634062042, -4.779474755462331e-06, 1.3320156365221704e-05, -1.6743181729469206e-05, -1.6414535765675326e-06, -1.677855882882673e-05, -2.0452957969168513e-05, -2.7605121510679195e-05, -1.010563201726707e-05, 0.0001921865170975319, 0.0012077011310796621, 0.002534209762438604, 0.0033851582571549086, 0.004352169285460251, 0.007264217840184563, 0.03011188663712423, 0.01839914378593246, 0.027500437430515477, 0.03265811332087702, 0.047046933520838226, 0.0494667806618975, 0.051512873709423215, 0.041785796192643665, 0.03764657360945273, 0.017289936518089542, 0.008788246568056188, 0.014945908742677635, 0.016334272616010358, 0.0010740412397732227, 1.424719079750267e-05, -3.4540785063863023e-05, -1.3656944403900498e-06, -5.663315044868198e-07], [-7.887128229868876e-06, -2.7757129666287556e-05, 3.017064385249852e-05, 1.5618889538636136e-05, -7.767009059206999e-07, -7.405501185520699e-06, 1.0712671183727295e-05, 4.153952512069346e-06, -1.08681180835346e-05, -6.267176601041211e-06, 1.6458622436493376e-05, -3.7919070020365835e-05, -3.219510677285922e-05, -1.8596549812008848e-05, 3.282776569880872e-05, 9.437732805537232e-06, -2.5997494711603167e-05, -1.4108185983721136e-05, 2.6478504475219332e-05, 4.269343979911232e-06, -1.3580886007506134e-05, -3.3615494640544625e-05, 2.3848153173519166e-05, -1.744306924833149e-05, 8.3248172117351e-06, -1.2109127043705644e-05, 2.3767243604672887e-05, -8.686179809157072e-06, -6.1486964694705225e-06, -2.403585255502927e-05, -2.6167673671929597e-05, -2.9188884733937935e-05, 1.664082100275538e-05, -2.683947375597431e-05, -0.011443142571885435, -0.016997651500372378, 0.0004652723873422823, -0.005216315413884752, -0.01730335039348233, -0.01734245420902515, -0.009710044329529975, -0.005486156829060433, -0.012469264750996077, -0.015782146169247804, -0.011507758765767793, -0.005563996303987855, -0.0006514559839320988, -0.0003408294535865969, -0.00028860053475952596, -9.499723383139031e-05, -0.00026932643614409026, -0.0004015620140830942, 1.9899122276138447e-05, 3.390645833154548e-06, -1.954152337652836e-05, -1.2791634333385598e-05, 1.969255588297827e-05, 6.472595454173487e-06, -8.365844447124152e-06, 2.9459691083434267e-05, -0.00019132343743150389, -0.0002858062302089898, -0.022141200696865915, -0.05757713339347351, -0.02740057742520981, 0.01226444491574644, 0.00614828899677771, -0.028372663470104323, -0.05388727765636935, -0.06103335912624451, -0.04869568536446772, -0.07658059828033448, -0.14330294180958303, -0.09031656573652311, -0.09489884744232717, -0.04635758336179529, -0.02098043705451108, -0.012636059613469145, -0.0069863506099798614, 0.002088308158059657, 0.022728424469251256, 0.014667810727255155, 5.561913039213017e-06, 8.761722345965742e-06, -6.155726524689814e-06, 2.308258088207187e-05, 2.012079557084752e-05, 8.703038733696301e-05, -0.0017207727792729207, -0.0033641644728277724, -0.031119187852221678, -0.0363704874044546, 0.02551759950385294, 0.024747560292073156, 0.08177144078227915, 0.09347660313008616, 0.028688537907008583, -0.1037024627829546, -0.27248474430410025, -0.312835650338875, -0.3420546990272997, -0.2745432515730227, -0.27110980419835257, -0.15980656358604042, -0.16746424294748707, -0.13265672362678319, -0.08352384455008142, -0.05171603738468641, -0.0019380966942649297, 0.016747835870573043, 0.000383610201690919, 7.359953805070272e-06, 1.1471631917249009e-05, 1.3688495590577323e-05, -7.751231504349098e-06, 0.0009125907085150841, 0.0012017485306117565, 0.032649206184356246, 0.04506507391806386, -0.035110694246982196, -0.16528455542890372, -0.23250028829581776, -0.1716055946687378, -0.05800396975863565, -0.08147329444270358, -0.22935700308396323, -0.24101357362443385, -0.15358626887701007, -0.24946593824080787, -0.11399097839394047, -0.1846558524390737, -0.24532279580797126, -0.180501559868885, -0.23650751316240043, -0.11936291824604663, -0.06467747247497281, -0.02794838413642968, 0.018381834450666948, -0.003964016868761969, -0.00031963167708460986, -1.2734862135876828e-05, 3.180578626028567e-05, 0.000125173020954347, 0.00638085611010767, 0.004389788080628796, 0.022730810970892006, 0.14154241657266067, 0.18999448263604823, 0.0036254417013576105, -0.10979389497808408, -0.07610980968753929, -0.20736167507031403, -0.2942111093378621, -0.2289912256874125, 0.06628511291428509, -0.14140787744510094, 0.15816855342785285, 0.05779410709924126, -0.06797617274033406, 0.026662751289993708, 0.06514726277315261, -0.07856612971487294, -0.10028849781387203, -0.09345075584633254, -0.0896606333538433, 0.005822081473764583, -0.013584324549808563, -0.0007235690804015332, -6.090482381372289e-06, -8.983610622702214e-06, 0.010491112763111848, 0.025838446831645247, 0.09902474973576171, 0.18287959220342329, 0.4252030150442229, 0.20456283600438419, 0.31221493951748613, 0.2945380469005512, 0.1649384766969433, -0.11365285504358023, -0.11195668328535335, -0.30780457314942067, -0.1315081786403128, -0.08526945776150296, 0.07830092027577666, -0.03723442800420035, -0.2855440786178882, -0.2777830937078576, -0.39305991174524935, -0.18007808322552746, -0.23048677396207956, -0.2728648406644465, -0.16052545449550268, -0.09687410971321761, -0.023147765531109414, -0.004843523272661426, 2.242764192524865e-05, 0.002791352220624018, 0.043323662698784085, 0.034282824368400015, 0.11919446878105522, 0.1551785122121803, 0.3255669145552742, 0.5145371856527016, 0.4897881785506771, 0.3831248213245644, 0.18756613529567268, 0.13459318654575161, 0.22350877528868351, 0.14206762268500145, 0.04544081786581755, -0.19089820617474249, -0.11532623285011073, -0.2938085151507354, -0.14840270653823942, -0.2742394534569193, -0.014984947886533711, -0.2153148778235695, -0.19775375634208844, -0.35070714595108954, -0.23705660061289652, -0.14260976143828977, -0.030726655546981955, -0.0038544403584755875, 2.2436393163767405e-05, 0.0009515103722222102, -0.022796357355329207, 0.030703766409471662, 0.19819759836496545, 0.23524922139091559, 0.13202391167788127, 0.7177196892127978, 0.3881341737462286, 0.2433040119015798, 0.36382834643495365, 0.4626262671308694, 0.4595209592076704, 0.35362523726036993, 0.5799626798152591, 0.17442547924514168, -0.01524634613269827, -0.07664562909827188, -0.2560188496158109, 0.07322437104748848, 0.23155585815743335, -0.09049667192615725, 0.10075040700759012, -0.11785728233906968, -0.28914497235515746, -0.13541044281730516, -0.04707323155375178, -0.013215135453903867, -6.414290141008176e-06, 0.00905307818976154, 0.0390230533743847, 0.18271188426581028, 0.3175946168764467, 0.40364955079032466, 0.34477697362231063, 0.8112339000471728, 0.4066320479913603, 0.636405936918863, 0.6900619772210517, 0.39650819239542784, 0.7567538376372438, 1.225626662552372, 1.043753142644435, 0.4253972046694338, 0.21983350057924342, 0.033399962424140936, 0.03543860931338872, 0.023447830977532412, -0.06174186617235965, -0.14671577550102577, 0.08614630498576842, 0.011572307402853721, -0.24129904916766542, -0.1265374875652633, -0.05759241712801866, 0.029415810738514913, 7.063740720328583e-06, 0.0012749253382633564, 0.03891454143318304, 0.18696898495868675, 0.23079030046979152, 0.402510984766966, 0.37489107573110386, 0.30118356986583444, 0.34597000637468833, 0.5866709168188813, 1.0637805696100764, 0.9338220625357506, 0.8706718846937049, 0.867074155646644, 0.5076071320718939, -0.006237949214132609, -0.09330757837216457, 0.18864030603446583, -0.04324465961834625, -0.22254243943350777, -0.14288181267394895, -0.08159075469804479, -0.056526639796758135, -0.06602660013062403, -0.2290992943183066, -0.09580741722307261, 0.0007644899653805082, 0.006225017710505557, -4.626885340526647e-06, 0.00033857271186947866, 0.009562278245688383, 0.11228641632916841, 0.23093105015579568, 0.19743890264654368, 0.19463515334655676, 0.025649194779006415, -0.04080877760967407, 0.3204934647435844, 0.32253941348396986, 0.37205576261262924, -0.1929031133678395, -0.6581747545591408, -0.6108572041533128, -0.34764814656170645, -0.1562789294578805, 0.13181178170385632, -0.0291349262229707, 0.04124044241829523, -0.11262415258044026, -0.1838813184162612, -0.22318004814151376, -0.21339465101061067, -0.08315588807471683, -0.0017608970847707024, 0.03153594901083353, -0.004141885525909984, 2.8176728405717405e-05, 2.9091146347265686e-05, -0.0005624254806743723, -0.0019206939531877752, -0.044886597592012446, -0.047016913644380466, -0.19165431508645553, -0.20502229430225435, -0.19233800410007199, -0.22193506875475666, -0.4622567929940453, -0.6844016354107257, -0.9332509109118172, -1.1919923486636557, -0.5552371113096293, -0.07198069844001982, -0.002543491470920657, 0.10531079645441262, 0.03624359761530316, 0.12081995918769849, 0.09010465899046013, -0.261229076057449, -0.42599406544710594, -0.4412818658490985, -0.13111881545011425, 0.12817973630731755, 0.04991032685608222, 0.016837736303154063, -2.7972088099368474e-05, -5.726608171601103e-05, 0.0026389286269791544, -0.08549707996875347, -0.491987293694951, -0.5242057878251714, -0.6433910643296602, -0.4172168642453409, -0.7462522117564844, -0.692269583828526, -0.7719666508603048, -0.726291341408745, -0.8918374114070273, -0.48179218096089493, -0.019595503349892896, -0.5581879715604431, -0.3476702348792111, 0.1694651717700661, 0.10993404067443603, 0.045602164573754024, -0.10950059925829893, -0.4242430734879038, -0.4107660405751804, -0.1743003297379086, 0.23899890025968765, 0.2000547468516369, 0.13537715262171723, 0.08909842962350539, 0.0001801330702316408, 0.0007131055572202806, 0.011901169317094904, -0.14682186853321383, -0.5803326024384741, -0.7960926436993057, -1.0252229268397843, -0.7897960649665966, -1.0068784465253042, -1.0609563880146595, -0.7036505061552699, -0.38388597870105184, -0.23183983287631404, -0.2922849218553653, -0.11887584963320465, -0.21333521315146528, -0.07335067612916005, -0.13221634012427919, -0.302169314246234, -0.04748355455263662, -0.2205325425415585, -0.3251281597283799, 0.13851144848719202, 0.24915135128267998, 0.43073226383187707, 0.3265100337023442, 0.20306839661698722, 0.013523956617791192, 7.636245316031915e-05, 0.0007142908042283494, 0.01783749458447119, -0.1693829350197632, -0.5276404690127037, -0.7756514149682606, -0.8629157358969688, -0.6225791995215818, -0.6848006060952332, -0.3395535417650105, -0.18387790627092107, -0.07657053293904863, 0.0190186338224321, -0.04143779223349973, -0.06483338319989687, 0.03517263391528082, -0.1432437347123245, -0.17973063809423104, -0.19157967107143278, -0.055687420262411594, 0.03765564846627727, 0.12428623961768526, 0.23957781280059773, 0.2636671599281385, 0.48307659362757543, 0.2623747039406303, 0.1889363452162135, 0.0067453147146017585, 3.232049600343592e-05, 0.0006083624156450965, 0.008147756240897695, -0.12727587090210893, -0.3577086380965584, -0.6440883273546002, -0.4320053941318813, -0.16154445330228603, -0.33717270037313773, -0.0292444992655694, -0.07082342575642915, -0.25109995090786646, -0.13076954094498894, 0.11760578987287361, -0.04701894920457739, -0.12050586917049852, -0.01985141395842105, -0.05435230977892982, 0.12186743842497355, 0.29644206730563555, 0.366017665234867, 0.5512095665969287, 0.31398094163207524, 0.385189021849045, 0.3282556402347294, 0.25164474964665334, 0.17411806684670209, 0.004494659076643787, -1.4054796257188228e-05, 0.00014168278461554941, -0.014749140912190907, -0.028477621347752176, 0.15056302261721471, 0.0055441055702738625, -0.15235985380064723, -0.09752437088508929, 0.1562340744845286, 0.11442792647248834, 0.05564444376548607, -0.08049253885514764, 0.18717613672360547, 0.0700938642636759, 0.04615536368775356, -0.10821738397988122, -0.029881183622334332, 0.028746399226013245, -0.34310930926176864, -0.065944906638871, 0.17624437562602288, 0.4606368070188893, 0.32282521209373666, 0.303312654739907, 0.31131982524784196, 0.3374635863874358, 0.15061356142503365, 0.028220053172969894, -9.346279751952457e-06, -2.059211008995766e-05, -0.03710330733455951, 0.052620097240651025, 0.3301297314625401, 0.24121998210940487, 0.03537881222730799, 0.07723342538717076, 0.20865915175743768, -0.13469842691601905, -0.030673791168570927, 0.16554605575372053, 0.11969260289883002, -0.147797513904507, -0.0920106175220589, 0.005766766563688607, -0.18046265375115692, -0.10683795853534295, -0.051888456449028085, 0.12642690315158325, -0.07868210376807107, 0.5028221436419928, 0.5075079633746462, 0.3515326830742467, 0.36386062407806574, 0.24947996024131094, 0.09490390104031324, 0.049600306503736154, -2.781371516576114e-05, 0.0005194902523150854, -0.0683958169863411, 0.04861729125773132, 0.3312010800686572, 0.18503517357389837, -0.014519546382326366, -0.02786991974246284, 0.0382313008713678, -0.07922736061212186, -0.1297041913636812, 0.2946378107522406, 0.15940809354428165, 0.18908746661783762, 0.22561986981882529, 0.23183173292436865, -0.04740323904563158, -0.0633464093409633, -0.13604662219565994, 0.07012928102822019, 0.03612335165405313, 0.3767535955953256, 0.20014813327415798, -0.09840480320755227, 0.1223108179585865, 0.14772447178412132, 0.05708496986289954, 0.006044373094729861, 2.327785063307822e-05, 0.0009134407499207161, -0.019053837222972565, 0.16695324217123916, 0.3178510415701901, 0.09872128457770779, 0.17344713408008713, 0.1197747638597253, 0.2747869006334179, 0.21859820076314418, -0.14605849518094374, -0.019146151904625132, 0.07957527805198727, 0.026455268919452553, 0.26537640268013646, -0.02667524178669592, -0.048589598634094976, -0.4405017182807957, -0.4621958901081329, -0.23176433401196941, -0.22869650052340498, -0.0884898824667862, -0.20294896674542875, -0.2279835145675319, -0.10520697975371109, -0.05990379295623447, 0.017211333778771855, -2.5267843647636427e-06, 1.9861167840162055e-05, 0.0009005253216876955, 0.04017739409742004, 0.1047206553067269, 0.12706986252425784, -0.12094925226405494, -0.24688872006041218, -0.2362881216816027, -0.15900091381802653, -0.002189410532053528, -0.009405313756196455, 0.14642714625776518, 0.1540666572766397, 0.27401481557425705, 0.009482434050023128, -0.05911193086398865, 0.048334452104198074, -0.04535879912888801, 0.13113008496842837, -0.23037762700789405, -0.23694029568225455, -0.39447153333166224, -0.25238999665020456, -0.13937880749171452, -0.0709834498298423, -0.012261409853056359, 0.017285064979317425, 1.710837635129141e-05, -8.095331345599338e-06, 1.67075183843136e-05, 0.03252621737086873, 0.01820237865826048, 0.04658411656998141, -0.0707035062179357, 0.05929045018696184, 0.04450499451659679, -0.011881779064242624, 0.21077113638664138, -0.031720407678284886, 0.09131738498014162, 0.21647117421385892, 0.10159598415438345, -0.08338170664989963, 0.28411330592861905, 0.032883470022968965, 0.13691852239750119, 0.20884140973758442, 0.07311745410424199, -0.029352728317398102, -0.28694684062265186, -0.04241502577904086, -0.09125368380181874, -0.08930618086257068, -0.008743461634208948, 0.0006077056590135947, 2.626872267554694e-06, 2.912416015850961e-05, -7.149535901351833e-06, -0.00011698543047226594, -0.007883019318743073, 0.04153931547609198, -0.07135367376704306, 0.16250880193756434, 0.26387163627155324, -0.027989513920843652, 0.09885564078252526, 0.00505494607194171, 0.5250372659134757, 0.3425356515805112, 0.003035459508456245, -0.055966548977855655, 0.37501343185498803, 0.043998286797228135, 0.07336534293835516, 0.396853781846431, 0.10690025825603174, -0.0213308607042373, -0.008788147144045338, -0.08400486162183525, -0.17180658430720008, -0.034726049918625226, 0.022021325635084774, 1.9164244498347666e-05, 2.3189839339470672e-05, -1.4870529402750182e-05, 8.49415236808157e-06, -0.004704603316044925, 0.022302259942431235, 0.03924731332563238, 0.08014714362709785, 0.2129024491758958, 0.17716880195106344, 0.03759417584599557, -0.009005694776313114, -0.10671563395825011, -0.004683951823389678, -0.14297202207678258, -0.05757485971795197, 0.3451624799084098, 0.3832420698438604, 0.06458969070308437, 0.15745369196969344, 0.03059405582781399, 0.10540036126451106, 0.04474405293598674, 0.005288994465038785, -0.11582867764088568, -0.13407803691223547, 0.07859889117147226, 0.07318692976525261, 0.020982366485533862, -2.843074001236594e-05, 1.1633101146968785e-05, -1.3459211293617903e-05, -0.0009390184018757093, -0.013546892289705277, -0.007537449223298733, -0.03870485671172019, -0.002637661806516434, 0.062472189395747425, 0.16525083971573326, 0.08257939626109358, -0.17777958865982035, -0.1730897906868124, -0.1439319532211116, -0.0516565936614784, -0.06477904737410997, 0.012548902054528225, 0.18455112728640385, -0.006762486864907578, 0.052274968809331857, 0.04800547709182974, -0.07467983114693935, -0.09382425228275203, -0.07711976468710256, -0.07747975340080052, -0.0020434190843213788, 0.018640003677367404, 0.02231537776424761, -1.6343255778581413e-05, 1.5897198480175235e-05, 1.5121531166386564e-05, 2.459349712323563e-05, -0.00034272406462336464, -0.026476182255484648, -0.1172523627231299, -0.12371845489718455, -0.013679550029350633, -0.01818212118798599, -0.015224748087216213, -0.008867029340181838, -0.010628419456917889, -0.1730515376120953, 0.020382567153646235, -0.019598938672916868, -0.048395657980423855, -0.025474094222346123, -0.10602439539371834, -0.06103797504665486, 0.002247272548307368, -0.021053720392995887, -0.030143163524006394, 0.009857423478493013, -0.007392186649803801, 1.1307714904032571e-05, -2.4926962522645366e-05, -4.447267277023663e-06, -2.5314614434472674e-05, 3.2198152648620936e-05, 9.908635109072213e-06, 1.5875190343288443e-06, -2.6438327107218245e-05, 1.248186851463641e-05, 0.0007761286200451173, 0.0033010962019463254, 0.004218777895036217, 0.007363259000602312, 0.01788403527789798, 0.015628249777081497, -0.03543184890115265, -0.05634312479377696, 0.016281507056703195, -0.0705169571485646, -0.07237909884389014, -0.03359418155030548, -0.01163686792784609, -0.055720881391016476, -0.02803364192504586, -0.00024188013907057058, 0.0028472641078276665, 0.008796139967138737, 0.0029359092643248532, 8.930651147021133e-06, 9.402558793405862e-06, 1.661138917341162e-05, -2.2715585771922967e-05], [5.410881288647674e-06, -2.3922810600010623e-05, -2.5316239706640852e-06, 1.5023392989598117e-05, -1.8426177271518156e-05, 8.627172522471722e-06, -2.040781895616593e-05, 8.942279511732556e-06, -1.4820634795588126e-06, 6.400765175075062e-06, -9.77280590431406e-06, 3.380751594814746e-06, -0.011252112011726973, -0.024635844278327386, 2.5057683680427847e-05, 2.8457790523072183e-05, 1.0454622141362477e-05, 1.911144195908985e-05, 8.816151926521809e-06, -6.5710182913098385e-06, -1.8067507116624394e-05, 1.25452058785414e-05, -6.696037396647084e-06, -3.145907256869966e-05, 2.2388201061595975e-06, 1.3049633135990948e-05, 1.2975458881901107e-06, 2.22532673662422e-05, -4.004258540890861e-05, 1.1558963733386116e-05, -1.0574032916130304e-05, -2.1594484621032167e-05, 1.2025489864287629e-05, -1.020999085573841e-05, -0.0008456718313773101, -0.0025533104851103937, -0.0033343152692246985, -0.0041861962849522516, -0.013882192480311676, -0.02145161071701171, -0.07285640793567112, -0.07106405214169248, -0.05250630446498183, -0.08420641096960972, 0.027663136430048012, 0.0015186671174353835, -0.019820900946491245, -0.02378948227535375, -0.022443924244645145, -0.008118577402326336, -0.0003033730776565665, -1.0555467504243452e-06, 1.5833578995520736e-06, -8.186035818379876e-06, -3.1363178951535405e-05, 2.704094288279588e-05, -5.602398203929439e-06, 8.911266098816482e-07, 2.3472671887181537e-05, 2.8150841129965632e-05, 0.00028862626113473905, -0.00022688820441844846, -0.006603917888896292, -0.018454521073593622, 0.045293133547785386, 0.16424698712208907, 0.0777475057516535, 0.03987461633566032, -0.04319252054391226, -0.035330669473638415, 0.05437003361858595, -0.018969558512914837, 0.02468530369241005, -0.08537390878039465, -0.16172286334191818, -0.17069167950676647, -0.09924999712646727, -0.09180582532739308, -0.06757842943606085, -0.02031239045639756, 0.03958698101267612, 0.02866556019186912, 1.9460024509585083e-05, -1.1400989197743033e-05, 2.2018916957315235e-05, 2.2952129703392706e-05, -6.5426459652631245e-06, 2.329086585514244e-05, -0.0006199073947144944, -0.002144593239156003, -0.0028357045886420046, 0.02684139556994628, 0.22660075354091946, 0.38297237581483917, 0.34879754842192323, 0.3558482053393453, 0.33856020029125833, 0.5372202058515569, 0.5632087164016446, 0.2542972985816435, 0.3686714683786535, 0.22693909513836577, -0.14651480416522983, -0.31322243608856976, -0.22087583585498782, -0.10169221379609845, -0.16129015812275488, -0.1839657731937238, -0.020527028302732786, 0.025958310091159877, -0.0021393764161788875, 1.9768369578865813e-05, -3.651766148265717e-07, 2.6666968266610194e-06, 0.000515118105096275, 0.002246615573855189, 0.01046268273448701, 0.07392620656050564, 0.11197862182145822, 0.26564219574896186, 0.35774997164248057, 0.3644860895726042, 0.36657638760975064, 0.28824302309753613, 0.31036794483037017, 0.1816310021142205, 0.23110742908735618, 0.08026097469948891, 0.13214887564392175, 0.2234560639102557, 0.3881268289343979, 0.19472077824371373, 0.11624371094747281, -0.1652121995432085, -0.23940196217157023, -0.29054932730771627, -0.09481767855275981, -0.00640889540034838, -0.006249511918484664, -0.005940912057546648, 2.573862390497649e-07, -4.922454556285597e-07, -0.00041314435001057266, 0.0045198316576899565, 0.06736773582451576, 0.0808012265634912, 0.16979040955338687, 0.4275283741387021, 0.2590113307433033, 0.2139590857299995, 0.632101861664932, 0.5268689102588753, 0.34938036890005003, 0.2215363331895369, -0.07813730876375759, -0.016181585165069075, 0.16519093093976162, -0.2601916902340837, -0.2212085356406878, -0.18010422708027474, 0.05018791167293107, -0.03567262153180186, -0.33099107382189774, -0.3548140579919065, -0.22555697333258548, -0.069561155226777, -0.021857490342925112, -0.008800119744548805, 4.130977522617951e-06, 0.00032217228094366695, 0.00349389938476782, 0.02078169642976121, 0.1430369418254185, 0.28040534183446314, 0.42455285785237834, 0.3414680794586715, 0.28524329952016375, 0.6590235874433714, 0.7677655770311648, 0.33202327802082854, 0.2711464965500346, 0.2046698376555754, 0.1998763346414135, 0.15632143444187382, 0.3252213378150202, -0.08590573370065674, 0.018312700639670994, -0.07476057776225739, -0.14423699492630815, 0.003906417752617391, -0.11149680793941674, -0.36510214868173346, -0.25567579332249313, -0.12079788540099837, -0.011637704739233666, -0.008700607281230429, 2.0920957555510035e-05, 0.013618683277132204, 0.0045268462241313135, 0.08633839007267773, 0.27282261400139507, 0.23043225968205372, 0.25841185241469766, 0.28144662402520254, 0.2021049822154842, 0.14411232253771775, 0.21152018611933052, 0.3885371047131623, 0.30121122045948673, 0.43301970995249506, 0.029442063156521776, -0.16390746577154874, 0.029956044752748448, -0.007760893125803214, 0.20406330743590714, 0.20634761119668057, -0.13282461558803232, -0.022933906047045947, -0.02259068811222622, -0.30207472990301154, -0.3072910112777692, -0.10459701960273393, -0.013446998076247095, -0.005683573114333427, -4.371739631239685e-06, 0.0007413055146857769, -0.013945714244426307, 0.12506309226150486, 0.29483684427410806, 0.23253216862269097, -0.08317713226547671, 0.3481843734019218, 0.18167178796559855, 0.26395375503001894, 0.6674324770610601, 0.8643593326532999, 0.30073591547798123, 0.24369691100827837, 0.4737524360054456, 0.18615546498944552, 0.049759576521679366, 0.1605001544425752, 0.05356226392181971, -0.014926369962220642, 0.3001084280134131, -0.00995322376723906, 0.09979524811547635, -0.20567126897446425, -0.39602174269722124, -0.1076084807341329, -0.017024275816059264, -0.0003125725457007167, -2.0106419444497135e-06, -0.000629397005988559, -0.016160392702604887, 0.02449879764942462, 0.07970083047794449, 0.018071150331748137, -0.16099121383399942, 0.24480787857270292, -0.05305653563587416, 0.18889702952047824, 0.008504181265018373, -0.33116506879842983, -0.2817416114399327, -0.4215022570404881, -0.06644322088632414, -0.3047519483727138, -0.13468991249210516, -0.04421886255817169, 0.0385337145496076, 0.054795455346994315, 0.17653246495249728, -0.07691550426634759, 0.13039468785112168, -0.033796134055194486, -0.25229680770776497, -0.04737978757669264, -0.02392335315787445, -0.001284824558192325, -1.8594771559918656e-05, -0.0016908125970129153, -0.0038261927823308953, -0.1073915324101112, -0.3278737253121592, -0.5651529553135712, -0.5881789997922773, -0.47634902423991415, -0.5888992459149209, -1.068174473564188, -1.3376793863710583, -1.968825994804818, -1.7846429169009919, -1.2150373074848426, -0.8803139751632625, -0.6948566255468462, -0.2152058996628534, -0.1373099472379084, 0.14429153399265182, -0.020108351836195876, -0.13561802386001315, 0.026492034325704097, -0.02316346162209561, -0.2626250900141322, -0.1641253565098848, -0.0037783615439829035, -0.0004749395444256416, -0.0015023470997163589, 3.033472286002127e-06, -0.0011317091255809253, -0.011451960523976694, -0.18522510057963468, -0.7445105440561554, -1.1329337236348158, -1.279611539831901, -1.4710472746934111, -2.0485217337378843, -2.4457542568992543, -2.145085302637655, -1.2801081195762118, -0.8896743424093971, -0.5534046714696436, -0.1833393429026766, -0.15766018466968337, 0.011373485995766697, 0.042734328517066746, 0.08511165443251353, 0.055648877862119854, -0.23635894479013375, -0.31290190721884387, -0.24401404937593496, -0.25542062968969415, -0.08313378627218704, 0.12522260040754712, 0.002242938672482798, 0.00022380545242772407, 2.3762760621984604e-05, -0.004042631480009887, -0.017787329262795554, -0.25266670092763227, -0.9590421638042085, -1.4453360236954027, -1.76182986043763, -1.8273013496697983, -1.6832294073827652, -1.3347316960472912, -0.06328424376158874, 0.013995736103911463, 0.2271230329827981, 0.04371621881319015, 0.14006339024055425, -0.08608059326926311, 0.14305891187745023, -0.20112754675497302, -0.10357986520672323, -0.36536315013677645, -0.3623710071820572, -0.5026754163078679, -0.42591404966136087, -0.2596435175393071, 0.012297908149726247, 0.321105688104989, 0.1968822861298299, 0.0014667421190820307, -3.9226058678423435e-05, -0.007998830105665438, -0.010649824672002928, -0.22071134720674715, -0.8048137668762712, -1.1430313507500705, -1.1998036281799167, -0.7122330334840177, -0.3021668826330514, -0.11089160798718971, 0.48902580374275706, 0.19160834797063483, 0.1420965115778005, 0.4124190547177931, 0.09775390604732875, -0.18007099803882287, 0.001770258495527062, -0.41668793063898824, -0.17373247405257902, -0.3843377626415554, -0.185301268418862, -0.08788076240005116, -0.2635243707445868, -0.10972723302102391, 0.32500192837617914, 0.3912655444535828, 0.1149238950971087, 0.007533030104101585, 0.0007974736830402525, 5.324434441011788e-05, -0.009110314735422015, -0.14369922969304008, -0.4014770845770541, -0.45146460949364914, 0.025479103745911565, 0.4624848528096134, 0.3132183374049469, 0.536943123640452, 0.20334834674344288, 0.20692974449613932, 0.2950900341685921, 0.2346818894312119, 0.24426374242270577, -0.0009009979079053729, -0.029907812103914567, -0.10593183020496286, 0.32308103064182625, 0.02255570693283113, 0.15424123545741653, 0.1010140197687638, -0.20907001826829874, -0.230810592276732, 0.23351247560102883, 0.30545678679596044, 0.11505760105648373, 0.00528435755883894, 0.0002742032961333534, 0.008498269015258207, 0.0070535030989418235, 0.0010684760229832738, -0.06707486236807206, 0.262948057580006, 0.634961007907631, 0.5985808058501652, 0.08068699879509374, 0.22796867225217693, 0.2984665176728969, 0.24331289862377947, 0.04096183360618993, 0.07441980062667625, -0.06001895819995234, 0.11745619288188526, 0.012248010666091986, -0.16018756212787041, -0.09101186105208885, -0.006181624761732516, 0.05045451729486721, 0.262087087922, -0.0468746246135017, 0.18917637140088758, 0.5874945355473633, 0.41203390035213766, 0.13333267034255575, 0.0033251963165836815, -1.7164531380852975e-05, 0.005135214919882165, 0.06896702586861322, 0.20475142382015274, 0.33397402718522945, 0.351772134861349, 0.40586369491912433, 0.4012043540111246, 0.0019213062889421257, 0.34337831879874925, 0.11720270640407458, -0.07827383795761161, 0.04073076478834544, 0.2196564998351874, 0.02073927099793071, -0.29727042264544556, -0.03944438539490188, 0.13315689532553246, 0.02755878928490042, 0.3665658311480733, 0.2962692974629936, 0.22096495262661656, 0.00491567415075287, 0.13364364708428395, 0.6253432053747565, 0.5085580845169431, 0.27469614705709633, 0.002798457575059647, 2.4683721027780976e-05, 0.0016059091503017983, 0.0801465886720856, 0.26651402883829667, 0.4651323658356898, 0.32916962576560066, 0.18558082059843967, -0.14152615852463432, -0.10469187415244197, -0.1364635390723409, -0.29631935894359507, -0.1463103918665439, 0.11661649341371852, 0.11689168226528694, -0.010844621884926306, 0.24102474405949986, -0.058583264221227324, 0.013832880669562243, 0.24779572724122273, 0.2915919458031602, -0.05980956770102537, 0.03892159866625498, 0.06226632224942965, -0.1691420002630608, 0.053545810257668344, 0.3218342082643808, 0.1768826406938623, 0.022817518583606512, 2.382484800642641e-05, 0.00015288517450465163, 0.01327645385098651, 0.31789884494820275, 0.5126022148252372, 0.37750283977327626, 0.22070004992251885, -0.08364419419187058, 0.0014590057583609446, 0.30617836682067895, 0.09800313109058255, -0.12720493195353477, 0.0649137512955028, 0.1751169379041101, -0.03772989462225855, -0.12391206008557866, 0.0036638698225075327, 0.2795546928082175, -0.001875391788976524, 0.13290686973297774, -0.004361953661727171, 0.05250592559756447, 0.09731296541451778, -0.23253863456169388, 0.15574100516463457, 0.39337585661955116, 0.13374006840650543, 0.042658061823886075, -2.1911288362518584e-05, -0.0068605728022910414, -0.07843827055557552, 0.21338711709455763, 0.42829468914877966, 0.19594076894760584, 0.11026753730120073, 0.06891614821363878, -0.09683981766864608, -0.012999317962780503, -0.07106396079590115, 0.0018355192856719152, -0.17766356155894664, 0.15910000565749705, -0.1494954131103723, -0.008714287064923993, 0.014400357661731523, 0.10553758290231802, -0.05970801669701307, -0.2059151049143657, 0.12446695942421443, 0.2509261467438279, 0.034473106759574434, -0.04279124623474624, 0.12682583991370142, 0.21258810817195262, 0.10311277098641755, 0.013493034991763417, -2.225878485040891e-05, -0.01699859219021693, -0.025362195457145853, 0.30753835431095317, 0.39765470400299935, 0.291280754367055, 0.04310293316197795, -0.014740230666164596, 0.06272622286696256, -0.05185862095247514, -0.2046088768729692, -0.004066497563458485, -0.07205194375699776, -0.05783932548401171, 0.20372178398572738, -0.024642017044584005, -0.20776426461952796, -0.21359281928428292, -0.24398910654449785, -0.10550418058530038, 0.1571378289876054, 0.0009117370163785706, -0.17364449269246174, -0.07194269890312456, -0.13834465536863844, 0.02356769456539344, 0.03532329393293948, 9.368028367663696e-06, -3.73792490303965e-05, 0.001053179965101559, 0.08369764672224145, 0.2451637203917982, 0.3786580188116061, 0.034689702805876764, -0.13045147138671723, -0.017533380031411847, -0.29101660560427006, -0.2623831201791021, -0.040454975493514796, -0.26231222460248477, 0.05492819479371675, -0.11627959223510315, -0.06987313092687877, -0.3563019512198525, -0.5152398926659261, -0.16297380315047544, 0.16933506561328612, -0.004669296304031793, -0.10354558768836683, -0.07460115830713614, -0.12331212691893892, 0.07290152514784412, 0.0006817176152209419, 0.09386691759570559, 0.009936150070181842, -1.811523553598393e-05, -1.3413719486844243e-05, 3.500138379264885e-05, 0.04836702593308192, 0.034627726118854486, 0.28869437226981576, 0.23235624155667348, -0.06874610965791059, 0.32173159886035185, -0.006237103204078451, -0.08434634380909843, 0.037689346105482815, 0.027010882667792106, -0.15468363862834208, 0.08894508781177156, -0.18099155449948345, -0.026749738776095027, 0.14355052258657122, -0.04327456949533101, -0.11416745622104311, 0.017536019401964194, -0.2001244253980943, -0.4283497790510419, -0.17618734503364386, 0.08215054220250392, 0.07388255282425785, 0.031178436284640024, 0.0011960725498309738, 1.4718968610768003e-05, 8.595310516440183e-07, 1.3479519798284564e-05, 0.02502435722596705, 0.08976230683322832, 0.20167245524512575, 0.21761059951793446, 0.04558064098975789, 0.25512840951269483, 0.029893556675886005, 0.0800582586123912, -0.14630639664103626, 0.030878933333278815, -0.2225616745756035, 0.007208838977647136, -0.05021152826870594, 0.1811141669925926, -0.0778589549836974, -0.029311553319329803, -0.09876683899810845, -0.11233004981123566, -0.323815976274905, -0.18683800028829073, -0.012108437171590391, 0.09750649074116222, 0.08173215842283459, 0.02029496263178348, 0.0038738422430639025, -1.6379875388487925e-05, 2.2227427615236273e-05, -3.0177993277194675e-05, 0.004550905035176895, 0.06319367107567675, 0.2386678467076331, 0.22570103403850753, 0.20837308860369316, 0.16591149055580798, 0.2830314602066673, 0.11715226975734612, 0.08581459541937345, -0.08761268019103183, -0.013827724915407066, 0.2351823776914664, -0.12582216486091835, -0.030091237925003414, -0.015965807699225378, 0.17242304472646006, -0.0664868284292696, -0.06129478691874741, -0.13118591187241416, 0.029062223715964265, 0.023573288098735632, -0.03318898252164736, 0.016459734065131224, 0.0031010441126671797, 0.0012130098812460101, -3.295961175421663e-05, -1.7291763196343408e-05, -1.7597629768198397e-05, -0.0003998237642619692, 0.0014033553747153094, 0.15093674940675847, 0.07442611049379048, 0.10057184053175347, 0.2223365942681749, 0.1972054078608033, 0.2512542830494173, 0.20703849893183734, 0.13529899909395635, 0.20266789307787497, 0.286306957885772, 0.28977777770953184, 0.3584185615790755, 0.321860461497184, 0.10715538541166901, 0.07496293178403263, 0.04209219968382363, -0.053007974793814874, -0.1684623828664573, -0.08909935612011768, -0.01532428545417496, -0.0045759996672744595, 0.0009722352358103587, 0.0012103721583448129, 2.833152572703834e-05, 1.0270785073904232e-05, 1.132489425764696e-05, 1.1565517213550707e-05, -5.938504900561939e-05, -0.00452077439395943, -0.06910469717977233, -0.07597379209716282, -0.021109056496740837, -0.005816293656079945, -0.02426660664770632, 0.046033162525703754, 0.0742326131216652, -0.03081834850835266, 0.08106792818286845, 0.04802691792847143, 0.2002721159049026, 0.12839622844857734, -0.0019218546365362887, -0.007026617636995864, 0.013397451844108576, -0.010383440245464125, -0.008172158672517612, -0.002313722088292008, 0.00012773591823691174, -8.517483519614449e-07, -2.613277258295464e-05, 3.385892594216645e-05, 2.521707203762453e-05, 5.30203716764398e-06, 1.2399241900390758e-05, 1.419857501239528e-05, 3.7621818118604754e-05, -8.939567730374443e-06, -3.175736973958794e-05, 3.3238988551508246e-05, 5.033730743262205e-05, 0.00010364419085044035, 0.0008396637955030982, 4.9671380938936055e-05, -0.00034374622675867496, 0.0005892524354965113, 1.805332862273039e-05, -0.00014623259166920464, -0.0007245233616106559, -0.0011839841562730907, -1.0647331380294453e-05, -0.00035436562116430596, -0.00020977047612844856, -5.097758825170211e-05, -0.0008389176911444929, -0.01108355933565791, -2.227219258718661e-05, -1.68086108245434e-05, -7.304314107747283e-06, 7.728024728398814e-06, 1.5991602188811826e-05], [-1.6787965056854996e-05, -2.1331199228834035e-05, -2.3286989023972753e-06, 2.302561944301561e-05, -1.100735474235016e-05, 2.3144856139862913e-05, -4.9329631596160665e-06, -2.5218728591512543e-05, 1.0584764732464315e-05, -7.624229612417747e-06, 7.262301284979224e-06, -7.861179137057693e-06, 0.007505068165073511, 0.016320504721719805, -1.1901607311567795e-05, 1.052392976087166e-05, 3.5492902680935125e-05, -5.067286000916377e-06, -2.2059265399608375e-06, -2.036111243277228e-05, 1.1193985493730625e-05, 1.914078540045336e-05, 9.13750041123596e-06, 4.397552370969409e-06, -2.8193857088425406e-06, -8.956567316795258e-06, 1.944177121120461e-06, 1.694609178723035e-05, -2.5242843020376542e-05, 1.714870851155991e-05, -2.4080981225476183e-08, -2.9439240820680167e-05, -1.8962051174190122e-05, 0.0001206652425189863, 0.02552267990401573, 0.05180388979645951, 0.058840102270239586, 0.02276298000325872, 0.02993835217750666, 0.05488421569909775, 0.08061693713931815, 0.0734405647638214, 0.030787696811819348, 0.021072892214283264, 0.058516353557224926, 0.048255376249940835, 0.018482133024485946, 0.03404014170000123, 0.0365575803661865, 0.01197197949870024, 0.011235606053204419, 0.01408056467415993, 2.1903160515708157e-05, 8.569390271210076e-06, 1.929349731441005e-06, 2.8140838172424216e-05, 2.0683712864283586e-05, -1.1624274328383115e-05, 5.896893681651977e-05, 0.0021879468473451364, 0.0011153952751422683, 0.0003119495709182244, 0.02426163744166455, 0.09251878638319422, 0.10399429023001316, 0.0494127486771366, 0.10702223576434475, 0.16471981915066586, 0.1906726064615345, 0.11133870149608996, 0.19841877927256438, 0.185301894918432, 0.18312633370084389, 0.15956417698042713, 0.1354223158203623, 0.16463098357476283, 0.07883670779213153, 0.073154911184471, 0.04596067342610712, 0.030446595601276917, -0.00430065286866186, -0.005359987097251172, -6.717811711781943e-06, -1.2913592198200825e-06, -1.2976981154244904e-05, 2.694882912979974e-05, 7.455761694251405e-05, 0.00787380215520775, 0.004855175298820533, -0.013331690401647344, 0.03531129496280374, 0.08825599189159745, 0.0687911642716554, 0.02448406400067509, 0.08780731658019048, 0.23240412742389402, 0.2825789266736273, 0.3081806988884739, 0.3892809864255404, 0.3434863654849201, 0.3672839965809119, 0.32671134544671276, 0.2621012465894184, 0.3408373887922332, 0.33062909199349444, 0.11959633375466937, 0.04578529088108657, 0.10449820063946887, 0.07154807666727693, 0.014811881014868461, 0.032866879260518955, -4.574049686190147e-05, -3.3501001731989054e-05, 2.8287649213753102e-05, -4.545121484340595e-06, 0.004127170609837254, 0.016608489231272932, -0.037461624177068255, 0.04333710066878306, 0.12064171353599884, 0.16229509864710634, 0.057091582170617265, 0.12656866137552533, 0.09890979941571276, -0.062177078504365046, 0.016249706102263936, -0.3358449507552202, -0.07077282651278999, -0.22775185820879332, 0.010326926219508016, 0.08553666833411908, 0.2141060052170846, 0.09759465489465965, 0.13220878103699968, 0.13454072542696852, 0.1494809067944647, 0.17339030810391506, 0.06126388335941431, 0.005069963526031118, 0.021599318110278046, 7.991335951451835e-06, 2.557497291416839e-05, 0.0005229115773266268, 0.0052154676820664915, 0.020641759464913104, -0.05533241922067404, 0.1282080385187143, 0.07200094234805558, -0.0014692304301426402, -0.20656706834677796, 0.07020215844048223, -0.19768223810550564, -0.07234748008271571, -0.08350754047453396, -0.11992136066738909, -0.11748314656810797, -0.1419055273872791, 0.03751840059257104, -0.04657130635698308, -0.03286834616480817, -0.15578856231855756, 0.016805421088168796, 0.1586541636572555, 0.20937453836800465, 0.15877639427558507, 0.09976980520174906, 0.08101506419061108, 0.03231191117967427, 3.6779980239762037e-06, 8.545483983969819e-05, 0.0013079505153979984, 0.006623481438065614, 0.025499624598608602, 0.10211828255990088, 0.07542973247457767, -0.023078331809650292, -0.1900225792655699, -0.26849974534689985, -0.03890630423461919, -0.12597567796943054, -0.08501310489867349, -0.08509804548610513, 0.09878859808206714, -0.20658561729766353, -0.0716334549641295, 0.0478423375917153, -0.06022021324693636, -0.2971033910256219, -0.31306381455750326, 0.20203819367921394, 0.20428152926884224, 0.035172629794686855, 0.06657856171456807, 0.07661153859968863, 0.06148125451872977, 0.025129910783829874, -9.993358582004051e-06, 0.00416909708497149, 0.0026102949774632176, 0.04028750128677191, 0.13903499477887224, 0.12728755439119432, 0.02447457375293243, -0.08610894134019541, -0.34864967872261693, -0.0716266745109956, -0.1436334837867597, -0.2535245812889192, -0.4219138889484514, -0.4042356138583061, -0.060551122912921404, -0.15319950111498318, -0.19786785744330737, -0.05319577285993209, -0.2122014014762235, -0.07489401602817643, -0.31929338902142285, -0.13222331012476063, 0.010513097830360082, 0.017890346647540727, 0.043898220137349356, 0.06357939115058832, 0.021553391201834485, 0.007466838738361581, -2.0917099622914017e-05, 0.004426203436836615, 0.023923716997074598, 0.06787491421911593, 0.11796345563479277, 0.02968271666392369, -0.11899327288822648, -0.2895292355605605, -0.21376123609244177, -0.4235844257808968, -0.5125771378586834, -0.6035908890568599, -0.14933102494403686, -0.3040324873180618, -0.3195637797024691, -0.03660231664767329, -0.08267009679443932, -0.03922858033385371, -0.4197368958885662, -0.2020277384088531, -0.362074666078938, -0.1833224562460344, -0.0682161473916193, -0.3103354505378612, -0.05458007736131669, 0.10295594431853, -0.071859893243822, -0.02225079798035827, 3.657821093774275e-05, 0.00519694806006061, 0.010731913150235733, 0.03684662632030697, -0.0003503329155680127, -0.14409821999135167, -0.2081968528336539, -0.08606256434178698, -0.0269729942955127, -0.3500054906357013, -0.5581787565181572, -0.5205047895794701, -0.06969828341645043, -0.17184074737427416, -0.08184459170706829, -0.1459530400151166, -0.3786728405467039, -0.1837767282947729, -0.12167576242180164, -0.11854569821438035, -0.30394612294263246, -0.09015928269813231, -0.1085861077140726, -0.2607051372471053, 0.030674817750854184, 0.0262187481712778, -0.005280851414945621, 0.008064645699758273, 1.4462307358677021e-05, 0.004733886824181673, 0.04303141021703352, 0.1258273679760756, -0.0623154347944301, -0.12725211668729042, -0.12230724577364892, -0.18556132774022893, -0.23371291979631348, -0.17836473527919847, -0.40082624114976745, -0.3346539403008365, -0.1367086292204708, 0.35103845809607837, 0.10819086496598644, 0.06489400607660033, 0.07596542078079808, -0.1740685858467211, -0.24897950548543255, -0.31126941271628145, -0.2386242005452145, -0.15529228341702495, -0.05065842371572934, -0.14921351338152458, 0.035774639242810775, 0.09003111794847672, 0.026035919590862364, -0.0004825671106138519, 2.4695665232223113e-06, 0.0026645308908955245, 0.07033342288549424, 0.11812952634809842, 0.05110619736871775, -0.060314406041481215, -0.0833964105958722, -0.12336947131213942, -0.037408577276592345, -0.15268174212501437, -0.0939877329700079, 0.19334864613227323, 0.38170625675757036, 0.684995975613353, 0.42014153074183286, -0.04845652449496777, -0.1485823974038847, -0.2656316104808168, -0.0022151225008652776, -0.13991645659071608, -0.279056871240757, 0.16275763401909757, -0.07294091785851234, -0.07076079979841275, -0.18500362714377935, -0.24175696140645603, -0.11827377331271759, 0.00040404349706760537, 4.609938812437183e-06, 0.00311823014604117, 0.03803261824517929, -0.008053035326135008, 0.011797157005367485, 0.027651020864877595, 0.15142837518336152, 0.08890390609350798, 0.2926159043743741, 0.3607627390409654, 0.444879730516499, 0.9910430024260722, 0.790712301839822, 0.517185490597512, 0.2052654449327958, -0.12327070295123994, -0.18089698625126316, -0.4715541683446418, 0.11610937044930394, -0.28728122303845505, -0.12851297886740676, 0.06438597943264752, 0.22101285483881353, 0.049978240189898646, -0.1083435835134512, -0.3019420152462582, -0.11172887529132984, -0.00038400263387479005, -9.04536777190809e-06, 0.003574690065345971, 0.025907783823904046, -0.035259604033830515, -0.02737324344781021, 0.42272052270439125, 0.5960106272230533, 0.31167334487408627, 0.42401919627312823, 0.5232473011977928, 0.7954359873946797, 0.5281216199468505, 0.2392477073390733, -0.027434056211142678, -0.0665537761026333, -0.48483843091844026, -0.42530419784448453, -0.3610241877855039, 0.07171822956221782, -0.05945292022096187, -0.2488179148388792, 0.2504430490338212, 0.3956503562898483, 0.3766607208940117, 0.10041488445346136, -0.18662401046708535, -0.06905096579350628, -0.025464569566598837, 0.00218216574360707, 0.0029789528160263246, 0.013322427337086627, -0.00046059763224490696, -0.02317562247911144, 0.4343123303665787, 0.3892928961750735, 0.3424230917722986, 0.321211017696677, 0.4386939655898264, 0.2931244630443055, 0.08441899345484252, -0.02366289910797235, -0.5186935841054876, -0.38528614064208316, -0.2042038279574101, -0.36857203056189125, -0.13467438804458232, 0.035787551622331285, -0.27307534104721093, 0.18800694165256734, 0.6669779655808173, 0.5200510640852596, 0.5313781576633956, 0.19788809040367195, -0.0630025293470459, -0.053286613848506026, -0.0009513630380292568, 0.0007022805677368885, 0.0010544865573594152, -0.006998629657736865, -0.0965674501636868, -0.05280592782229447, 0.18510189119605655, -0.01587510440391675, 0.19118921719254342, -0.23195602819079714, 0.03970724841287475, -0.04357714654767284, -0.2651934967640924, -0.3129555157419901, -0.7099683038880076, -0.4035735428931292, 0.16629965008267875, -0.3624281254032478, -0.22751898055770234, 0.12429257785869104, 0.12333235819126637, 0.45978907712930295, 0.3398352722210778, 0.2861771083814601, 0.524162143958066, 0.4059700725675734, -0.01563452264914396, -0.13121552395834316, -0.0013861361239432737, -0.00014029644841795922, 0.0034688695441765596, 0.025038295756895212, -0.006919053539366995, 0.08861952609740341, 0.011018399336597456, -0.37055142156813353, -0.1718927237880411, -0.09560552733141439, -0.14302132885228008, 0.05475876336842269, -0.1548518673966702, -0.3966007778790894, -0.5347651573407152, -0.5812239591367624, -0.1665843915156928, -0.5005657785823944, -0.388384642346822, -0.09633533914903764, 0.33678558183390317, 0.4501040613669169, 0.10772219005055483, 0.11128277932719627, 0.30906381559154483, 0.36750024689948285, -0.03568703620358296, -0.13244951133673852, -0.0013985104898220162, -1.315728866289691e-06, 0.0005887532306440377, 0.03106786315392619, 0.05562265695569597, 0.1694948143092429, 0.14884392833020196, -0.4475542239327559, -0.11803843259019511, -0.1336652237515444, -0.2983143215745188, -0.05000314754771801, -0.17356986084282125, -0.42628142883970227, -0.7333046882803427, -0.725047478532949, -0.577216257897371, -0.28121061753646054, -0.14640133281604698, -0.39934889865862855, -0.021403420891876735, 0.3399264029371969, 0.16174566198768364, 0.13411075923574017, 0.34881197343544246, 0.12621664164988158, -0.06931353080710265, -0.03704704970214089, -0.0005420656137055907, 5.7260494899434785e-05, 0.0001897118194303184, 0.03722938755079705, 0.03162239049710185, 0.3337865458740241, 0.18038543098606977, -0.15234137917383112, -0.16785927699344083, 0.026094949476089317, -0.0018920075160783931, -0.047607228495338536, -0.2709952903505698, -0.1354747692888351, -0.2482580789484329, -0.2502242969992134, -0.018987093497937823, 0.20327915690609027, 0.48375713110319923, 0.17670082789074168, -0.10642474028995337, 0.11047701852033823, 0.2927641827992205, 0.3728422772978482, 0.25966884186783656, -0.1016799044987554, -0.13957282953055689, -0.016739656619172448, -0.005717218476727832, -1.9897014205271207e-06, 0.009345084828348726, 0.06412440235985332, 0.08826213102875696, 0.3177728932060821, 0.4578060588176575, 0.35753114972541555, 0.030997215008603324, 0.4663695514949979, 0.21083114038077458, 0.34741993995843984, 0.744199754163415, 0.9011871653945734, 0.37981066498097504, 0.4229768612857567, 0.32391441890526973, 0.25366903856077033, 0.548345730428297, 0.536053541495304, 0.11683951070801325, 0.23559291940816957, 0.30412649914921586, 0.28279952406418757, -0.04453944873991218, -0.17205914414119905, -0.16387832618251452, -0.03613901624042128, -4.154911662913981e-05, -1.2515108530451422e-05, 0.02316767991489753, 0.020588522901563024, 0.055529356816184795, 0.18082384009881805, 0.35455598319753795, 0.32469194078122887, 0.3521580322488849, 0.45959352218002875, 0.7421675441413232, 0.6882066239961342, 0.7263434206001108, 0.7851316231645069, 0.7485940492266285, 0.7079694962051001, 0.20744241687389953, -0.0054833298269132, 0.11542194547737003, -0.004073056968527826, -0.15998857986509332, 0.04731595578308038, -0.02103130548012353, -0.008286899927581182, -0.17576497783574227, -0.16358816386493855, -0.09456930576197531, -0.0072882454595575115, -3.276190549263609e-05, 1.7804913170247583e-05, -0.003047055382166154, 0.009775885839272178, 0.008317455040254426, -0.11129289894860417, -0.02446752823150023, 0.12117289550908202, 0.3236785054517895, 0.324682735014983, 0.082703867487539, 0.2755142093956274, 0.3636838754896853, 0.32828349050607686, 0.137288802191183, 0.16561723543964074, 0.2420783104220635, 