{"cost": "CrossEntropyCost", "sizes": [784, 40, 10], "biases": [[[-0.24957533793743542], [-0.1316534801532264], [-0.47802121944114406], [-0.34417427400487993], [-0.16076772819639834], [-0.24434585530023809], [-2.094634362063482], [-1.2234373402613616], [-0.9319263788869763], [-1.3306723711397477], [1.3508141498278066], [-0.3626241204261858], [0.499714932806257], [-2.6019392655720046], [0.6251927008816699], [-0.6334324982312933], [-1.3965223208484014], [0.26085543456283233], [-0.6192113465996077], [0.5595835445310126], [-2.580590172251559], [-2.1942848355121143], [1.4624761451646782], [1.1968551812727226], [-1.400826188589982], [0.4177284093568584], [-0.5880544709481181], [-0.012709681354902485], [-1.0353643654183247], [-1.1563529938935277], [0.42036859486319184], [1.2148819590157116], [-2.2907046883403543], [-1.1577111667187463], [-1.1311797250369553], [-1.054812795192987], [0.9503990672738599], [-0.6343526916838435], [-1.5938749306253566], [-1.255245818159634]], [[-4.452025167234748], [0.6159208314525652], [-0.6494716221426624], [-0.7490520585208602], [-1.2964125690426969], [0.16802703514848275], [-4.336578916784637], [-0.3992399681309003], [-3.3601943157385277], [-0.786634784951758]]], "weights": [[[0.0003910696282140619, 3.890069388136977e-05, 0.0015942059209604557, 0.0004086090310071629, -0.001803052305979969, -0.0004959680382516364, 0.0028736543038057807, 0.0023358441866970594, -0.0005203689117434455, -0.001009113692711491, -0.0011436786789756283, -0.0006157154951626486, 0.0028569545255458127, -0.005192765070817266, 0.0005033243268769225, -0.0011713875459148303, 0.004016409462171913, -0.0003162006338300313, 0.00044100462225124114, 0.000959218646447975, 0.0018636028185769948, 0.0038846064847428714, 0.0012583663795387907, 0.0027018945459276363, 0.00046460808836744133, 5.151460360604914e-05, 0.0005090482359451813, -0.0013952659159078703, -0.00029650643919722143, -1.5928323879162443e-05, 0.001596519424698109, -0.002509292209306732, -0.0004902906005314041, 0.0007730983810939084, 0.000700157443507238, -0.004164376772873741, -0.0018016651654173418, -0.0009066122094859384, -0.001349477504945142, -0.003218519715415179, -0.0025828430241515974, -0.003098581572919415, -0.000523140262398896, -0.004408803702807216, -0.005259060004166932, -0.004016763070960114, -0.00037213297253112454, -0.004424363490525807, -0.0012234943866263755, 0.0006401616099881014, -0.002084120744364444, -0.00018364555842310663, 0.0020639431083160124, 0.0022198707786386194, -0.0012779694659917776, 0.0011930940729806962, -0.0010349999197117553, -0.0002497138042574981, -0.00183927878893364, 3.224141657460533e-05, -0.00031942273790645895, -0.000684456596671713, -0.0017682557921299613, 0.0016628357720829651, 0.0028825837050152994, -0.0009114952213679114, 0.00037877556248850773, 0.014571887903076732, 0.03812113316550831, 0.014671141153485848, 0.025968045457176896, 0.009994824706532512, -0.0483037524559179, -0.04187189070577915, -0.047364662150657946, -0.03379631350406025, -0.014807888443544647, -0.010396330024556926, -0.003827849044203145, 0.004871143639497623, 0.0014890083628782413, 0.00228471446531085, -0.001336229583714881, -0.0036571507314614084, -0.0021148765910453397, -0.003619576815434886, -0.0026203415369337887, -0.002274178512061348, -0.0016670359328948914, 0.01854222747515156, 0.03449414196970933, 0.0800730718956049, 0.10304619780270463, 0.08206431327921805, 0.11921938243002829, 0.14407484766952022, 0.16032156633893344, 0.1173732289414392, 0.07106205450662836, 0.019159656609211144, -0.0035689971603455623, -0.03361139602502537, -0.0157803619005598, 0.10369003439095723, 0.09442894926522898, 0.0342064559573411, -0.042678763770718435, -0.03713178683713697, 0.011414077634203615, 0.00883421034218207, -0.0008251199318908954, -0.0029236626653180503, 0.002312966180807846, -0.0008731233584268634, 0.002659864783471259, 0.0032832143354053294, 0.015068452078725108, 0.0349188944863733, 0.03830901764618291, 0.10406512282293148, 0.15100675583822623, 0.17223353626865126, 0.14370088635451925, 0.11825863061781641, 0.11663293121783545, 0.19873755355824244, 0.24284724305427074, 0.011052562476917292, -0.04480354330955462, -0.11900679925721443, 0.012767335843416786, 0.06665919766855438, -0.004418119773125882, -0.044216601132040866, -0.050326809603098106, -0.07998893973999095, 0.02187611670163182, -0.017207927633030397, -0.02560966885315642, -0.007373501175156984, 0.0015867541856232242, 0.0023394299841431403, 0.0023009808214064973, 0.008715134331497731, 0.027480047660003285, 0.07219869892896873, 0.13485516677547707, 0.2856251261689776, 0.2517853792492208, 0.2060297294741856, 0.24328418450187003, 0.018694088544683025, 0.18846223628199535, -0.3177235067175506, 0.021469165823557006, -0.031092921475007255, 0.08552997969880807, -0.25614841895636664, -0.2842246341585275, -0.2119702592880031, -0.11611083368708332, -0.09635635783763415, -0.01920796219263461, 0.03492768296586079, -0.012251183276856757, -0.05593087097176916, -0.031100299234968314, -0.005555858635842756, 0.002777626457282886, -0.0013660320412336845, 0.006353228720268764, 0.021853794391007198, 0.05911117034133469, 0.14647291836635595, 0.09433145687162771, 0.22767307800290312, 0.17870760244560935, 0.20245492807961976, 0.0453177684670692, -0.06945665493888817, -0.15724083312161666, -0.13510159219495643, -0.20045129028333603, -0.07154887109888144, -0.2490858957015511, -0.4351991926213426, -0.31739565165993555, -0.24907172900129526, -0.14422164850386576, -0.03264146367464759, 0.0777837914613388, 0.14677352418099182, 0.17419451277346082, -0.01605522923686301, 0.028775660982675966, 0.008846305384441644, 0.0010401022854310967, 0.013923005285162212, 0.004039400006106594, 0.03321018615187279, 0.06351336121207818, 0.20119559501011733, -0.0420550624090859, 0.20442324194213574, -0.15396252004760633, -0.2276855446067958, -0.2822033830187969, -0.21548401971951187, -0.2480290212059478, -0.28826980363827664, -0.2038456812472478, -0.48350442632393387, -0.5140649327158487, -0.4372561581647267, -0.7582164811986482, -0.30242375617928097, -0.3865491261546566, -0.30283836071818193, -0.0026892627005561625, 0.030813333767036384, 0.2778303744133923, 0.29546171665020926, 0.07706227328393546, -0.0023608371537447376, -0.0012934077881329685, 0.004247285325801204, 0.005448912440451071, 0.023485730118084438, 0.09299061445095805, 0.05083567249666059, -0.14297027890280992, 0.009636915529646432, -0.389356242379737, -0.5245753629571023, -0.27951943602151863, -0.41939848486016607, -0.4219119906258206, -0.49856624380666253, -0.47671505886509724, -0.47483504850504643, -0.8366944844871325, -0.21153258336500352, -0.3299666493098873, -0.2034153048716169, 0.06032117987625585, -0.2467254524990037, 0.03994005415203719, -0.10084307201192125, 0.13593036848549067, 0.2747881862861105, 0.008208725875955088, -0.01776486688923805, -0.001436564453821241, 0.004905405785687034, 0.01824624664473621, -0.05142564099476838, -0.02876636850642492, -0.06941061156236779, -0.43197112980691926, -0.44252661192625464, -0.34243258143176014, -0.7619878526483507, -0.7008031427201793, -0.3123916366760338, -0.5924091727438136, -0.6777884578876139, -0.2582920511591448, -0.27886897819075185, -0.0009839594352092974, 0.23717172416377516, 0.1109974895752853, -0.09680657321670316, 0.04111354766895047, 0.12553156614517955, -0.07937800465691724, -0.20915947338275548, 0.04620128918019427, 0.04761815890379761, -0.0011975407735478033, 0.004007739307292171, 0.0026202486600322796, 0.0005078594261021525, 0.0070325735937848575, -0.058570078956716745, -0.24603165214834474, -0.15455057905655642, -0.4925326301690855, -0.29886253483786984, -0.6589534493344575, -0.5241636728783101, -0.36784713332206176, -0.3154995933746766, -0.14011974430989838, 0.01928858482246945, -0.28433075105709343, 0.1415824161254287, 0.24976632279588357, 0.32855914463226127, 0.011312458454430558, 0.10353217128452126, 0.16041047018212407, -0.0015735497199283956, 0.030236935734703964, -0.2902968332127146, -0.038824522227518705, 0.06663501095932461, 0.010577774641294547, 0.0016560525667792402, 0.0012758499309391065, 0.004019095932441451, 0.007744394198241997, -0.0014157879471766357, -0.17914583845177753, -0.14308990616366543, -0.276411187582651, -0.13558435675571234, -0.23024751882495914, -0.001382613338031845, 0.0529696512479598, 0.21157824134465464, 0.30952189110669553, 0.13194977252731102, 0.13355870808830358, 0.32430563384185285, 0.0031925425572248375, -0.1417073349386355, -0.26392543893645026, 0.19962955612179112, -0.07980803530458994, -0.22459794869561517, -0.2255159892991079, -0.2981751281070506, -0.37166267690068133, -0.07414459377279912, -0.056247924065748744, 0.002902237440125918, 0.002633492049717109, -0.0014276256602982651, -0.0029164912105288754, 0.01722508121697564, -0.24720615673307028, -0.3512967838286298, -0.19381031431384105, 0.06455202399186344, 0.41331744846206936, 0.14075170273092083, 0.3708085529863076, 0.2257307465376145, 0.8328321870647248, 0.8431379060890214, 0.1431089884125473, 0.058770338470873235, 0.30598684149523286, -0.3540465930298059, -0.10276173527628885, 0.019550359318424675, 0.13667551404366904, -0.20867136681994172, -0.15562331040343186, -0.32190157226614424, -0.15964648894590858, 0.00710659343013929, -0.016681223892439527, -0.0005091935151857297, -0.000574312145100529, 0.0007844323889604167, 0.003311462065639489, 0.02119690978356931, -0.11848448741142857, 0.05059957569581682, 0.2680708134915276, 0.3519406300476635, 0.4792499149944376, 0.527534270916918, 0.3581707711400338, 0.09495276925235108, 0.37248469087879316, 0.19525704924169213, -0.12939407839656333, 0.2321819147763482, 0.31305924547876596, 0.07495569283836558, 0.234435564060655, 0.07537211758450393, 0.20610038523301602, 0.19994254555485594, 0.2764230279910781, 0.22287652138286448, 0.195016819232247, 0.08686436284727234, 0.02039420345300112, 0.003425810617623861, 0.0017565211833164985, -0.0003072993461883098, 0.001937305062962751, 0.09192756281508918, 0.10603136218839382, 0.44622102705859235, 0.2955110739119343, 0.4774450004495637, 0.4412872921466998, 0.4637253469587232, 0.1121525268316509, 0.11928395982279576, 0.5374798982363298, -0.10248452545496227, 0.012123702657662902, 0.009958748660548897, 0.07546338445126773, 0.3015504687703855, 0.11609365567012414, -0.041427127184984924, -0.004225545402449069, 0.12470827478649944, 0.22336202611099049, 0.2127981718724283, 0.1881871112995906, 0.062049535199689254, 0.02750758133236266, 0.0010333028126767237, 0.005964300695755145, 0.0028841047340944673, 0.02911960000014404, 0.16377516539084475, 0.16158498110425176, 0.2702309586852059, 0.09909224938759137, 0.039152040371723096, -0.15912107734308376, 0.09243684068333696, -0.37145322303960165, 0.04747593546738736, 0.27442678716087765, 0.025913192385092532, 0.3326178383502098, 0.2771084752657504, 0.17857069524212557, 0.24383769189367288, 0.32098204938084746, 0.13644558657786854, 0.05078137234435204, 0.23169050706665253, 0.266876047361353, 0.04456643689662628, -0.01262040323035124, 0.047898663662728984, 0.0935519692766558, -0.0021813293994253956, -0.001909378347242542, 0.004949079293664157, 0.016310796377895505, 0.1837447337880451, 0.17389947809701428, 0.010166856320223173, -0.28162626685852454, -0.18615449369661732, -0.09344299861239175, -0.042439512284924714, -0.29204784322171684, 0.13544725221637396, 0.13992038155582462, 0.31509050725905685, 0.34648823734090517, 0.24788846962620475, 0.019459196146221595, 0.1247543101410843, 0.37433514728636624, 0.5990769647333021, 0.3960128443624968, 0.42529591133046957, 0.10874220788625887, -0.07002890714966252, -0.19275165367344343, 0.03886961043367061, 0.00473558489051159, -0.00017373874248720084, -3.764380959326283e-05, 0.0009406807166499985, 0.010106340884520433, 0.17790832299418458, 0.33775081233233367, 0.012759447480081522, 0.15030439131933776, 0.07274841772191117, 0.07867467386472382, -0.1111498702590266, -0.3087288029471316, 0.25374155981884644, -0.016253870290537206, 0.027272575540432765, -0.035111156853339924, 0.02783650104800115, 0.15712105236873475, -0.03389272873614773, 0.2745505642647809, 0.05783012161299759, 0.030061110151455805, 0.3815495130955633, -0.04088615926727094, -0.10647170730597434, -0.2565120768644802, 0.0273114547021929, 0.00015933984925317604, 0.0039626536546122, -0.0015521635838564752, 0.001519257011328404, 0.0069846664050460215, 0.15584035434394183, 0.33605695740687835, 0.15534617579837376, 0.09432246123550027, 0.01213584436779936, 0.1155715097044472, -0.03710230260335845, -0.26804247544600035, -0.06133491302655942, 0.312644584650865, 0.23426996005421744, 0.30786749892247733, 0.36031092900483347, 0.2712608337993533, 0.11906749228270448, 0.2168033949951231, 0.08360257632284537, 0.14270655119981623, 0.21933050097725362, -0.08178357143332346, -0.039840141997512644, -0.06976172886240713, -0.03866546802528292, 0.027511966927533507, 0.01495928192301984, 0.0009568738989607713, -0.007270564514421836, 0.007832193267152341, 0.13209792512747895, 0.21819352085142704, 0.2066173569238478, 0.15084791679167475, -0.034932310804107136, -0.04776701754275591, -0.02946796281853018, 0.05943368864279315, 0.28524612155020723, 0.3516500562274916, 0.520613185891462, 0.7708351749352992, 0.42741324717885326, 0.3276396612642388, 0.3655981516506897, 0.35036807954911775, -0.37057870212480587, -0.11682218298326372, -0.19650965412615162, -0.2122455208276976, -0.15896440854392674, -0.14280283568760133, -0.08943214257039447, 0.01636591573983803, 0.008416035887002389, 7.638301899128664e-05, -0.012535951725601794, -0.003876290146128109, 0.11807639156142168, 0.13344531542391236, -0.05636770124569264, 0.019468626099875024, 0.2123094040416429, 0.15253005763622923, -0.010107437668676661, 0.013288967581241125, 0.08444559507222803, 0.16519525351956696, 0.11315844433476416, 0.15681203510148453, 0.20605823311047325, 0.3480470895217626, 0.27498385585130863, 0.2784014402818117, -0.4445670132939631, -0.19929562016559657, -0.2602174827223149, -0.22474513796783713, -0.1713803879343486, -0.1551410514315043, -0.10223137204279474, 0.006387935229412589, -0.004155439014078628, -0.005041761379510174, -0.00043743352456368967, -0.009332172358108496, 0.07271692856412466, 0.06125252276772763, -0.11559307670975055, -0.22580911638714732, 0.02846667642137692, 0.06728041531240456, -0.2512662057992398, -0.14753621143130416, -0.21190522303257928, -0.3068967416654871, -0.3777449267386148, -0.2579121740186963, -0.179316283282434, 0.2080561625766455, 0.12668356566917993, 0.11069057781230487, -0.09765986804741754, -0.1924513461651922, -0.2915473641429448, -0.24977503246406565, -0.13564657886982676, -0.2213486145044816, -4.207532001501709e-06, -0.008538650459285785, 0.0006355568240419669, -0.0007103353471160521, -0.0010162007607890833, -0.01649462753068466, -0.006035409212472056, 0.05770348006491612, -0.062143880044812076, -0.20365071835831192, -0.08253759888155934, -0.1984438688561823, -0.20832122889064625, -0.2258896964085327, -0.15113580558706968, -0.2618716272163453, -0.13336845800095343, -0.5491079475493615, -0.05142992960663393, -0.05318361187571089, 0.08415566945648138, -0.11416570108192109, 0.2320488911612006, 0.00021844628465010453, -0.05748021683643165, -0.2672103990289265, -0.29535253529166533, -0.22628163479210547, -0.0464297341812029, 0.003221359931214936, -0.0007138713418911614, 0.0006553425676796622, 0.004166920049630356, 0.005534718819041167, 0.04421739955666513, 0.030513781212022847, 0.014411040029380122, -0.01197363153480958, -0.10863297034015078, -0.05002981989398024, 0.05724765115296174, 0.17703981084759, 0.050407447790246356, -0.20487862721817837, -0.25618905533133746, 0.029005318354139435, -0.18256483028653891, -0.39795163286750124, -0.4065109342533525, -0.21324959018566664, -0.12368956024060068, -0.023987913394747158, -0.04413458680322958, -0.2762006230852205, -0.28158672567301635, -0.23974130252564618, -0.01560478265114234, 0.010529320189033634, -0.0023882154304665053, -0.0006422764218161072, -0.0019361543687469046, 0.0011036898931107667, 0.021418168773382894, -0.02415533771448154, 0.019812157438490387, 0.06470315194451695, -0.10503933656964431, 0.029117765781154163, 0.02843078204390309, -0.09616557285580997, 0.07016951931720687, 0.027725141433802968, 0.03363736798695533, 0.008957545624423354, -0.18807746397813926, -0.08415126831247266, -0.2852893931068789, -0.31224449876654936, -0.15931051937498467, -0.15849308994504846, -0.06960997437677441, -0.11074007344838739, -0.17505845812026685, -0.021728705735003816, 0.0075734465845581364, -0.0020135487623568183, -0.0014583085439473357, 0.0005981982072496305, -0.0010199916768341912, -0.0003748651043502457, -6.750159671020297e-05, -0.01986985428069173, -0.05609112298475018, -0.08435128700163627, -0.1812484342429179, -0.12631280340713807, -0.11716613567195085, -0.2523238413247701, -0.1071393049649121, -0.2139888589163832, -0.33086687648090046, -0.372709412552591, -0.3288236394554364, -0.3743431823292685, -0.4967725936318498, -0.3801031592281451, -0.42973460434196215, -0.2833801281483728, -0.1563868015891673, -0.0284415511646631, 0.0010551500905916532, 0.005112620562883358, -0.0032994445500731805, 0.00011846085507908406, -0.0015516352606219314, -0.0007424091890359097, 0.0012848952408215692, -0.0006476629173480589, 0.001361773212168725, -0.01743166312413851, -0.0455864603258217, -0.12811684973947748, -0.17827710953407871, -0.08010415340814, -0.15127800957891413, -0.29209058810852045, -0.20214898387155192, -0.33077484260920803, -0.30477455251231994, -0.5875126390386974, -0.4237269838073743, -0.3565555738751091, -0.38027845758939316, -0.308159644243169, -0.21986739256332544, -0.1923671271781482, -0.1549945605080265, -0.059655225993935156, -0.011534646746019754, -0.0009855212847542597, 0.0008302267024086105, 0.00012728903162421783, -0.0012736439878939384, -0.002173670331871811, 4.050959931481438e-05, 0.0002260829569820469, -0.003337266707294402, -0.0016242280800298008, 0.0026918884821532287, -0.0016106241898749412, -0.009836610042458767, -0.012685199309325768, -0.006840325779278169, -0.022062559186273936, -0.02152425997004786, -0.09421467148870932, -0.03207258007880243, -0.05947388442595567, -0.08150608628716106, -0.014611043353152282, -0.0005858459207325221, -0.03765706482380166, -0.022313554982384257, -0.0016988911283085544, -0.003695547413054916, 0.0003118781706115881, 0.0030574565343766597, -0.0009587642400211601, -0.0024232962451367366, 0.0016801191154811124, -0.0018994128430697332], [-0.0027988468699219745, 0.0012671140422636745, -0.003744972801817572, 0.0011564914148523065, -0.0006068788966984313, -0.0010669015310620562, -5.9935943134636776e-05, -0.0010881623218234545, 0.0015667404989364968, 0.0018782479207289499, -5.5455292166351385e-05, -0.0019389217107930066, -0.003650612199092265, 0.002379293804853925, -0.0027544422273532887, -0.0012651153615474767, -0.0035975629438085707, 0.0020337698910619056, 0.0022656502429404543, -0.001131266982021407, -0.0001353590033085745, -0.0004899477505360101, -0.0013096005884012628, -0.001914562018473557, -0.0008016236062444137, 0.0003246587066001594, -8.890417522267533e-05, -0.00046571695086966694, 0.0037546835227155995, -0.0026026646458567034, -0.0018705224599971687, 0.00039398600267033827, 0.00259789922315725, -0.002930983187643381, -0.0007345802665493837, -0.00039353781859550807, -0.0025411455865611762, -0.002809023129851229, -0.004396342402627931, -0.0030902201525757527, 0.004025025625354711, 0.00027794755216415686, 0.0010795218977297564, 0.023529255712102057, 0.06331882667527698, 0.024424895157599012, -0.0015036949963117814, -0.005472357996210044, -0.005400581791885961, 0.0005627938002434441, -0.005397941758404811, 8.580158579489535e-05, 0.0009390331814492128, -0.0010074920029566033, -0.0015206739963268896, 0.0019588219404143075, -0.0017785972259854166, -0.0012997332945330793, 0.0011678767314991722, 0.0043219553684112465, -0.001393613787510725, 0.000863854151459641, -0.0006782350096229989, -0.00027648221884847817, -0.00910137945522512, -0.0457752622745639, -0.01243011239204767, -0.036337903642781194, -0.013974602928177786, -0.029843510355649718, -0.13897946122824822, -0.23169088558257467, -0.17901745756921578, -0.06770189328116254, 0.007153562150076396, -0.06724680555405632, -0.011826921422186281, 0.008779042098464791, 0.0051798397122437565, 0.008978022198466273, 0.01508641229736963, 0.01311084152522043, 0.0013352896643060435, -0.003098202855693468, 0.003590898082632233, -0.0001239107903344402, -0.00027614840163875474, 0.0027466805975097904, -0.0006999733779583343, -0.004290112696352016, -0.02400841020111684, 0.0026938606102185547, -0.004444061180373069, 0.034018983630791276, 0.026041880337677785, -0.0223785818179954, -0.04845848639861677, -0.15344065651449193, -0.18408147041171474, -0.3218308825660357, -0.3270293525642433, -0.21435963399852814, -0.3626615510204998, -0.20146258701823613, -0.025128424344531455, 0.0009521995793871898, 0.0030784180237474873, -0.03434480136345898, -0.04437498048906887, 0.038653099412074704, -0.009019982279789325, 0.0012854650158071078, 0.003024868546689708, -0.0002939375395326434, -0.003228339169340064, -0.005154332991657097, -0.008092213698483293, -0.035438379002208406, 0.05648948493687862, 0.08857011835811913, 0.038041431130962325, 0.2902963911602834, 0.21384284188672223, 0.3536926596367049, 0.2837042548106593, 0.07688741983308645, -0.003130002142262881, 0.09647914654127435, 0.2479574213578325, 0.12075230665215245, 0.01526873808438989, -0.10983651473939539, -0.08572935397070998, -0.30370554330716065, -0.221918384592595, -0.06802799038111386, -0.10268440883474615, -0.028859663209759145, -0.03429475814927506, -0.04112880238884768, 0.0006602854331880415, -0.002349333911230271, 0.0011138784159108817, -0.008135657609825963, -0.04514112385257135, -0.04599443409772569, 0.07213665963180223, 0.08556978695917587, 0.18899255585674438, 0.1589069754128455, 0.2043142003703238, 0.4178320431087907, 0.2995422306512538, 0.3280253498647693, 0.4871299280036086, 0.1542714824567662, 0.013975309218923282, -0.01240274205506216, -0.11712644850226027, -0.4474006147798646, -0.22250970193504904, -0.20501585343767303, -0.13996603665776816, -0.1849529204551648, -0.23992675145196385, -0.09912258973534399, -0.14675699650625418, -0.06164235281676153, 0.0025648014152398926, 0.002246595798425713, -0.00025486107016441594, -0.01139947015152268, -0.056154416701006925, 0.05857206134690087, 0.0963151175847523, 0.03316788048175433, 0.14027136679076052, -0.027111014306299735, 0.05997289803287343, 0.11990573579071949, 0.14970923261958932, 0.1405614372343403, 0.1727170786276605, -0.1711270432599875, -0.024197388435288333, 0.10712346116646984, -0.07663852824579527, 0.09426910586658252, -0.25785649706244984, -0.008251063982986586, 0.11342226257347321, -0.0848278897124636, -0.1516679662008142, 0.0008797207433077003, -0.042040356520263285, -0.045699185911201784, 0.0014919123179290956, -0.008289202509377334, 0.011039683624075067, 0.030851202179708197, -0.08629958692909612, 0.053078921491450125, 0.026865232575272742, -0.008029278341378147, 0.02917273580996932, 0.1331306962433275, 0.19132040701344258, 0.14312175845298566, 0.3773364238967853, 0.4458059543466941, 0.3756100964684229, -0.02784816974419237, 0.18233655023085124, 0.1870492163964642, 0.23806056406483111, 0.19968311421793747, -0.02735808634422685, 0.2066117339043133, 0.2043039448694411, 0.29993789356990685, 0.05146189606490543, 0.04432447386562602, -0.03745205395768286, -0.019894878783049238, 3.5106311725537174e-05, -0.0001872319311660217, 0.006624888674819969, -0.012546416609526014, -0.07264007193682612, 0.16461827128183848, 0.0729396355180744, 0.32311637910568314, 0.2005795183774903, 0.34975154152739246, 0.5645139052352877, 0.3400669705525504, 0.60651796455349, 0.3994468217140321, 0.35303637517393505, 0.1102680094601203, -0.026831359347180783, 0.20505052398411983, 0.15141084428834092, 0.10046543678853957, 0.38407014194024697, -0.15135704590047808, 0.35357163014970044, 0.26790662844742996, 0.07326223169181167, 0.04318203940892678, 0.05516602786499876, 0.013071875687514082, -0.0025937931728770855, -0.0007031798863902629, -0.002767092766912914, -0.028720386910851235, 0.18358138757186057, 0.1823899763753473, -0.00552748339424683, 0.20787912341817447, 0.3359523326839728, 0.34363479565591604, 0.11817152330194793, 0.1718852783985716, 0.20888290175674298, -0.07189367648796446, 0.03641689643070593, 0.17080321364204926, 0.19451842349331322, 0.20384653127798125, 0.21524741636129716, 0.014527872261827002, 0.20336288859046908, -0.08944271071948752, 0.17385573171944474, 0.1762157284197947, 0.2807509102112859, 0.2135567596807081, 0.1218599563981944, 0.024578579685008203, -0.0006789591618502647, 0.0016505057071196662, 0.038336707963156136, -0.09662056098695727, 0.10990784882670922, 0.17538470684729754, 0.17934997925495444, 0.18435810844944905, 0.1899402950827296, 0.09338090545413513, 0.3431507840840755, 0.5203520440648005, 0.45978388260135744, 0.9608731161149295, 0.7620481064392738, 0.2984271432012533, 0.5089109647845276, 0.5622611920699229, 0.13980764709113877, 0.16089600475673982, 0.07794199497586354, 0.14988991999248202, 0.27597585419432036, 0.12086227473986107, 0.22313739667725477, 0.20336911277692254, 0.12557645954613367, 0.017743552602020554, 0.00012813481337989945, 0.004410559516162422, 0.01179276100689745, -0.061195413499489607, 0.06933447963651941, -0.1391805763809955, 0.20368546135785603, 0.2601138835762895, 0.060711855836849724, 0.4743809057802695, 0.38534420745960246, 0.8189373473547378, 1.0709015242787756, 1.2655781128846637, 0.7950659644588401, 0.3119206099354635, 0.15347893114823757, 0.029848472022800332, -0.00236170613777421, 0.1838044815526781, -0.015136737582574434, 0.17912549610459613, 0.11039711243502398, 0.16223795093109045, 0.18646855882190305, 0.21398568729907153, 0.09927249081636558, 0.008443736288567108, 0.00026967006148868454, 0.020851146376509987, 0.031181574351210477, -0.06307532772081287, 0.02941587949511183, -0.14472471225833602, -0.29915285860646773, 0.1253150801774741, 0.16833156121372123, -0.02984872676057575, -0.2905506198425028, -0.15535052255580223, 0.24127057435949395, 0.5628799013857033, 0.11622893047823563, -0.24820343810119544, -0.1019313720432677, -0.04175069673733688, 0.08902504177242139, -0.1613003140880251, -0.07375196973574781, -0.07398002424613255, 0.10876159730395259, -0.04704628930535957, 0.16008452645261462, 0.2257845665441525, 0.09764933884418231, 0.02386267543850253, 0.00022424278358660688, 0.015724600446780295, 0.05065605516228833, -0.10663104992860749, -0.17827278304843852, -0.10639823182309675, -0.27366860172627305, -0.4997134641562176, -0.42064352047836595, -0.4254677570562293, -0.5718464344778202, -0.9166497940505884, -0.7859208558924431, -0.6209624253306523, -0.5159499060228181, -0.24936528562774843, -0.18143156897632726, -0.09261381089902399, -0.04951500635201285, -0.04864060685918493, 0.2526528227090714, -0.2089515106712092, 0.0851840489046728, -0.03713883079841499, 0.15954491698479467, 0.30691283160619737, 0.13457717714839462, 0.030091315116505122, 0.006600114728031704, 0.009336041157855579, 0.041399834630018145, -0.11059978662901485, -0.3477462807254016, -0.20171664597634312, -0.3874174176171484, -0.36561583225389116, -0.7377850785366956, -0.8690333246394932, -0.3878120254287122, -0.7873198674045504, -0.7929391717810257, -0.43666009466442934, -0.24871563769970392, -0.29185344230156307, -0.3232899529189345, -0.0890299436322794, -0.1473350267775558, 0.15879161787764218, -0.12336296341150417, -0.021673266693157636, 0.175149843665877, 0.39982045868506466, 0.12596224999838146, 0.1874803317571142, 0.1267365355516176, 0.005108473156112339, -0.0001518602769928471, -0.014661695565759096, 0.027413419328097537, -0.1476950115152087, -0.29931931207543977, -0.446572274179348, -0.6124344988591933, -0.4528166231892551, -0.3337511766669052, -0.09699263440294204, 0.002436617308112826, -0.03854790593523472, -0.11609438940435333, -0.22916387817241335, -0.5532867243032474, -0.3861027106347817, -0.4528956937049265, -0.29111632942024046, -0.12057362951076937, -0.09117328754354459, -0.1375997973954532, -0.0794364819197267, 0.09713320448976286, 0.18574967492435127, 0.06387878983334941, 0.05005714818716441, 0.12466662001109763, 0.008728346667994198, -0.0024580864799480305, -0.005268089345487059, -0.012760130820889386, -0.17195554632182553, -0.34493938510243055, -0.7734793366339774, -0.7222555411125536, -0.2788494088969687, 0.04131792241906561, -0.01406006641488973, -0.06807296278662195, -0.20940634099467603, -0.017924778794416587, -0.3939263005122209, -0.4147647743823529, -0.26968584332884116, -0.1261239488422909, -0.17551598178113112, -0.17121825861387152, 0.058953053492209015, 0.09643018454304943, 0.3172029356142146, 0.1214271394681528, -0.09240184531938386, -0.02334804494938089, 0.027473951284033283, 0.15908742342295007, 0.028748141366094448, -0.002811861884397837, -0.00046339407732644316, -0.04176584259105722, -0.16056767999320543, -0.12346426408490141, -0.16092181922344428, -0.3511393515396039, -0.42131981292246073, -0.08807297290511064, -0.05827620157682452, -0.08950669705297484, 0.0835511667214827, -0.04987212727075765, -0.34071649156270006, -0.25755581693526114, -0.3873101099377377, -0.2789286566710196, -0.10618905285950914, -0.3992263447712713, -0.3610609027139474, -0.18612524544008038, 0.08555012447360057, -0.1536103709304541, -0.03154572383696593, 0.22781485813482544, 0.15735241531734487, 0.11433928596588369, 0.05200379248018784, -0.0007772585449771397, 0.0011083248004141982, -0.01698899651400893, -0.1366745951373817, -0.09236802980476648, 0.21622999494735398, -0.02313743500966721, 0.09346340840608884, 0.20939239098154286, 0.18730703739189022, 0.001642555519357708, 0.09295815334805942, -0.07690203410747055, -0.26655089077948785, -0.08221436353771057, -0.0698812509240033, -0.18913434992661005, -0.30316471035819914, -0.1054082199278008, -0.21877982245517552, -0.26658738526570175, -0.11003438088534379, -0.07099808734758421, 0.10150105243276723, 0.2540716495706668, 0.10340693325904816, 0.06586592540657975, 0.024025535924175802, 0.000936290964563826, 0.004248729570140908, -0.00010220329396971123, -0.12076446086730847, -0.05889256850354037, 0.1134129775148228, 0.05132820932189408, 0.05377598084255409, 0.08947122925241992, 0.1505156726644674, 0.06391096446929023, -0.29747960299166865, -0.08982174816098522, 0.14633770474754346, 0.23812231747443516, 0.09790940735601869, -0.21904769185115394, -0.18227474215195263, -0.027662336995427347, -0.26466483577602373, -0.18693057129740323, -0.014340386276166576, -0.07997703677378662, 0.00907449787132187, 0.015346659995823117, 0.05895868554400442, 0.03394982313446475, 0.0032767417895779643, 0.002230158645947181, 0.017489163946773773, 0.004167747905925354, 0.03115971186515323, -0.032736197379248, 0.0729267627093382, 0.15391476515368502, 0.25165239138725, 0.08901883749010095, -0.14552623482248012, 0.15226742532950732, 0.008758227910531536, 0.13316861229129326, 0.3019231395954891, -0.1690253062878774, 0.04777531757631013, -0.16685679234517126, -0.22033806185949426, 0.0342366792694902, -0.051032853129763564, -0.21991842882104976, -0.2436443798133861, -0.15076079446756746, -0.11261433945481276, -0.1030061749321883, -0.0983014461830539, 0.01541811377888653, 5.189627922678413e-05, -0.0009957521331326695, -0.00035282836728662827, -0.006100084924603616, 0.06723814035974382, -0.0012880804428995521, 0.16456687798131472, 0.3413376286529922, 0.2857082543219818, -0.006528607053379686, 0.07887077890466704, 0.11568370164661317, -0.05621896990961406, -0.14732512211249799, -0.1361828653954975, 0.07453509404341319, 0.05608986277664894, -0.11915491364862268, -0.1651079060195569, -0.028000443707216726, 0.10821277405062925, -0.11161930000638703, -0.24324548082129085, -0.07114551998561454, 0.09471889716427981, -0.049347829936877946, -0.008095153754256729, 0.012050056576247683, -0.0016491428931411432, 0.00013065109631220888, 0.0017868136034260168, -0.009144265487052227, 0.00781508444414565, -0.06448376745732332, -0.016264190521031632, 0.22203222153718122, 0.3199430801297072, 0.19615928956480538, 0.44461488971208457, 0.19664780310426203, 0.019509355520145585, 0.1498361958006847, 0.14766066109081755, -0.04864269282990425, -0.09797440800018356, -0.20858154726117292, -0.15155115034524694, -0.24923010051481578, -0.11954129264793917, -0.2585258553063391, -0.3009049972973745, -0.06667525529903495, 0.0540102661044797, -0.018386183101277695, 0.005135903078516386, 0.0023691269906613503, -0.0010190016971848906, 0.00015969139403231668, 0.0018280808564331806, -0.02436544525708583, -0.07293353534065163, -0.07021390874151033, -0.2090272033918891, -0.04479672203666921, 0.07721538289776152, -0.03949463218814269, 0.16395991073452224, 0.24575142314701848, 0.3895218325382696, 0.4016646452165185, -0.04857621873263213, -0.18116140448848891, -0.2187487088679764, 0.04591089573616819, -0.15191230250087603, -0.387865684579035, -0.37589837692823025, -0.3094453614252191, -0.16468728916194653, -0.16389417557150035, 0.008527202671013038, -0.04569241242352329, -0.007020045914924285, 0.0021225268090289784, -0.00022899391629282184, -0.0008152326527770472, 0.0004771966751914462, -0.02388897298183383, -0.10907367654984035, -0.14575053100730126, -0.20676876748613243, -0.2534335549313691, -0.39726877542433287, -0.30155055407620945, -0.2643509538496259, -0.38447418620541124, -0.49459410902667295, -0.22638625370313972, -0.027301315441377958, 0.004206456533088675, 0.18021977540345693, 0.05241777415060502, -0.019699044647117827, -0.091739090876306, -0.16279420421555782, -0.24249627213446392, -0.025113081355785456, -0.11883610575232062, -0.050437549860723276, 0.05543089639634041, 0.02428295557775549, 0.010360992977584626, -0.001398458830974288, 0.0005187050314766447, -0.0005441999125119729, 0.0003768070011761966, 0.008098457211288034, 0.03053150784336054, -0.10757474434093833, -0.23302519134199776, -0.19813724383817302, -0.197809241401872, -0.2848164754269459, -0.32278970286718295, -0.3782490846249698, -0.1886370761534688, -0.3399398480746544, -0.010944188633197498, 0.10698295476007674, -0.009756705402405138, -0.06709824108664952, 0.08620908750757225, -0.1462277015527041, -0.10984804401950585, 0.06750913521592386, 0.04353144813869211, 0.024532376333723484, 0.024924386192271036, 0.0069817833098103615, 0.013333414452873503, -0.003346464202971207, -0.0004548303490768099, -0.0004256238995642642, -0.0004024364564087855, 0.0016494662438686018, -0.0173628490896325, -0.07044000273080657, -0.1947723143532559, -0.2232824797418976, -0.11095503390273896, -0.026047104138955134, 0.1198678218978943, 0.19250839422667276, -0.019216971809952053, -0.0011806070609059814, -0.107945082033993, 0.03516100424682594, -0.005318469442385816, 0.012151709592161542, 0.0881177484852448, 0.11058021907821536, -0.07411907576473473, -0.029072073978703965, -0.033041147616135094, -0.018555138015361947, 0.003729501711506003, 0.000618719381634909, 0.0035991505103553905, 0.001883750310610838, 0.003322138340522721, -0.0025736094508135745, -0.0031441966980638395, -0.0005567581833877545, -6.4209264186461495e-06, 4.7072632801346594e-05, -0.009260252535835834, -0.05426070750248776, -0.048658590254751014, -0.014989539914270409, -0.048770964890277435, -0.04332445549001731, -0.08025072299689588, -0.036982276417288754, -0.07003207104841302, -0.030514946406209456, 0.006311395546538557, -0.0008570636285586825, -0.03088916758407205, -0.008569174997267706, -0.03475100242079452, 0.011680596019491864, 0.012586596523041924, 0.0003933342502768563, -0.0011054595018592348, 0.00010584677987083802, -0.0007805632565221733, 0.0017475907314158153], [-1.963308185873308e-05, 0.0014553302179515723, 0.003283174930861088, -0.001019904104067544, 0.0015198152668652186, -0.002225874734240878, -0.0003922679922480936, 0.002187503733056335, 0.0025518414814904643, 0.00016919906239909328, 0.002336148348505928, 0.0010692120748117308, 0.0011780117789351283, -0.0011535664017220007, 0.0009559061105130026, -0.002047677569171129, -1.8230939313535732e-05, 0.0008759123346353471, -0.0013118071645841706, -0.002297947423996396, -0.0005245634464649034, -0.002040527970381019, 0.0008760705038294475, 5.6634355732021524e-05, -0.00030811161336782833, 0.001072549829147631, -0.003165498366379656, -0.0002971241843060719, -0.0029001184055934387, 0.0015679399083552293, 0.0019525301408328721, 0.0007123931234936355, 0.0010516550480425735, -0.0002048641876710171, 0.0002951715216655154, -0.00043366432305724827, 0.001766738705994493, 0.0008990103212700567, 0.0027206292101424386, -0.004115282267582538, -0.009825035883603986, -0.0019558735012270537, -0.020244729292664583, -0.05192189755991113, -0.021821959848842803, -0.009028179382326649, 0.0029980273263987595, -0.0032745731068312862, -0.00019553575781963226, -0.0007301324583830071, 0.0028901908874001216, 0.0006393854806157404, -0.00010270931158170699, 0.00026182828407048705, -0.00022074055829552014, -0.002025258646268149, -0.003524580109696017, -2.476111997895662e-05, -0.001017624904208083, -0.004227320343920802, 0.0009267593580061204, 0.000334811939864451, 0.007316033204468108, 0.007284126322622474, 0.03441842452640471, 0.06858699166435553, 0.04950814096533519, 0.05618741875517121, 0.06350030666763136, -0.05689122054948878, 0.011145808990161923, -0.13075587412283965, -0.1057438608595582, 0.04041099037893804, 0.018032268534604195, -0.07069142663677425, -0.024244737650044906, -0.0032407993577989744, -0.00300139396356786, -0.0034142414409779995, 0.001296912120360468, 0.0027988986489526544, 0.0037788183159187137, 0.0004771964631354258, -0.0009042882797903105, 0.0009940579681709482, -0.0004348357670695228, -0.008712320959511263, -0.00016956218291915012, -0.011275548080384862, 0.006184815383204334, 0.010244798143670448, 0.034230257499966006, 0.13969398760617333, 0.17942799699625278, 0.11888068778079197, -0.02635374722233191, -0.04062926058742345, -0.010376171493093337, 0.06094549126050011, 0.0013077915910006935, -0.051858559408350643, -0.07674450758285761, -0.06882664070452245, 0.03961594490619862, 0.1282920792098213, 0.07394673034471239, 0.01863026462764419, 0.007134164499911772, -0.0076448459551593205, -0.00026670943529662504, -0.0008815768332062178, 0.00243976593818029, -0.0010881996946254882, -0.0043398433192263, -0.00850404151341074, -0.009294670204547337, 0.03947756605213919, 0.11025951138034296, 0.19515286005913013, 0.2564506384326246, 0.38114376337459566, 0.21734604232948937, 0.12252116744476897, 0.15383376829124376, 0.07143513170278983, 0.036616134212556294, 0.028581881428113805, 0.12111134311797755, -0.045838055940766946, 0.004030901390656453, 0.1454963563341247, 0.22021163314408954, 0.29113394404293635, 0.12006833493970813, 0.08607476723886767, 0.0548082313953578, 0.03782877384277394, 0.0024881063584908615, 0.0005875452103399246, -0.0006558522024243837, -0.0005733985210694061, 0.0029808863311200982, -0.02324555126738827, -0.02067815438449125, 0.03757289464812095, 0.10045748352646937, 0.05707741213519808, 0.17576821008991725, 0.16312997027301848, -0.012107869836322697, -0.2119789154200585, 0.06300338499254675, -0.16976797802447433, 0.4150600207957831, 0.08913476846639087, 0.12422713080570837, 0.23506624869801673, -0.09704285925480606, -0.028528745896295952, 0.1480119537159811, 0.12999891398408178, -0.018957891797555033, 0.016039220996747344, -0.022645915848648966, 0.00025642344481757696, 0.00693512101927756, 0.006387037951223323, -0.0015101267500281811, -0.001078330245827893, -0.006744109658158924, -0.05482701994724712, -0.021702528174299403, 0.04178933430485996, -0.05452716404094272, -0.06291109760313088, -0.06432478555259202, -0.2758001967045401, -0.4788107506322779, -0.2863281691182611, 0.05316242117614818, -0.4411778927803333, -0.4416047357261531, -0.15568481851438365, -0.0046875450248502004, -0.19167132219380195, -0.4886035474141043, -0.2650038489398467, -0.30074032948047574, -0.3228819765302175, -0.12373486338247092, 0.14856727869860648, -0.038896254939639406, -0.08756567007684052, -0.008075113786284881, -0.006271244383031996, 0.0011086249710085547, -0.004754611267755099, 0.009852533675058133, -0.12498338998719322, -0.1135111807047321, 0.0461246268361587, -0.19144940389374637, -0.15896103100783182, 0.03437810485660382, -0.07953836200186158, -0.2578485012609568, 0.009798742144180339, -0.36417848426619276, -0.27570770981280096, -0.35621449371153313, -0.5796504458342396, -0.5760863541300542, -0.33743021830874753, -0.36935565487017064, -0.10938197488283435, -0.5801022003986064, -0.1977763748124916, -0.01354845076560668, -0.04564780676524433, 0.0820279574758057, 0.04080555136737262, -0.03411376815325017, 0.0017221974751670227, 0.00021763942852856012, -0.0027489360136677323, 0.004457449872183673, -0.1460794001628491, -0.1959689410350707, -0.06714385657341711, -0.10882628608586596, 0.07415339683564234, 0.049632986505681986, 0.10122258380152697, -0.010545106648460855, -0.08279866766759061, -0.6532984874918194, -0.14497015012354136, -0.3432435174133224, -0.12717736484091738, -0.46536058075389, -0.45896945618759444, -0.6682301587215184, -0.19610191377274608, -0.3401482822001251, -0.31033691320268475, -0.22196992799890056, -0.12001143331456324, -0.008420441217951128, 0.04688390936172605, 0.018512805463835543, 0.005642225989489822, -0.0006529883932819262, -0.012771718575129473, -0.03370291571147572, -0.15572610505385287, -0.10479086713948406, -0.0579374964697689, -0.08282998475382733, -0.06677538617687478, 0.10186689058827603, 0.10885783831361959, -0.3365824476828414, -0.09301922959896997, -0.5709082313490806, -0.7080495884682132, -0.49145530992989744, -0.45843849081297694, -0.26649197752946735, -0.5092255186260479, -0.3262790173819651, -0.20448108276300228, 0.0053973265117608915, 0.10175406447663217, -0.16691807317969828, -0.07069003669254792, -0.16155603795018209, -0.000383648880948227, -0.030920120246034848, -0.05555347468712243, -0.0012712510624248224, -0.002559127358008594, -0.05105964090212799, -0.21176801165415757, -0.060725167862560506, 0.01931049443086919, 0.06865960017357045, 0.1366101849524559, 0.11800571569323727, 0.06673458813483338, -0.03908873677545024, -0.16548098464464966, -0.3880386820282095, -0.6213707736696068, -0.3354402522724619, -0.2448828689838269, -0.5733936971085484, -0.3789416771570618, -0.24251335929979637, -0.013681536309513081, -0.07248636989838357, -0.049411657328949025, -0.01736977685152324, -0.2835787609229341, -0.07139832092103407, -0.08311587143576973, -0.024894116554221725, -0.00981961824346323, -0.001065578662540286, -0.001132699597704478, -0.12794794182817115, -0.17815939991048516, -0.13203039104953393, 0.017289441604179587, 0.09204261718526378, 0.15135746672460598, 0.2220764870246065, 0.4159440559429129, 0.4269004442969848, 0.2794677587202594, 0.01822763651265037, -0.9573932490223107, -0.46339059965364976, -0.3855123608472816, -0.007126180768366279, -0.3067922118536379, -0.11221971945597826, -0.1996785244891385, -0.32494195519371966, -0.16122396447548074, -0.3924602096250694, -0.20936455035014742, 0.099542054357224, 0.07642853757103153, 0.015989761606207676, -0.001569748629312596, -0.0014174756742348772, -0.0028735489209974676, -0.08691697310995614, -0.08070593127384793, -0.19616632587070768, -0.172193543161329, -0.05035117940365775, 0.06694392244686906, 0.26946717397225706, -0.08233534674118817, 0.3484081794149725, 0.7151274552448439, 0.802384636585002, -0.06403062093179747, -0.3586893316431772, -0.08734863576494396, 0.15533302090406828, -0.09242569782975439, -0.31638039044492944, -0.1852693698123238, -0.08285629704680782, 0.025660151157262136, -0.32598854331528104, -0.10650745422613647, 0.2531930141450685, 0.08110154887874571, 0.0124426608197365, -0.00565415229888223, 0.0021179959607015566, -0.007782493903682273, -0.05899345450996131, -0.05999391060451369, -0.2386020233395504, -0.175757673657152, 0.06419551764982862, 0.11414653626633656, 0.05704313878765118, 0.30969435785711424, 0.5372104669776038, 0.487560730815703, 0.7856644792968692, 0.36606223444550756, -0.1769742727211053, 0.10950966865076793, 0.23243176876525246, -0.009477827021375416, 0.11996488622571816, -0.07268409402969282, 0.14761200748310171, -0.09389046846079972, 0.013704668342950675, 0.20455395569556886, 0.24970422260581115, 0.10202811642901398, 0.04826547262247755, 0.006960251342087814, 0.005323345611136423, -0.008444655696282211, -0.029020935986206784, -0.087330982806566, -0.1204051631581967, 0.03547387406794641, 0.008249546943861794, 0.3047888135748464, 0.2849522047063482, 0.23607454873645925, 0.21204841327112314, 0.5352283518844596, 0.6343224449273036, 0.2971463656539375, -0.06000347105701412, -0.15479586826892014, 0.05760284401187052, 0.11688677871462702, 0.07178135872741974, -0.049697108465522985, -0.32647774299581955, 0.028983465810327624, 0.1253004173472784, 0.1249857793435502, 0.1634997436426974, 0.09424523810140911, 0.026377500332279424, 0.00018492961880795374, 0.00045464149510803686, -0.010372278010174069, -0.010263671095064606, -0.0009890246194873742, -0.1875966226698877, -0.15440381984727825, -0.07589766640803476, 0.18719833925831042, 0.21520108582685918, 0.38147307974921574, 0.21157951394451208, 0.42337430654189323, 0.4528411574685836, 0.13497522456736594, 0.18563416203008107, 0.23638145127020196, 0.46152412530826514, -0.03084436866916437, -0.029690117701072737, -0.24019773801735414, -0.12487028096830058, 0.038198036804738045, -0.010714395689508254, 0.09388035582941219, 0.0728411966528046, 0.22772490695076442, 0.10680390707209643, 0.0010061469851745095, -0.0013486465231141286, -0.003063705857723859, -0.0549212690993352, 0.044005178270152406, -0.1357775556781581, -0.029118587713718058, 0.24456312041537764, 0.16255761001168978, 0.0496835863477345, 0.3031358577053287, 0.28528106071666587, 0.22894616231762144, 0.2719025610902836, 0.2770494605820832, 0.45017363349912637, 0.6458094701326489, 0.3283567287591864, 0.1590802168059635, -0.012249399047551556, 0.03843062002810161, -0.08225802967957686, 0.20680945987844718, -0.07630451834811088, 0.10699434411496508, 0.0369404362044815, 0.27604405844445995, 0.058593676324474014, 0.005743059838300095, 0.0010430836922681896, -0.0011357494473838415, -0.05471514011625269, 0.017262364431511735, 0.2220196905115295, 0.2861955452762915, 0.28016161515661486, 0.14231881100980606, 0.007915558978991755, 0.1802285504647625, 0.11994697502237243, 0.2148048628695715, 0.12649945850031116, 0.33197075775768303, 0.23268018374447225, 0.01099531936571742, 0.2503921226291758, 0.19603133735467235, 0.03297482861483831, -0.06213257437815345, 0.21253309648883115, 0.16548977524390526, 0.027724345048889706, 0.19029307754544214, 0.027310390763379683, 0.0978580751254956, 0.02496289694252433, 0.011863801537428652, -0.0019067925902148215, -0.0005425668410905928, -0.020063132726754234, 0.05010087441605694, 0.332681238914566, 0.2586500530940345, 0.2993712936559758, 0.15533122309217268, 0.08004249922351082, -0.010365584780690745, 0.12915267678516804, 0.14123642149984805, 0.4899557798789471, 0.44183706937038303, 0.24507811494692747, -0.283284288216444, 0.12489530399740781, 0.15543546926343757, 0.027908096136529986, 0.23817501536712946, 0.2417178616425942, 0.11688548495733427, 0.012299315069260828, 0.27035991642069174, 0.2860284909767576, -0.005621875171399309, 0.02818089367742263, 0.030047515223880127, 0.0033827683060685936, 0.00012236281203307193, -0.027223266636686082, 0.18238429890623536, 0.13058711891159785, 0.042550712388660684, 0.027339315105323437, 0.028180013120471886, 0.006717675506045504, -0.010254995559443628, 0.012393924309578735, 0.28588676342744407, -0.15450404452572228, 0.10502137851513627, 0.37634916084216896, 0.3102282496245122, 0.06057377191164607, 0.13195384538601423, 0.03121978640505065, -0.16890696701338326, 0.06520996241133806, 0.056503459506239015, 0.007553716912920821, 0.11271235837484365, 0.004464024639935723, -0.046517355010213444, 0.02320249440672034, 0.00820675824123704, 0.000603766762192686, 0.0034974063464654806, 0.012557519958870172, 0.08205526111636927, -0.01908991970142867, -0.08549607192406242, -0.16558604901268048, 0.006492760310231325, 0.0002779121430163425, 0.055771788702467025, 0.06631864319323394, 0.2111318323749275, 0.0987128869211253, -0.11363310285109127, -0.2194458676507053, 0.10039388411173562, -0.08499261528448904, -0.07382836621577872, -0.052706501468226995, -0.2878843052497347, 0.008863022037951805, -0.20748088091337977, -0.09199073775460723, -0.03846008076125214, -0.16954439125143897, -0.14273009080814011, 0.006904632708752535, 0.0010274291049939895, -0.000502088660919369, 0.0025361283360004513, 0.0009576170922248948, 0.015303849726765864, -0.0224085823497201, -0.09625893424052158, -0.22361572811322658, -0.1316481994543669, 0.08025294345585202, 0.2550439305747761, 0.11095842384533766, 0.0779454050468351, -0.017092815731061292, 0.11691881610093106, 0.09200138475496696, -0.09971535716765903, -0.26781062739917133, 0.1587434056206291, 0.23184810629617336, 0.15211935987640882, 0.19193445173610266, -0.07268907283777533, 0.1741085691180367, 0.11849765964522117, -0.02265037843749199, -0.01623645885712962, -0.0038719326294010723, -0.00045471725487705646, -0.0007681495444905058, 0.0007371974529100382, 0.0062927416131756285, 0.025141205534544124, -0.03691578665738422, -0.2791569790335469, -0.351984080159633, -0.2815671381853444, -0.10880056900946375, -0.028054921989750695, 0.34793029392536906, 0.13968240638342164, -0.01311650563640906, -0.13052630987152963, -0.15306857897033674, -0.08871831720912648, -0.06968899546718854, 0.22174163591755558, 0.002925646202703409, 0.5260567985946009, 0.22498106747283528, 0.07913706610792405, 0.2519754001797743, -0.02819780314717817, 0.01685040637785019, 0.03993018506190224, 7.080474946205021e-05, 0.0036975941145123443, 0.0017362622316062183, 0.00016650821661523706, -0.003138536453812717, 0.009205791964565902, -0.0070809854806504645, -0.25307283890392246, -0.37244910149254007, -0.40502521941016384, -0.3755513981378389, -0.43009254583219053, -0.06296649585854976, -0.009414236613001203, -0.1354304603359136, -0.260590294864359, -0.0017532670085226398, -0.29917264136120264, -0.019477111416883228, -0.22444369403812028, -0.15647724144302705, 0.2282960825496229, 0.4087826625217773, 0.2746280511167692, 0.06310956119407723, -0.05169876201809675, -0.09240555904734174, 0.04387740587351998, -0.001560430926997451, 0.0018330658829946865, -0.000559789811183594, 0.0007479284651565463, 0.002426314547967486, -0.008261575539857298, -0.06179419961135004, -0.08557239584628125, -0.18623678018124065, -0.3295406066301443, -0.46193600125627127, -0.31119071889103883, -0.42333102885544777, 0.010297990926177756, -0.11434958812614028, -0.3093268569033096, 0.0643670501191482, -0.03995033494823708, 0.1830103457868025, -0.28788736969281326, -0.18744760083465206, 0.13230490869443698, 0.10506193541079599, 0.20462150616654062, 0.06569238103892638, -0.021258123799974597, 0.02480461667095811, 0.021737267268226494, 0.010637380367770819, -0.0017599007854510941, 0.0005598962903038369, 0.002820818676728926, -0.0013724528645349646, -0.0003752725483359452, -0.030810209610915608, -0.12403621000383154, -0.14822970680253333, -0.2831031929225457, -0.41676497240882665, -0.45648977010378067, -0.42476133992171156, -0.41822516476573846, -0.4875040876731514, -0.3808351257334595, -0.1350104370947471, 0.007737464264418228, -0.3357170198843258, -0.4449778636661712, -0.42600792578638996, -0.47151738269481985, -0.2993801496832944, -0.20775030291236724, -0.02516556070118786, 0.09600207575364564, 0.04937959210039912, 0.005395932348451857, 0.008201167540405495, 0.0009242310692616589, 0.002012939523165172, 0.0004304432522098199, 0.0031842871921486954, 0.0017375019254440103, -0.005046896629960141, -0.08591902705082059, -0.13166598607722077, -0.15271041867365173, -0.14946103210732975, -0.25642793559312305, -0.4051629391269638, -0.28563862849099997, -0.38205598477873143, -0.39977802192075956, -0.3456438551427415, -0.30798734949108997, -0.42023205624321563, -0.44502323246530207, -0.3189504615968139, -0.2124648635813045, -0.22866879973333734, -0.25270476250716883, -0.09300132705905546, -0.013394093326671795, -0.001612536671838476, -0.0007008563529338362, 0.002048882853815074, 0.0019869922980000235, -0.0005509411022504173, 0.0009453169774887385, -9.921140171696951e-05, 0.000530740799441694, 0.0016103416445466686, -0.0019074873213229477, -0.009452227711709118, -0.05070483654389789, -0.04871615331437871, -0.013252068670278977, -0.07620232710005395, -0.05481195956029828, -0.06984782466147971, -0.04779792820496708, -0.070140214676838, -0.03359561507910611, -0.03137075832963766, -0.02402669956530283, -0.06868420005669916, -0.04373451581356935, -0.008766672508587132, -0.03947435521474417, -0.02407806993232035, -0.0016700448145178881, -8.7163381605832e-06, 0.0015090678075128428, 0.0016127936745919745, 0.0005607395801992573], [0.0011011547303141057, -0.0006659077053105444, -0.002266056421959768, -0.0012105480771013289, -0.0006719465330117548, 0.0005536954734073535, -0.0015348132163406371, 0.0009714954513627713, 0.004950862141548575, -0.00010828467403380033, -0.0017091098195837087, 0.0011619688412298369, 0.01016482970367172, 0.025885697653403622, 0.006045113014459092, -0.0009785613240224473, 0.001882268808568653, 0.002920748980812076, -0.0012058062682577656, 0.0019035281449097394, 0.001779697047436195, -0.0006608028111104535, 0.0006350891943859741, -0.0028882539995628118, -0.0028773422375376265, -0.001010130677461092, 0.00019243496988758307, 0.00014872838843611548, 0.0005629642321639335, -0.0010354027260792967, -0.0027257377215250365, 0.001581611583961962, -0.0020141554987448272, 0.0006223928004421461, 0.02303537126128198, 0.04213555934471628, 0.020890783560607754, 0.0097595463638126, 0.010157822270673435, 0.010222699808215826, 0.02809433236089083, 0.03097619908714581, 0.02714001929163614, 0.03806353046614978, 0.04063340347921262, 0.017069147235618053, 0.020677604192175836, 0.03774715942429349, 0.025833414533113472, 0.03410102654158386, 0.04606670596294276, 0.026130105739250144, 0.0038317491129563662, 0.00019201455632644732, 0.0009629834421803157, 0.0016588620202159657, 0.0027306202585149985, -0.0009706489642161168, -0.000790479139477643, 0.003862528624616049, 0.0004407900775866981, 0.0022409987875261473, 0.011334330620223855, 0.0775367735179064, 0.06736317974908336, 0.06329303467986294, 0.10593545116271062, 0.13876079675269515, 0.20950810256825989, 0.24530012185858835, 0.18110941776102493, 0.10971903675710781, 0.10303852608770052, 0.029076558198374923, -0.018282106593861404, 0.038943723722777775, 0.030287826924588382, 0.0328695678466656, 0.05980163342934702, 0.04244430765912061, -0.021130059622757075, -0.016617048422841358, 0.002794208869991274, 0.002602886931471401, 0.0014338263818062138, -0.0027399393397461195, -0.0031311264597911116, 0.008314877269264637, 0.005414675178399768, 0.019243040240143453, 0.10185870698325093, 0.18484059811781967, 0.17669686963239417, 0.16065901286576553, 0.18808779646070614, 0.30382946803016214, 0.5413170236075728, 0.62552681467381, 0.43920338920140917, 0.06347712863559705, 0.1792248144185036, 0.11740876710724432, -0.04470220527234242, 0.0840371400148863, 0.10978813693829931, -0.04347673120049979, -0.036541038098450426, 0.004971253370193172, 0.008659721107550065, -0.007563654128860441, 0.013673933902560671, -0.0007865073247984274, -0.0007245800524185623, 0.0006656438980342406, 9.892106609659933e-05, 0.0033519689041542878, 0.027562354965510065, 0.061864914071674014, 0.1412967918524354, 0.24457656776462447, 0.20905877178350307, 0.22706736015584186, 0.38261752976347896, 0.33050059438636803, 0.33970230009945473, 0.4950505967004699, 0.30005955385926625, 0.11224601388325209, 0.03732034505464153, -0.02850881779781558, -0.07667014439960133, 0.19512742383542384, -0.004927153223909357, -0.029300227373687687, 0.011079271727088379, -0.002956013899764173, -0.09292078436779126, -0.0763960332933437, -0.005116606902607282, 0.005418405580411638, -0.0035677387555910615, -0.00037860364986702546, -0.0008511927785383569, 0.0076033274572852826, 0.09136514249532195, 0.05451552697392022, 0.16524682106191732, 0.21341244257196254, 0.09066184171677903, 0.13030500222417357, 0.17687236958064464, -0.26208893236703223, -0.16201494193021343, 0.061962283603089585, -0.07733948192203186, 0.20973723926630372, 0.018155915250582445, -0.046965935360923756, 0.18888662712173157, 0.4220057094366746, 0.11973586865095809, 0.0278667832268792, -0.07464466125633695, 0.0421118152772372, 0.04246815975337129, 0.012868892141141413, 0.017982441505878695, 0.006027726760894193, 0.0002607507330890886, -0.0007586319268762478, -0.0057801240979112175, 0.004744497764039557, 0.12811271028911755, 0.08266108358820408, 0.06146216861483979, 0.04629983795169786, -0.22197838116565635, -0.16027026691033186, -0.24344729257412048, -0.19067069244200155, -0.30394494047577225, -0.13038651545662092, 0.010374200644146634, -0.1848835424512749, -0.18708283263161593, -0.3838900130268169, -0.0632247394801432, -0.07885317316166918, -0.11108042520097455, -0.09245442859841212, -0.006625380960504857, -0.08221259037950139, 0.10153624253020012, 0.03208354932267558, 0.0003797705332788019, 0.0046984333533109, -0.0029715361538109075, 0.00822036998208095, -0.017764195166905177, -0.03301894527324805, 0.09435099233733044, -0.017348209012832332, -0.08174779001712668, -0.11471417871818776, -0.270194826444356, -0.09400979277656588, -0.23659689452928065, -0.0860936225207495, -0.20210465972769803, -0.33945270645578995, -0.09086055475122391, -0.08161109212156117, -0.10101544835698713, -0.2624224240651894, -0.21042189574169876, -0.08153870267777544, -0.02086236765685493, -0.12168451975444712, -0.09098053748295613, -0.19950193674467925, -0.021349292875965844, -0.06077656251469336, -0.0021879878898461128, -0.0060785867674658855, 0.0010148260246333025, -0.0018884256665368173, -0.022763725755457067, -0.03836749693011135, -0.022382616006943537, -0.13617340467060446, -0.08203499181355974, -0.23354630038181062, -0.20481374362760874, 0.027523958017167192, -0.08938972543824743, -0.2457055202783498, -0.2480300802437148, -0.09939554439316858, 0.00952226890516695, 0.08081149333864382, -0.1105238950192201, 0.0008929318208116246, -0.408378145720783, -0.3293067714640288, 0.07058474846509544, 0.04804545602529935, -0.2639442979435812, -0.46690964124543904, -0.27124389550048894, -0.10882227547184521, -0.0671881487179732, -0.025381951803869252, -0.003282766974924908, -0.0017668876844348915, -0.019102873570970975, -0.034854125348959354, 0.028079438497209827, -0.051486451903335013, -0.11915875920707245, -0.1495899761095992, -0.13727490153520583, -0.27454864751895774, -0.13210312561538495, -0.3031770180272673, -0.13355392957543705, -0.09800090933350103, -0.018057811366860087, 0.24590180085082342, 0.020616590894435457, -0.24447353631033156, -0.3474550567287465, -0.5311188266095238, 0.007417672286028319, 0.04962670139761578, -0.22657369894465904, -0.3768062154878914, -0.22241494703705564, -0.18680351619708413, -0.09292120602007353, -0.003778677459172038, -0.0013617973956351539, 0.002623072744599325, -0.02327977695674971, -0.008258635945407, -0.04704448458698421, 0.08039694614490768, -0.09220242665310831, -0.1148371234306735, -0.12645326065571355, -0.09213417162602591, -0.20882749405420165, -0.4837079296788862, -0.3693320582665632, -0.24659956163979757, -0.0779911301446182, 0.17030059658243532, 0.15471828052011835, -0.025869460544955744, -0.21076275203890651, -0.5881573187682809, -0.07955006416214244, 0.031889590369465974, 0.043009333195860734, -0.20165296709854819, -0.2795687105944077, -0.15628553814763907, -0.0789161725546886, -0.0032095563220577504, 0.001288611640591664, 0.0005635366813791318, -0.00183024975060117, -0.007753684837371813, -0.18462124794859155, -0.08845479895575203, -0.1037798596935417, -0.1282947665860918, -0.20989465131342228, -0.23956678465085957, -0.19049942249913773, -0.017832469669167107, -0.06464583426775768, -0.2889287087550042, -0.2666578074407572, 0.02298451871450936, -0.11009410294777722, -0.04913361255587073, -0.30862018391267787, -0.1425684018964111, -0.06875868247954157, 0.02275969146852676, -0.0662717434008259, -0.10410092404976876, -0.3474223039034992, -0.16564121949131375, -0.1603746368811632, -0.0023273621888239655, 0.005977327990370665, -0.00022581588945784644, -0.01424361282223472, -0.1380854221856466, -0.33535114099197305, -0.2562433295820163, -0.2162714687651559, -0.1184922057433603, -0.2289715481498313, -0.196602303892582, -0.21338429975584045, 0.09797610342637776, -0.008555230517692245, -0.348539398374425, 0.022645209106280904, -0.1094411910284088, 0.20124384880577414, -0.1421415887294292, -0.08662362279387784, -0.26509301847912997, -0.1377814050067022, 0.049710225364390216, -0.05856259763205322, 0.026854245608925055, -0.0961964074463397, -0.12369305103669116, -0.14801451991266215, -0.012613951983029403, 0.0019638170260222816, 0.0020636151928801853, -0.007919879199910109, -0.09052295515459532, -0.34398184840443746, -0.15839025842216983, -0.07521262153437652, -0.1710546962858655, -0.18231391438261707, -0.514243126230699, -0.23107502587244858, -0.08605961644870497, 0.03567542416461778, -0.12279782836300367, -0.06129306921820218, -0.185867039498155, 0.014818158129567225, -0.1754685654354134, -0.007408388413743326, 0.021328628483585556, -0.07763732254443312, 0.1726346682303455, 0.027532831378819945, 0.3449910569846675, 0.18031703292490298, -0.15788408356552738, -0.08854523210748634, -0.006790259363983467, 0.0036909693562038656, 0.004652391548524199, 0.002265552414255804, 0.022842026899027184, -0.2551336720694869, 0.010273699685955597, 0.08892603252744473, 0.02567692857816465, -0.13870099643013195, 0.026318584994849983, 0.18014499791754493, 0.2095105071523595, -0.17207615037423352, -0.32847997921076083, -0.07239194276292792, -0.04819440065212139, -0.117147091377399, -0.508385390460264, -0.05558068178091283, -0.07531636826686754, 0.030088744024774766, 0.23329059322602513, 0.29519251371670285, 0.397336883948589, 0.3410873754659552, 0.061376582427687516, -0.007348073365856773, 0.0008568247494565426, 0.003112653998581682, 0.003672142636391259, 0.021190327275730666, -0.014925857324043864, -0.10365995712093948, -0.049982588847215126, -0.11081883504102909, 0.11308350045336257, -0.13872455791153096, -0.0592470167970984, -0.01695005095135574, -0.16998968161806194, 0.033999844688614875, -0.00819142618421586, 0.01740242540808419, -0.17836640561946035, -0.3562924925120688, -0.3038998916755851, 0.03109319547245922, 0.29737867395043993, 0.22391424294764298, 0.29749686043472345, 0.3588407291980629, 0.3194148409404172, 0.37647686057832813, 0.26961638404699, -0.05681086809999882, -0.003729224024283805, 0.0019118569989448576, -0.000311029954870286, 0.0292089361855452, 0.04606832487657081, -0.028780300511606734, -0.07594687303645375, -0.04028666858591377, 0.08158632601133474, -0.19223471566443578, -0.12500925338870053, -0.286613368767595, 0.0012848292605069894, -0.03927815508888653, 0.14126963171341617, 0.16460540846816402, 0.03595927739728256, -0.3701278731074635, -0.09306965747966349, 0.2373105442868369, 0.29950359143349004, 0.29426105362759325, 0.22690293166611747, 0.25115529397874725, 0.28714561082579093, 0.2930427497847223, 0.21705485563278518, -0.030378269213925873, -0.011137108437801463, -0.00024588814981128863, -0.000530658142819575, 0.017899948796413972, 0.11037980181205177, -0.051330684054993025, -0.23174532164388661, -0.0587252181369528, 0.16208445923553333, 0.022274258209370755, 0.032093677746975476, 0.23442266452014932, 0.07505772086349506, -0.16549846269939314, -0.1959047941561155, -0.22066583853384628, -0.32330804977988536, -0.13813040975662189, 0.12347193836917761, 0.2304520900616805, 0.397175948148154, 0.14587056248963712, 0.1941618209259594, 0.054807831186295966, 0.0648203642212934, 0.025092858355541713, 0.12465792162604093, -0.07921152295964515, -0.0157247797029039, -0.0015763782441926835, 0.0010465283156856368, 0.01470525933863293, 0.10374288061710753, 0.03299856109978633, -0.09363526249226012, -0.08974004548208275, 0.0007546401025628608, 0.12429938086449865, 0.3798576540630031, 0.22227345042622362, 0.04678452394047844, 0.296303348181549, 0.21801777751140797, 0.2784223243078087, 0.18700443022342367, 0.29275108459320176, 0.07728643145529013, 0.2610499683433389, 0.03465502617015897, -0.18710449315474598, -0.1675703671676103, -0.022175534757858956, 0.05435188781402242, 0.17842073226337402, 0.07493788131282998, -0.07013683397747796, -0.005618641306414005, -0.00238518694779581, 0.0002640891498273303, 0.01292974790796702, 0.07819414163813691, 0.10809161000447144, 0.15587160230669317, 0.021845869384172854, 0.15042725933878834, 0.380666052662765, 0.20063870725986002, 0.13066138537828248, 0.4919069572625632, 0.6695780949360607, 0.5175190014222213, 0.45793323088509785, 0.3023842910920819, 0.03434978819477115, 0.041890641291780585, 0.07671323258067757, 0.11290275985613685, -0.046411011720330235, -0.2612906197933869, 0.06960726201963267, 0.19513708169961128, 0.15784756092628702, 0.03812836102905278, -0.0017043858184517093, -0.0002824146163393535, -0.00110231173830424, -2.092866282451369e-05, 0.005196832156767112, 0.05173234990696736, 0.17887436210643332, 0.185944937164031, -0.029270096575162195, 0.28827693315634384, 0.322832284800255, 0.4170061747726883, 0.6115567710833112, 0.4762223042498185, 0.6811228049069254, 0.35922083852702513, 0.5354584220325836, 0.12583411938192984, 0.04891081541452794, 0.14889261741394405, 0.4916852814890173, 0.12158850179092542, -0.07289484625557466, -0.11476469907094457, -0.039983728008138056, 0.0432428324769643, 0.029814957944234274, 0.006107452775997532, -0.002354206658809647, 7.002058485271274e-05, 0.0011996986205396187, 0.0004191358006067507, 0.004451122099050169, 0.05277355744372798, 0.09369228497687133, 0.09852707562766726, 0.07684372011791209, 0.22445100707631685, 0.3493262977772773, 0.3392075524429018, 0.6398200121563823, 0.2016490574376287, 0.22865708091708128, 0.022753015937960083, 0.2608851127366396, 0.18879358931429993, -0.048139862552566685, 0.24947585585980792, 0.47046390684165607, 0.026433376845290027, -0.3982549713881237, -0.3148243108834899, -0.030842237080609205, -0.021967838010245433, 0.01172155318135599, 0.017388782886360494, 0.006743454103284551, -0.003785469968817076, -0.0005611089304285006, -0.0015179230456055517, 0.0038385865227552308, 0.04313965222927733, 0.006438999316146154, 0.14079200637836334, 0.03699933970674043, 0.02044304154936066, 0.03303464433427517, 0.09475315267411841, 0.15941367366001527, -0.07852850076082725, -0.09496713038526225, 0.020743034697098258, 0.05333691305191692, 0.24990481641287113, -0.052466885556939194, -0.1841054645160321, -0.2600726182123171, -0.283828565035014, -0.3952142423687611, -0.31162791284852637, -0.0905653013917631, -0.02301845434956041, -0.0008847967063862921, 0.0124323401152178, 0.0032988576674590473, -0.0010618697891711258, -0.0005246780371902824, -0.0006828722137673722, 0.002915080924577638, 0.03360454750985607, -0.043018512702447345, 0.06278965881446674, -0.07919599318111728, -0.20066367966422033, -0.16229309221073598, -0.22036277220849296, -0.23372833657343267, -0.1237291797369489, -0.15169747052195345, -0.15215906449625338, 0.08161888695421515, 0.15850341634587378, -0.29002865711078957, -0.48839845801759396, -0.3010645696828002, -0.24704990289916612, -0.17080831263518598, -0.17436963414184892, -0.03989719861439765, -0.005531864815628671, 0.017229016053104982, 0.017471374521095664, 0.005202550492073751, -0.001730951334877569, -0.0006534513241409082, 0.0006317723893184327, -0.005806855369139987, 0.0018245234156359217, -0.035329559323868207, -0.03154234347403528, -0.16347722388105482, -0.40054691358842587, -0.3807288751903812, -0.3050848719278847, -0.31313909712530197, -0.41656578210804285, -0.36751011932947103, -0.5644805085699255, -0.4977325930759066, -0.413921076705376, -0.30198414032924303, -0.22668713678201136, -0.19432350120625486, -0.1512439191216716, -0.09291033248989536, -0.09779274954920525, -0.08100877997373924, -0.03598788225124217, 0.0008733171149368103, -0.0004491113731225279, -0.004478560352202501, -0.001508998818117855, -0.0007418685963113846, 0.000779236225321372, -0.002049808708490092, -0.0045641114823975594, -0.03702822512686847, -0.017233034816477533, -0.02178916026443583, -0.060893519441438816, -0.1356023359632768, -0.1890553369594393, -0.27203176731000694, -0.20725308017793123, -0.1348302734090083, -0.14622655201227525, -0.2203961428519944, -0.33215234980982566, -0.1543034398207194, -0.022508971065786917, -0.05804938010479506, -0.05039440132944271, -0.030245527861429863, -0.02123706142298195, -0.010274275568275041, -0.0032230039953427088, -0.0021291622350689825, -0.00023553304168744525, -0.0018344089622183777, 0.0006315028651487975, 0.0012974840977813893, 0.0013204921523297202, 0.0012399344809917163, 0.00032687486909913695, 0.00040863355373556536, 4.658872099055381e-05, 0.00032504175342018424, -0.0043737413116535975, -0.03078937315797479, -0.017719682510809645, -0.028156746524804703, -0.0320433107742132, -0.04462144029242966, -0.03647175216457062, -0.009817594977120623, -0.015571764460623735, -0.027065489022171957, -0.02122848377393086, -0.005154618884789657, 0.0014684224908425739, 0.0020544338223167993, -0.00022167584037434513, 0.0007110567963438144, -0.00022323046682023534, 0.0003552307298987483, -0.0008742359923726724, -0.0016749919501627048, -0.0009058639734569764, -0.0023792835407413257, 0.00023305264648571257, -0.004403560018512827, -0.0005978920286071286, 0.0004668663255428025, 0.002083312966412473, -0.0016451282771814423, -0.001303538045399789, -0.0015592930541301717, -0.0017375586550055144, -0.0006119695539043286, 0.0011868814316452312, 0.0005635892424688838, -0.0026002128274092533, 0.005567083621712006, -0.0018156064938864768, -0.00216384185640828, 0.0005937021203232238, 0.0031678367183414938, -0.004011011386337232, 0.00018873731597366202, 0.0031050716715338633, -0.0008666049235302038, 0.0014929655898104726, -0.0013327985099557457, -0.0019651748349732738, -0.001072229336060319, 0.0013944136224278382], [0.00011090364272713758, -0.0015884825903338395, -0.0013018397052203987, 0.0008183307275413079, -0.0007790159263401583, 0.002175754690384317, 4.0299803832090315e-05, -0.0026473577486636735, -0.0017582126657246888, -0.00039084271539961175, 0.00025122601222862145, -0.002043491277073002, -0.0008122632101124151, -0.0008118796637051579, 0.004097893188542664, 0.0024296809344631423, -0.002949930291313982, 0.0005168314882409631, 0.002329705659686765, 0.0016666406675065605, -0.0024576344026622197, -0.001033748032545142, -0.0004681369432711185, -0.0005251339291529408, -0.002974260235781874, -0.001954015934979579, -0.002909935770304243, -0.0020128158576607994, -0.0024649994817047935, -0.0013409430887308435, 0.004178003725725927, -0.00030969004048606925, -0.000415228947226667, 0.0016467480780574634, 0.015771772783107752, 0.02978880524245404, 0.018489236203413778, 0.006926159677093072, 0.007560384814193591, 0.019186240973071568, 0.023179404506792445, 0.019238089825401376, 0.020220341923176188, 0.01915934811689216, 0.014099716545131228, 0.011291540566603184, -0.00029274691509551264, 0.0033504526509349516, 0.002493164229444438, 0.000594557396099284, 0.0019388878379349532, 0.0015988575847707758, 0.0014385525645328064, 0.002595807092807468, 0.0003149488852640411, -0.0018341384919291657, 0.0007893461432255917, 0.0009968831735303733, 0.003053756812501711, -0.0026836719072870154, -0.0014317528182116559, 0.001942624547736227, 0.016183573067755284, 0.047914709076066285, 0.051967287591802615, 0.03845211360523497, 0.05725851244587576, 0.08021738668612871, 0.12111300689169358, 0.10786677163616736, 0.08912302299434642, 0.10758191559565985, 0.12563327777783231, 0.06395575350536552, 0.05207956135124117, 0.03446785437311512, 0.006989263227758292, 0.004773690884013788, 0.0008026222361000367, 0.0031805651228966345, -0.0006757925492733902, -0.0007266415587527753, -0.00012573435475346522, -0.001089744505106362, 0.003907092171603174, -0.002278634979436288, 0.003215447007501862, -0.0005654831971110396, 0.0020829489879148843, -0.0038187500322934788, 0.044883885822613094, 0.06367871116046292, 0.10594669114823767, 0.1722542602280196, 0.15227780835466861, 0.15592530578380306, 0.28636798086479265, 0.3131384500619153, 0.23034679392907612, 0.3448262007690422, 0.20565303195171214, -0.006625244195728001, 0.02155798316506496, 0.08836068666616317, -0.026308823659126478, -0.07836102397769702, -0.05659908005596779, -0.02466088807719993, 0.006276266257071144, 0.0003655882424986094, 0.003306001220977421, -0.0025257804267663523, 0.0009029434648290522, -0.00015616390963495827, 0.003104200063033448, -0.0022608435872826446, 0.0006263772678690813, -0.03432441946811976, 0.01203715430539388, 0.010724139472731972, 0.11372431389258883, 0.15997978703540863, 0.10392834018367725, 0.19148462050648796, 0.0665115200786169, 0.023858321215801122, 0.12774560247476485, 0.33272409960772387, 0.2864878930778496, 0.0808460402493607, 0.1544958827673476, 0.05369527494617228, -0.06109523709918095, -0.025018542498554747, -0.008146676287776242, -0.01833803368064469, -0.025940723819445836, -0.0041764637757719285, -0.000606881731739592, 0.0015549919296797827, -0.0005883066498036646, 0.0008904775710973448, -0.0002448655388976761, -0.0011596681793803586, 0.005270631269382048, -0.040149865873196446, 0.02874316371990105, 0.049996626577974074, 0.2641640680276812, 0.2399604623480583, 0.08813148231395072, 0.44298666387131896, 0.3629703205876201, 0.3678781391051019, 0.015310205676169994, 0.24129686800706823, -0.023636105904305992, 0.0194267729218499, 0.035601510329949425, -0.06270331877168171, -0.014057593121487667, -0.06326975766721542, 0.04670363519427712, 0.007773921040581621, -0.05985644880825171, -0.019070999830343358, 0.0026657814759993067, -0.003444023664749173, 0.00024665952599002127, 0.0037266904015631932, -0.00479085680437937, -0.013466356118215728, -0.010079634194383038, -0.08197093763131474, -0.01884208463515763, 0.10212740583566611, 0.21100150686346583, 0.3174789359277043, 0.2799710830001802, 0.3993287413848393, 0.45887018652925976, 0.3305011009559634, 0.48028961572969453, 0.3231948450594937, 0.3159500068364081, 0.2723718442731282, 0.11980239396135373, -0.08929394043822428, -0.17391119669957777, -0.2575673467209885, -0.16765083879220874, -0.26578230835433686, -0.06868256878345459, -0.009680920752853059, 0.0068536377002906875, -0.000902436872062659, -0.000499806818519808, -0.009337567800039338, -0.01065203002185517, -0.06505163542446359, -0.0878455766428812, -0.22190001796718734, -0.03566613977210949, -0.0414895019229932, 0.13191356837211113, 0.042324046398363, 0.13079034318260616, 0.1456623468453228, 0.289650779260638, 0.6700309158938378, 0.9530243587287208, 0.3297744313331233, 0.24665796449078728, -0.12928395744431087, -0.1748604318049939, -0.1009433153056133, -0.20883087086367919, -0.2239228833249816, -0.3309815129817321, -0.545758273145271, -0.21573288572800545, -0.05356023649722259, -0.01990007691337379, -0.0033866987076982087, -0.0007579590943207103, 0.0014310259418030063, -0.016918234992116005, -0.0740758467993153, -0.10428012350913198, -0.1710502076770027, -0.02780889804096447, -0.07717278937666623, 0.25491921470493845, 0.2799523061189808, 0.06422100331354187, 0.5565542339673268, 0.6238794563908248, 0.7401445340341717, 0.5096616313891562, -0.09876525162896943, -0.10996165861518631, -0.38199660986014805, -0.00131823905804619, -0.04715606736203314, -0.22303775689556496, -0.20740904080644956, -0.4193736761504224, -0.5050674420536595, -0.32090987162544277, -0.11760192439527514, -0.015287759904612609, -0.005646172716452008, 0.0018406838920983345, 0.001340018603918526, -0.022604056596107303, -0.04507476973516501, -0.07713945721673297, -0.07976380174604743, 0.11471643715249125, 0.38222188068581864, 0.37749807394248774, 0.31844385109535495, 0.33384743923094956, 0.5971516399868863, 0.3243110217171612, -0.3807579957615129, -0.6647589476970417, -0.44702846693390963, -0.3152684985282304, -0.23363610161853743, -0.09341328467465927, -0.39099296733787703, -0.18698859135729615, -0.4008558298977731, -0.4193874840029672, -0.39768472025303486, -0.2569039095397712, -0.083683415806462, -0.003512118694842468, -9.510688008173653e-05, -0.0015409554870535558, -0.0011643649457782233, -0.002137727175456114, 0.022371130355499803, -0.06745320723544232, 0.0046966415797774635, 0.2857322530962887, 0.2864376850622462, 0.3457533883199494, 0.13143166271679654, 0.0926961248211802, 0.040769085722698696, -0.6308206914334703, -0.9738782763896094, -0.47862950799200504, -0.23489605504278452, -0.06921507897998946, 0.07119238659040052, -0.08826765885899497, 0.0022479087205191767, -0.1431214881226845, 0.07676487307814779, -0.2630725082155384, -0.20970452178447546, -0.16386864460625988, -0.05090331314654972, -0.013971201128497196, -0.0017841716439451647, -0.0015120156643048997, -0.003202340328926909, -0.006185950404792255, 0.0195566806935669, -0.03189006775728057, 0.11557064376141912, 0.23266320054554504, 0.19151765971880208, -0.1301239803935942, -0.09594909010757238, -0.09521719977671089, -0.29122234838565236, -0.602583044834058, -0.4582693291060046, -0.36241375174900053, -0.1254592891451865, 0.15551041098156937, 0.4798355862028448, 0.0391315794726045, 0.34602873976671406, 0.2970482778876737, 0.12135137751000569, -0.1934019410375923, 0.04125159489284955, -0.09445018970599882, -0.07722193510861551, -0.03707797630478947, 0.0005156077657039244, 0.0004670471075342298, -0.0012428521805833914, -0.0013836906104478734, 0.06147517478096484, 0.07133407580393891, 0.07634749917763667, 0.08515521332236081, 0.03151636023363986, -0.14061576996638678, -0.21161828408171363, -0.1874900027913672, -0.12057888332185226, -0.4667112333967002, -0.3737270063101426, -0.3693950052382015, 0.04793532561812736, -0.017307350194635914, 0.2516766948873658, -0.006907045158895177, 0.11597220101790594, 0.257135892979568, -0.00028820223133399036, -0.028681948391278453, 0.1965376948311428, -0.043126777990280266, -0.0728049561870185, -0.011993855543154436, -0.0015775899022490584, 0.001973712502664124, 0.00034963946975725025, -0.004083682491261205, 0.05384705170555519, 0.0958544757500416, 0.028086946836754955, -0.1924024045998346, 0.14489877100815132, -0.09318781183716847, -0.08178375946531986, 0.16184383512832703, -0.3124324617393662, -0.551776736025369, -0.40164202232160695, -0.19738034171054192, -0.19561030563960285, 0.18414770322414614, 0.26314426311423517, -0.06304497122887283, 0.17311584290394108, -0.11755104311400971, -0.11747182651898859, 0.14304153771630596, 0.05861847174710845, -0.03471204989066115, -0.029162262839552464, -0.001373400986731027, 0.0028016121844629716, -0.0009569036000039134, -0.002869943951809017, 0.003679994878640988, 0.04793397619392641, 0.13149441741532245, -0.09669113694655675, -0.08556423022572214, -0.1936159763056875, -0.067969383227771, -0.0833171324928075, -0.041810754409243145, -0.3792527729047847, -0.4615314424709067, -0.32542517500340246, -0.27560095957490277, -0.09192236013694353, 0.13090705151615767, -0.14406143910452235, 0.09688853340023379, -0.1378227679567463, -0.09352353756453033, -0.20484113801135903, 0.21393586406144574, 0.027408384409706363, -0.133610506202549, -0.023877376472086757, -0.00299952113248514, 0.0033078429134857715, 0.0033567947766243496, -0.002595301487280216, -0.008143552205547109, -0.01545466123733591, 0.0676079273176763, -0.12057735451006078, -0.22960401771777963, -0.26221693726985273, -0.012271300975851636, -0.022924681426729505, -0.0033727644178397935, -0.41631120661016185, -0.37495536163237914, -0.4433304089489681, -0.17178581937293733, 0.0035678005981991654, 0.015663233651862656, 0.01721164096098169, 0.0024518358942242726, -0.09041094980004007, -0.11308627722685946, 0.1571836497181399, 0.06483494886902115, 0.015665863293768623, -0.015953256506127684, 0.03622030855038818, -0.011693689698602709, 0.0004711068939338363, -0.0012539413585703275, 0.0020801173314063505, -0.009935416616564212, -0.029412849007003236, -0.010021529007175931, -0.19438959042238704, -0.4466597674791511, -0.5061664641181145, -0.15061744952666753, -0.20368833202940625, -0.07657098320966424, -0.21716221727354745, -0.42983354778088456, -0.6650864793938432, -0.09045952625964793, -0.11315843477801707, 0.047773247131704194, 0.050179124901340674, -0.1366414431919833, 0.024957354494378824, 0.01594663712278002, 0.10369286218422462, 0.13999379185844923, 0.1590933652081507, 0.09152125330929124, 0.07145722838752352, -0.0009811424907395496, 0.002696965912727604, -0.0010833123698410013, -0.001143203956666813, -0.006493769022560141, -0.0026423755823744757, -0.08143273642550497, -0.15621571523120073, -0.4260357121837243, -0.38056472890851173, 0.05479100804830496, -0.2850189386455483, 0.040782000771673974, 0.011135550402033515, -0.2270062806709604, -0.6488472987992341, -0.13553187974248185, 0.040105381986031904, -0.18901114679677422, -0.16563190156342933, -0.3426532229289803, -0.1520539690754079, -0.08534570332876176, -0.0701708890198648, -0.011082802921027377, -0.0626191462228556, 0.011174692432251148, 0.06333537029642079, -0.0007881635289217631, -0.0017206653996588897, 0.00012993252548439442, 0.0011755175325609863, -0.004450289794798747, -0.009915222371200218, -0.07748414538759202, -0.14338921358787324, -0.16806014254950363, -0.01391230372817151, 0.05946381330626233, -0.20520371004371926, -0.05986365356300781, 0.07000054657155275, -0.09223089556010007, -0.5637743751174202, 0.07328631980062889, -0.15669682433635568, -0.2496536673670827, -0.07010989276873435, -0.2829179734447254, -0.08531365484508086, -0.01828009792950351, -0.12165263716707828, -0.04449409825927851, -0.04595967537543413, -0.026951748539450763, 0.07203503468867352, -0.003603792612291669, -0.0039118817580940215, 0.0027771411265297714, 0.0015991975468088691, -0.015415371163789233, -0.020678394877519133, -0.040725867205349806, -0.09290296281117928, 0.09020340165489898, 0.15260670068965843, 0.0737058430237052, -0.058998956630587775, -0.13160202861407141, 0.026832788190676554, -0.07141260582183452, -0.3353498356260138, -0.009956165138802537, 0.08123299518715592, -0.06754984236333243, 0.0047205936680773265, 0.22252493657991707, 0.1466207874113261, 0.016399436920985305, -0.1863685695234346, -0.11134372179584928, -0.05537245365185047, 0.09242630069695904, 0.05179032487152242, 0.00420080065164131, 0.0019767198405236646, -0.0003660091516617807, 0.0008571852417732651, -0.007876045555401391, 0.002181684653434138, 0.021863721438446677, 0.16579910848264706, 0.20274035265355417, 0.02655231783418315, -0.09578201443686049, -0.18020313001596508, -0.21409053547433654, -0.0008405183606773887, -0.10903971495778471, -0.18516277605414885, 0.04222589745834558, 0.006942888412894246, 0.21350751357401945, 0.17234881966817378, 0.021232498186710434, 0.06066922030239234, -0.0621954082572413, -0.14939770089524226, -0.060358719661537046, 0.013045542350256168, 0.19639064430553346, 0.06694438978074875, 0.0030940199064750716, 0.0003625686908118623, -0.001604264394389035, -0.00010318121596968655, -0.009162273584427895, 0.015425787342389028, 0.10036912665074846, 0.10292135823785216, 0.06491826417096692, 0.017238906616978203, -0.16122609791070064, -0.2648267143482982, -0.12086705510244691, -0.07976531571040005, 0.08811007884220051, -0.006991970115065915, -0.08031028570114171, 0.11960020331257183, 0.16052985471979406, -0.03097288232813309, -0.024328815931448432, -0.01341924407104229, 0.1791970306313009, 0.06978540908097718, -0.01156462524318615, 0.1994075834227456, 0.16803046224806875, 0.015702730738790176, 7.652439513342373e-05, 0.0013582890670696414, 0.003076823618068975, 0.0024009560914378205, -0.0033762193350333806, 0.03417284620281972, 0.07496447032022567, 0.047006284842988605, -0.15636972050396866, -0.0843884473780608, -0.07514452195343958, -0.1464487739789982, 0.18094399468536707, -0.0094117872021256, 0.07818641067083552, 0.07554594907809317, 0.10201580796504688, -0.10374191671949928, 0.18501157818547298, 0.17914260554987532, 0.19238399334784798, -0.12085350392475798, 0.08075215295558609, -0.035034380451051714, 0.08447599919290545, 0.2988124064542655, 0.09959189873382052, -0.022449856400372368, -0.0031308609084553904, 0.0028355506116075364, -0.0014822472553355176, 0.0024022498351212495, -0.007705403786699634, 0.029624628919804247, -0.01922039195086116, -0.06883573395175428, -0.15366867449606272, -0.13192641365565516, 0.09182094681905975, 0.03656473709023188, 0.18350222873824798, 0.12501549567723397, -0.0604009876777568, -0.09617382236104213, 0.10009876752031933, -0.14770804433605025, -0.12949139175484242, 0.04658681917522917, -0.20176677406473464, 0.0847827697700044, 0.07505873806680663, 0.0814807059083854, 0.2249785183624463, 0.30778593827454703, 0.11570517605862875, -0.002243085475352812, -0.003029230804600276, 0.00021110556423926716, 0.0003011852727197405, 0.0022119806731522927, -0.0016014933937903504, 0.0033039945957498494, -0.044975850504384324, -0.11420244771944076, -0.12913384720394153, -0.06378581614607141, 0.13399346659378042, 0.25961377735485947, 0.06660835627878961, -0.045342236328998586, -0.09790863848454702, 0.019017945782818152, -0.13950838048591688, 0.06048599551232549, -0.02460806925296363, -0.09613821220102867, 0.08696832482785907, 0.11568641689342991, 0.2606261745887595, 0.10292042494988644, 0.22906599713587242, 0.266123061769162, 0.053001423326721496, -0.01203821227248694, -0.007370969569669328, -6.312774144707703e-05, 0.0015767976954899916, 0.0005030635851275926, 0.0021290880171183266, -0.0007119850515455631, -0.025428362647018216, 0.009693118363423112, 0.07425275301372648, 0.050017127042884774, 0.0629172045498281, 0.10086880898697086, 0.142192644665632, 0.12538855074535704, 0.10122301207383066, 0.3135184572441685, 0.14717244534019597, 0.04982497742201695, 0.1594712123185021, 0.186504111860864, 0.23135203847545308, 0.2803177528529034, 0.3259867884466478, 0.23079082976697085, 0.15768832834654634, 0.07587986603677284, 0.0033798708743513406, -0.004962554133305588, -0.0041409969665177244, 0.000382371316690784, -0.0004704057428211547, -0.0015233039951993226, 0.002113920722282051, -0.0005638185096749954, -0.0014720354301843838, 0.06251720946753575, 0.05751895995742362, -0.0031720708338363007, 0.02807972060862901, 0.10535573736843015, 0.17085343100285633, 0.1753125730097749, 0.14520636568057563, 0.11417739736375752, 0.16319655524445098, 0.13267437678379163, 0.19830081067478084, 0.1549109639122575, 0.15489356745585547, -0.005936176986441004, 0.13711965249406682, 0.10742810349980647, 0.04964026845593653, 0.016443065976564152, -0.0010677396418908368, 0.0022302007063498214, 0.0004596325036865865, -0.0014859247759584867, 0.0029832375599887014, 0.000390328212901236, 0.0009314694597313665, 0.0013035239000236917, -0.0010143971081355797, 0.00010445878589102173, 0.0012828034054846215, -0.0005125280204466365, -0.0016097797506048727, -0.0021972570998547132, -0.011019175410940042, -0.009397377450981622, -0.009987247976169877, -0.002999853265814816, 0.005766143807904966, 0.06268118280724737, 0.008568221933935574, -0.021726484373436016, 0.007898791647035644, 0.01552148254957832, 0.005355728823223859, -0.007078262301139707, 0.01276186136832014, -0.000750971574689507, 0.0008945886511225933, 0.0010211756307487618, -0.0018047440778492622, -0.001140061429906922], [-0.000494412986020808, 0.002511420249716026, 0.0013269351742389904, -0.003221082950405794, -0.0019539344660343596, 0.0006168835434807238, 0.0009499777770029229, -0.000516167760090804, -0.0032851835023175427, 0.0002061640024418887, -0.002001291223780526, -0.0033300361145736446, 0.009910817870031459, 0.020918573706230372, 0.0002876106004961174, -0.0020053486490448163, -0.000442367944917371, 0.003332880987564093, 0.0015212953194074503, -0.0009022536746797709, -0.00023277077260034493, 0.002226697227972982, -0.00010670145165172517, -0.0026965634627590038, 0.001391115774058953, 0.0008652743517483468, 0.003078767599114456, -0.0004583441510850976, -0.0012847920650335641, 0.0002765682291568256, 0.0013581627645954072, 0.0009111782319250179, 0.0007804233960348841, -0.0011701512377693263, 0.02466801259880576, 0.03973982314628745, 0.0343283314689538, 0.03469574820928445, 0.05224082945549609, 0.031445529274340925, 0.03697564253768246, 0.04064418036537634, 0.044293973593777826, 0.056143034850410195, 0.01417951805691871, 0.06604080657184751, 0.13946339510041902, 0.10919699941516214, 0.05753191264308553, 0.044471526485784216, 0.04089113455442234, 0.0022756948739490954, -0.00014947972559720742, 0.0010307481621804893, -0.0006252129355098797, 0.0015010439455510592, -0.0026221185187777617, -0.0012456597644626116, -0.00029023057453778447, 0.0007867804270421632, 0.0019130236059494985, 0.0034629679957954343, 0.03341899617346227, 0.08960809038762962, 0.13048066654005863, 0.1875381132413965, 0.20603166286412092, 0.12024008263714565, 0.054027584351227564, 0.11454500905199391, 0.17454434088062656, 0.30076926388672864, 0.2858392744042985, 0.2141890053912137, 0.3135573978076622, 0.44396744906260777, 0.28986329267249883, 0.20810204475982919, 0.14867513813228703, 0.06327898082262787, 0.005846328008978789, -0.005827352306723608, -0.0022853055641689135, -0.000505573051462629, -0.00046324212743350537, -0.0009698147775620703, -0.0034247940528388723, 0.012539026655358571, 0.0075461379722704695, 0.03292531226947218, 0.12711055621143433, 0.10979328725890476, 0.18545816439512722, 0.32148460985164123, 0.2525919799093312, 0.150631894816935, 0.09542592006346413, -0.06017288601515893, -0.05058910673142577, 0.04723415234518648, 0.015621715198964181, 0.18494417546982428, 0.4164337452560611, 0.4106693126369089, 0.5637330456107685, 0.31897477892060266, 0.2847481136052602, 0.3238318391509079, 0.2126221376310611, 0.00345017451596428, 0.001050835136343766, -0.0025144087306823025, 0.00034516175932823253, 0.0004320577602867555, -0.003912403066846856, 0.0010409103752529753, 0.02278508138055494, 0.012198925736319744, 0.10093784008875781, 0.22707447376038684, 0.3418302096770137, 0.26587178519442484, 0.26407800903887324, 0.25404526347198425, 0.046817421635121266, -0.05741544762005678, -0.1641377741306613, -0.16826935727208883, -0.16325096923980933, 0.00319724066650485, 0.17806883136994037, 0.2746354012524342, 0.4448005935850596, 0.3409502700150253, 0.3562790394462835, 0.23448855176992503, 0.14525337265044394, 0.01478174436057897, 0.01153886571993528, 0.019278079027323577, 0.0012277847341362674, -0.0005324476495637551, 0.0032662760162477833, 0.0028669261175452, 0.08100675668917583, -0.036153560672060485, 0.027263458147029313, 0.19198252000207033, 0.2592669129790481, 0.34070225417494693, 0.272967176927525, 0.2923684942325684, 0.2916407219378402, 0.2952097400983171, -0.1358562087360551, -0.15048849178282986, 0.08965202844273384, -0.06971341278933448, -0.12427538470568625, -0.1435067317304142, 0.20732505417976607, 0.20056440883999516, 0.01835796576748668, 0.015060648950473926, 0.11348015757567609, -0.016563046045004283, 0.06327835646267614, 0.030877141559942853, 2.4139987213660775e-05, 6.847130249953593e-05, 0.00518277410820509, 0.011962662204918421, 0.09161800707313653, -0.12383991351404289, -0.14626898049517895, 0.08149439905002233, 0.14251249555969786, 0.25470378435714935, 0.25711727162351256, 0.5704782165485982, 0.6948312612845594, 0.36909922156151437, -0.01314800464972265, -0.0385671611758499, -0.09046674057769047, 0.1235821789651848, -0.0437065784960068, -0.12809999425751986, -0.24773570222057711, -0.27460971752657576, -0.0741363421868094, -0.1684309916592931, -0.10207044979319947, -0.242949419732176, -0.04681989166715639, 0.020706541009988984, 0.0009191541703156617, 0.0005143335591665666, -0.009435372489378495, 0.027060412105986018, 0.09101417971342611, 0.012699415632074775, -0.09035050920753421, 0.09767746817285922, 0.08527275942101233, 0.10882110077013069, 0.14937603222806936, 0.329950182884641, 0.6147168825642937, 0.4292339883834401, 0.19430689888286515, 0.3048835892697959, -0.1281971894842795, -0.07472149217712776, 0.060968084437471586, 0.18252611965124513, 0.0037004025707226113, -0.32722390336834756, -0.15014927087644728, 0.08095530285729151, -0.08912738449554146, -0.35728484815565753, -0.05629760732794699, 0.007489916174179416, 0.00013061617469079504, 0.004355111761437382, -0.005412702576552438, 0.055348015972186033, 0.186231775530732, 0.024411955801688163, 0.13057725132286271, 0.06480492594334339, 0.23583765178664187, -0.021025619041688086, -0.19182742744761005, 0.23514936123552846, 0.3102976031393858, 0.14104975918082674, 0.15076386211304424, -0.2294064182444793, -0.1348370678306132, -0.0790100411596912, -0.11766815670894233, -0.06809776749140588, 0.05548920287258638, -0.09928849902921229, -0.00139829727364642, -0.035472791003275814, 0.0010676711310617577, -0.1917313174476848, -0.05565235856553194, -0.0009002526798077477, -0.0018480713725209988, 0.009586734365891893, 0.025547353897014635, 0.07123242648019723, 0.10603017568575861, 0.0016481979645957083, 0.27657862899821417, 0.18197873644977264, 0.1882682455147899, 0.013719180282017775, -0.14238041206529667, 0.07321123104908964, 0.10797436690593762, 0.2948727394093835, 0.12212431945231664, -0.19422361904908664, 2.771265256341671e-05, -0.18490123991341514, -0.006816971139028493, -0.01388971168050912, -0.2301395030411587, -0.06852359900851292, -0.045382550821139477, -0.07065529655677022, -0.002995584217232853, -0.25446163080229545, -0.10597190968019445, 0.0037293144252501264, -0.001131404203800931, 0.007069390709065838, 0.056636183191786316, 0.07012610425679264, 0.1376827675252056, 0.03248169702122324, 0.01918908737721438, -0.0632723259994387, -0.14609882931163243, 0.0915906388677372, 0.023944780508132795, 0.04954597526200932, 0.18271655784540738, 0.11352183287729466, -0.1780060100291292, -0.5108022667753642, -0.12827249140944436, -0.17925537852584755, -0.09588775873506658, -0.06523466195713545, -0.1359097361421551, 0.013195352859799067, -0.11246164935781003, -0.10265653685914185, -0.22443311091915116, -0.2566896094067781, -0.10018453591223737, -0.0027194344766349778, 0.0014913117855315087, 0.004712127130021937, 0.06393327709524681, 0.012254683608438292, 0.1858379247740453, 0.17317620340816625, -0.06877419853393887, 0.039200453261750694, -0.07318714276383939, 0.07821431803463263, 0.14902966128439213, 0.20404876084859042, 0.4570332187357736, 0.5445861816747154, 0.008126769783699285, -0.22001352172278796, -0.47227414215962576, -0.11999136977641268, 0.15449837797819255, 0.10098185546477524, -0.06622204560441398, 0.0680336453659707, -0.028692330066963805, -0.12997670480678372, -0.1901235759659317, -0.15584309776133173, -0.06320797139720366, 0.0019949744234508964, 0.0005564562238536186, 0.0021443280754155376, 0.022078125047934723, -0.003176960995117796, 0.29258701077618915, 0.1284966690792803, -0.025758212769944614, 0.15847870635990788, 0.0032266198847354143, 0.12388555767580388, -0.12732047452574305, 0.17029437293762006, 0.14318055591173087, 0.11522741233523713, 0.23698123634553372, 0.18948071281709525, 0.018091481039847788, 0.2979069998174705, 0.26494465972202885, -0.2222934564617247, -0.06101341091391313, 0.018016105216723404, -0.13257944563711135, 0.32023832143654946, 0.12993423518883193, -0.11255505193063589, -0.06102448631726278, -0.008136090526020967, 0.0001841874433529046, 0.0005224888992875896, 0.027877475695155578, 0.09765471688820175, 0.2359181110320095, 0.06772250073444493, -0.20767337706793879, 0.08469562548438457, 0.016221653725077216, -0.054186146492637435, 0.09701940552124226, -0.231778259843488, -0.20961122708701416, -0.07032040560337736, 0.25541203910187443, 0.13126397370515966, 0.3512205155603827, 0.0183030181991531, 0.02522121880927149, 0.23527344301399442, 0.19668521938625472, -0.0806186396004314, 0.10508842876202483, 0.3356014932046194, 0.1812747552115051, -0.10660669262435139, -0.11898824980975065, -0.057672891360870275, -0.00014351350523022943, 0.0024451638434848403, 0.009334412668390617, 0.12726381991876173, -0.05389842345571532, -0.09474719692001285, 0.08322091366402784, -0.11561802383735253, -0.14913638731340928, -0.2736394547080151, -0.23334824176492291, -0.1908137075109494, -0.5725665831761754, -0.31869220956151406, -0.20251822342192424, 0.05751524382981666, 0.05282291681445848, -0.1638865201339346, 0.1860052901817754, 0.08976842751138414, 0.11635525017647926, 0.1332684937679482, 0.005526314980459415, 0.07135004198825036, -0.17882229514835207, -0.1510228345374807, -0.09182462600786413, -0.003786732317947463, 0.0025360362690712134, 0.0034893607037504563, -0.016244671821890194, 0.04387559528833118, -0.26339811446056777, -0.13504734219780962, -0.060723655716843954, -0.2763162490978257, -0.18259583931714504, -0.4287648367872747, -0.10030976660999467, -0.1231563161860856, -0.3314953042359257, -0.09312637283620086, 0.032997683496003585, -0.07326376764244144, -0.2084008664424952, -0.1839039316881686, 0.18671724874160622, -0.057680237027465844, 0.14250444981041724, 0.3480465559720597, 0.15636733392818017, -0.01988904003604658, -0.18530908735363497, -0.05289929884701115, -0.16525231238694602, -0.009148848187824566, 0.0021572526573876392, 0.0028777878670174293, 0.009912040030240285, 0.012984774736675916, -0.053582166571946255, 0.07754152653184203, 0.14262749771598057, -0.14329913240589431, -0.12221019200700592, -0.25035398527528574, 0.1660870540815334, 0.05937490208193209, -0.16473169680601657, 0.19568384478450668, -0.07767619046485659, -0.3143248228068327, -0.26601239964291323, -0.3605764005176984, -0.006505901696127499, 0.1052009676931587, -0.050162624996952385, -0.1335131483781757, -0.11907883011253514, -0.2765488460009738, -0.07217098077987294, -0.08591249424208207, -0.16701099757630317, -0.02602843700024261, -0.001896554108220733, 0.0014660006658200936, 0.012992386951604479, 0.02267395550255701, -0.09346907687321229, 0.030969768483718504, -0.11567309843759171, -0.1560323370970992, 0.016953013791954526, -0.07835622003198398, 0.1455695303478447, -0.06175677173301175, 0.1400162779531739, 0.19256674811024446, -0.31654212985723695, -0.46073927630185335, -0.27421175716453355, -0.11499740792352894, -0.22481808369327735, 0.18376908944018097, -0.07989301808120046, -0.18988036168400144, -0.23175217328905548, -0.03397443089381965, -0.03451529280877289, -0.11849300137611568, -0.09695990613647625, -0.042501326842242955, -0.0011211034814040436, 5.503198521344542e-05, 0.024861320188395847, 0.10280075430016204, -0.1736563502628895, -0.1519658466873169, -0.31004101758025565, -0.16588844083776727, -0.1263981764097482, -0.09387640443059346, -0.02948413754772323, 0.11430276594188223, 0.3004499954159395, 0.07454236525621499, -0.1414967821527875, -0.05887786325809282, -0.3092043184177004, 0.1022476684269184, 0.026859067704422108, -0.17284117622792802, 0.02601059443105649, 0.11328147914285093, -0.037901406467558726, 0.006191263510439914, -0.07391177844587032, 0.005216974920682864, -0.009946844602257499, -0.010204256275936404, -0.0021333707455794995, 3.31866314744055e-05, 0.03350107416829314, 0.026953199052030006, 0.010598519301664059, -0.17344726297552432, -0.22053378351363773, -0.34325636818849264, -0.27945598237606517, -0.18423532687684716, 0.14676958756214778, 0.44512298745481627, 0.1834968009626841, 0.11152562159829688, -0.1463965326347286, -0.20850481507821725, -0.12243489802412558, 0.2509759141861809, -0.09954852784173127, 0.08929185086256976, 0.06568500634565874, 0.06954409214743883, -0.05751816562380341, -0.0847578601975181, -0.02690830254637677, -0.041380537863770675, -0.06802720298281292, -0.000847594373327205, -0.0016947097623702758, -0.0028384957528972228, -0.03869104329971036, 0.01180259740161251, 0.045305232141619606, 0.005529833183468917, -0.042054083675505706, -0.13977942070691182, -0.20742380669115995, 0.15945443680944685, 0.23426557560306566, -0.14734734038145839, -0.10245828252452488, -0.04343381639106566, 0.07153670353760372, 0.2050749025201009, 0.2625868744055324, 0.17203119878102002, -0.08030844201910686, -0.023606180625648752, -0.1060461469342302, -0.022200288739134034, 0.10214320930799763, 0.02549594574889622, 0.0035629297241306043, 0.014378047214590784, -0.024225559876869664, -0.0014786000861102225, 0.0006285708078841686, -0.000663745651903343, -0.059083137623941184, -0.051255699130533815, -0.08322673501508224, -0.10803047960874523, -0.14868860095822034, -0.15314061483027985, 0.152371353198076, 0.20863636873564012, 0.29678650655851513, 0.13295938626690945, 