{"biases": [[[0.5579112386154877], [0.22577464295881555], [-0.23880671688993224], [-0.40889214229824555], [0.7188192475126661], [1.3237119132510138], [-2.5240622967509783], [-0.21586910755956773], [1.3646447593338829], [0.3205234943058509], [-1.4920754991662912], [1.1654301287472288], [-0.9381446347022069], [-1.028516415834022], [-0.2796907471969814], [-1.08330994218311], [0.2627660408048503], [1.4133989848604482], [0.774126773954838], [-0.0648817070044975], [0.0665646033618052], [-0.7646858894798362], [-2.070659440857168], [0.2874896910327948], [-1.0390139283726438], [0.5114535063501835], [-0.5112739710592367], [0.4992518013654704], [-0.6221100844094143], [1.4077368096712595], [0.8222491112548068], [-1.9297689254368782], [0.8315454793156507], [0.02309957884351234], [0.05279518485329461], [0.32475466088765054], [0.6402103944535487], [-1.1369898435590278], [-1.9608570215900865], [-0.21264761620179568]], [[-0.04021984084419769], [2.1977438041877257], [0.20600583822466512], [0.8756125153703502], [0.6896638126401922], [-0.677282058535257], [-0.9267413100910967], [0.032766070024964386], [0.7784365988819557], [-1.6270333775994594]]], "sizes": [784, 40, 10], "weights": [[[-0.0006081107718518818, 0.0006583909333941724, 0.0027395413678612387, -0.0014036308119524492, 2.9664294839643432e-05, 0.000552927305230489, 0.0013645857420282851, -0.0004669419486651835, -0.0020444717844360773, 7.1402847693602035e-06, 0.00036743987266366334, -0.00022650082771872305, 0.0007324658943399778, 0.0010316370783949877, 0.000686562783353247, 0.001744504380494124, 0.0013896228802373432, 0.0019582390545946292, 0.0004837497888415446, -0.0012396978793630924, 0.001891030191885172, 0.0031632161711643942, -0.002051272570178885, -0.002322129906653991, 0.0002444630065436097, -0.0009953485729544734, 0.0004988907351540667, -0.00027766196392767575, -0.004121698538631083, -0.0015675080670253612, 0.000525491289307333, -0.0018627205349132992, -0.0023087876513157323, 0.0010699939467260573, -0.0001038748982468244, -0.001979119121151544, -0.0018826779402490409, -7.84764295737914e-05, -0.0006187817352049099, 0.0011391263866812318, 0.0026659469864935897, 0.002719498227144597, 0.0020945148656958093, 0.01479024958582267, 0.03203960069797079, 0.016101301978127477, 0.00401864727496623, 0.0067149282275612635, 0.008517423365599365, 0.01471255880958612, 0.00513919532244213, -0.0019578025570098556, -0.0009465925577105325, 4.72230594520093e-05, 0.000969138315271858, 0.004198345159594523, 0.0005788959829299142, -0.003023975764513562, 0.0015559214597081225, 0.00017032420886494378, 6.069434284392126e-05, 0.0005780195675948529, -0.0007764234737272311, 0.003760232878607902, -0.004196473898614327, -0.018165958951057562, -0.0010112728716129911, -0.007896923917801344, -0.04230466041622314, -0.015773293191679125, -0.03760674435528839, -0.01671040795801958, 0.0037528194664044694, -0.005307122588067512, -0.024072904722398463, -0.002166398316578206, -0.020548180296150128, -0.01206724550409591, 0.010207156225396119, 0.006787009161702427, 5.4781324021249904e-05, -0.0016322368103341702, -7.35736959386476e-05, 0.0028813595868723034, -0.005458696368429077, 0.0004985704578440071, -0.0006616777797364965, 0.002955396652507853, 0.0017536482308297817, 0.041680950369856695, 0.040824207503771484, 0.0739648268879999, 0.07435719150391341, -0.028821787393635154, -0.04981368355549417, 0.02443183281997653, 0.12079779363523863, 0.14497359265261026, 0.10372028115757641, -0.06689910021080225, -0.1253741878073783, -0.1368509493061978, -0.11536554198169838, -0.005037959231636565, 0.06993266635491706, -0.009578643395903039, -0.043457124388310134, -0.02555437096405493, -0.015085762580443871, -0.004582624071957533, 0.0030719879826082304, -0.0026083055288063403, 0.001511415329499286, 0.00018576878317154254, 0.001239367667924318, 0.005708496431136053, 0.01958221326660911, 0.061923111167173264, 0.06759630791528416, 0.08100197041960706, 0.026949673674708047, -0.05475267431476778, -0.0744050553388723, 0.03669334944533032, 0.068868057383472, 0.0960732420645292, -0.12053954897038907, -0.016870960606707192, -0.10134956441241699, -0.3264157359382757, -0.21200091290220383, -0.06432907554845833, -0.0733534286981897, -0.008115689986407132, 0.006606713608777202, -0.023231896357941914, -0.012729237536900391, -0.0022578455578323364, -0.003940624840549083, -0.002195786533817703, 0.0007217833776729094, 0.001959421819843101, -0.0004051632087743865, 0.00729442976758879, 0.018810393834123366, 0.040301481739987315, 0.10019546185050349, 0.10650229998386489, 0.0654711314747409, -0.034352186942697045, -0.040811334231997655, -0.09637665714258659, -0.08437119259235694, 0.1190526848234514, 0.002421278435593362, 0.011960231124897766, 0.012216918608012401, -0.03658067478012491, -0.1739012785812586, -0.2151065920594833, -0.10552557771500785, -0.12091362264338126, -0.07384931773130975, 0.025878651830213758, -0.01532009559957754, -0.006511957412425263, 0.0029259947617657944, -0.00029852510872568883, -0.0011243418173303755, -0.0006222028258900385, 0.02441375268330656, 0.03919886683018624, 0.006218224170502599, 0.05247912127524052, 0.12404649847110708, 0.1589186324307706, 0.1371868999097485, 0.043487001217130644, 0.1771962936072697, 0.06343556539348857, -0.07398008091469822, 0.15311360726253428, -0.0631751861858859, -0.08475938172904068, -0.1072385720850643, -0.08865061890213981, 0.13366305664605269, 0.03478357341675331, -0.002275606236673015, 0.02378018204436522, -0.17325528408743696, 0.011132421489548993, 0.109673639391303, 0.009924238406110038, -0.0013821075413286532, -0.000329559864619558, 0.0007784355642736666, 0.00982338115915766, 0.01639301890119197, 0.030215728991662492, 0.0900496724852715, 0.13294215197697273, 0.10972969577936839, 0.16764339121619215, -0.03598410233695689, 0.027019782615613625, 0.005963171651835748, 0.12515501427563602, 0.09614093463256455, -0.14500378556722396, -0.12732639483689195, 0.12620206836380984, 0.011861811428798663, -0.029732885238482255, 0.17964982859147838, 0.15377714879908624, -0.009080793677173422, -0.18803138563456465, -0.36892043354095366, -0.0029234159831775133, 0.09625531021558438, -0.015854471659291342, -0.014283419331036535, 0.0021542608981426053, 0.0014143371702688532, -0.001241497447866294, 0.008676698152032586, 0.012075947777671773, 0.122089314292238, 0.06330197604361572, -0.03499075785971517, -0.09808003012432183, -0.1490918816806588, -0.009257726568673845, -0.15906323734777625, -0.009041747885986346, 0.002924662359658112, -0.17677922052232808, -0.11544609116956345, -0.04028875879743349, -0.0001478000103213123, -0.12510139576900625, -0.0651395921194345, -0.10396126342849886, -0.08186362192095115, -0.03793026604227618, -0.06496509719081105, -0.2256645003710076, 0.05490977620506155, -0.0008420701058014496, -0.03146211429449038, 0.001142212649237293, -0.0012080255552919575, -0.0006833853139137788, -6.439258221471023e-05, -0.010800500047917737, 0.04751127417645441, -0.04007534343141766, -0.05706434521901163, 0.16181548370444165, 0.10495809512578808, 0.09705772183757938, -0.023907201624902855, -0.09016667502129025, -0.011511389761132584, 0.03713016552770381, -0.0351464940493709, 0.138001349961992, 0.20693608680117012, 0.06782054875380161, -0.03310635314774787, 0.022155775832297688, 0.1122033605262393, -0.01807870467659756, 0.04465660946791999, -0.12161591715549422, -0.06511380553078329, -0.010240703287727733, -0.01054928314391452, 0.0034059045757736744, -0.00032127045736072125, -0.0003972899244188833, -0.012622206791292652, 0.08311488764739103, 0.10775847994554963, -0.02118365852032577, -0.10613756235452795, 0.11845363917386639, 0.045940432656916906, 0.04635270756363773, 0.0020707325745574915, -0.09224792424060482, -0.09847455729799376, -0.08002874608088602, -0.18655959781469994, -0.11869485534713956, 0.11112160464448499, 0.22354646352082747, 0.08738504858054438, 0.11970068942796293, 0.11270317150191182, 0.03310028218097162, 0.11680171795757477, -0.09747271313395509, -0.022936094374559114, 0.055410185859081196, 0.010694136201675183, 0.0008252487024260998, -0.0003584245592371947, 0.0018066098136536287, 0.0016025521153295791, 0.061276964733254446, 0.13897024622852197, 0.10486550799279135, -0.06961421831879488, -0.15608410841128814, 0.02065902131380321, -0.07859090266690177, 0.10213557811207721, -0.08182475763122607, -0.31349467269585957, -0.36337094502921374, -0.3442751093963347, -0.099673951417067, -0.02611460379152938, 0.3917360165020582, 0.12111172966943652, -0.12929830230337094, 0.012601620924700355, 0.14994098358290095, 0.061692211548003154, -0.06637174664309735, -0.009137408981723563, -0.037146165010893, 0.004533294627275792, 0.0018777793865939545, -0.001548731717442483, -0.0013960328003410195, -0.004187738613077571, -0.050932274927433054, 0.003709820479310515, 0.043626321405406294, -0.04135265978292231, 0.006070294883886845, 0.05057541165355717, 0.02342365701673133, 0.27675699947165183, 0.08317117264425909, 0.029664475524267545, -0.1535129802622217, -0.22984064828078452, -0.1852598378056806, -0.05803397107455694, 0.1688112227212892, 0.268737014564294, 0.1242051150224881, 0.07356297140563123, 0.2328467755910356, 0.1434865048802104, 0.05473754128972718, 0.014440309559943127, -0.0540018667528478, -0.02093807726026332, -0.0031886782832666405, 0.00010179043724800934, 0.0015275217141101235, -0.006581767293570363, -0.021233631848352474, 0.024173783352574685, 0.02384293872839639, -0.03510269442069002, 0.10421857354655381, 0.10011163533841723, -0.01113615940157874, -0.01829125388163157, -0.06728313089074847, -0.009976926439274447, -0.04676667798416625, -0.21406712436525258, -0.24534703165794775, -0.2733398576525662, 0.18566127595029322, 0.30798391083207727, 0.3956123644534343, 0.16890381329843623, 0.22476979287690158, 0.08669204189652126, 0.01832341869090292, -0.04364681528943311, -0.03772579770394387, -0.059260761857165334, -0.028934444518995742, 0.0016111549060564424, 0.004522739878384091, 0.00128642226353085, 0.03985820374421233, -0.002245217998886263, 0.005726271641197074, -0.011433848991602364, 0.0021220696995555483, 0.031663912249851815, 0.14704249544235595, 0.015706219598616532, -0.03362590015713219, -0.03584474455114429, -0.10904607906892615, -0.231402085908459, -0.08623859188112366, -0.10096985686326546, 0.01623829041600774, 0.2933366459589239, 0.17071645223362975, 0.49920552940685586, 0.35488329906022326, 0.05607904467217564, 0.03575455826419747, 0.005700746030018632, -0.08909395788762385, -0.06355582410053678, -0.00039809173552111384, -0.001511362770775939, 0.006813893688698943, 0.002630371722892691, -0.009800249719180311, 0.06935833076516992, 0.15384992955875956, 0.018874324041641192, 0.16626520339688203, 0.2239065602506763, 0.06477687125804811, -0.11546724745388864, -0.21984317468001513, -0.20974938591494394, -0.33833506839643607, -0.322891501581278, -0.2434060836624617, -0.09797014380152912, -0.010727438775008634, 0.21878086375927092, 0.33994796390106996, 0.4165985726891941, 0.2816451054059924, 0.10399095242285104, 0.08273816903982081, -0.017256753919272037, -0.17363871521220955, -0.08761839789595847, -0.0042919800229845664, -0.0006633693890317491, 0.004338135473940695, 0.020636605257699475, 0.011844259621393962, 0.08589565193715008, 0.17220692936435236, -0.003511505518636209, 0.03134114538148015, 0.09342839569856863, -0.014578090935550443, -0.1871464771147447, -0.20718442764252873, -0.15164191167542557, -0.15517512887241275, -0.41953164578421004, -0.28585984664442654, -0.2881840380846294, -0.04344156708362455, 0.3594725018162925, 0.45697786617958946, 0.29540345928100203, 0.1398777926291798, -0.01759644146837967, 0.03707227663855147, 0.008737641323702012, -0.20612851941289798, -0.11041148121633607, 0.0005643948093560062, -0.0007483924524363493, -0.0005437287022841464, 0.02650442443190293, 0.011618170167486763, 0.06368165666446644, 0.13328206035184748, -0.04928143989886166, 0.20377647011182257, 0.16653254061010894, -0.06955626765900588, -0.09868477512227194, -0.050636938070942356, -0.007282971172800608, -0.30665985177730426, -0.2735264730237913, -0.22512619549588098, 0.037552033910520484, 0.6076155248640498, 0.39475561734725484, 0.2203611517663686, -0.08619746064896316, -0.08698175999453231, -0.02339998498810389, 0.03723494753337445, -0.09250184721626693, -0.1684953768482384, -0.04746206833411481, -0.01455464340887862, -0.0019437553331122382, -0.001537588352572248, 0.016255244370075847, -0.02365525245600087, 0.07020597742004564, 0.07710369316064987, -0.06241417993339483, 0.03734215513297448, 0.06877390189422841, -0.17221429764314147, -0.0639702394193434, -0.07852399620313513, -0.357671641660188, -0.4933504261318266, -0.15135814187895366, 0.20635621710893298, 0.45039495624236886, 0.4277467417974448, 0.21295322804363181, -0.07488997630947522, -0.12025798540236766, -0.09041532149337592, -0.05699220590343613, -0.006782344671879502, -0.22408719589013773, -0.15698568573190222, -0.040990426483017484, -0.018058820636792282, -0.0013031862634879166, -0.000738976964183858, 0.004512084309460851, 0.04529714360372984, 0.0597323133428208, 0.0802802969472588, -0.03385275369365082, -0.10028226635660946, -0.11136891743579862, -0.16619417950937898, -0.24993452178198383, -0.2835972660578043, -0.420257963444155, -0.4252545731713314, 0.34849781323388856, 0.47039994511292615, 0.40759333577962664, 0.23757035705179164, 0.27724090401800955, 0.14556144412206098, -0.058810558231676066, -0.008468892083896892, 0.08209095724385773, -0.060588623301505176, -0.07755129100430902, -0.06954049688335863, -0.018928313930719566, -0.0027606829512100387, 0.002297858372572918, 0.0036885019148754704, -0.005607577098599652, 0.027671451209003155, 0.0440406347072539, 0.026011345977094244, -0.2022838085327882, -0.1200788913482784, -0.09454027019291208, 0.0536064446054924, -0.23163614077768677, -0.5659216009495064, -0.5387293755234691, -0.0246923350126371, 0.44337113179763155, 0.32364352530757917, 0.24188690135039306, 0.02203898130662167, 0.366761500315336, 0.15083666076674287, -0.0803472102662853, -0.07345512237855054, 0.04036274438809365, -0.0017675507339420336, -0.055237087393046565, -0.013810979477087036, -0.005223089008205011, 0.001303236283598622, 0.0027755687970209175, 0.00025293406901761146, 0.0016049638743026885, 0.013502782487070531, -0.10833014720022331, -0.11055073606372978, 0.09673669102151176, 0.13759182826430816, 0.2112063311257182, -0.15891996383241305, -0.23920889019150146, -0.3068075165299181, -0.3148037689168395, -0.09752397294621518, 0.41439754488706265, 0.5529133907831925, 0.19984111004583455, -0.052103324434478425, 0.08947751660878585, -0.06547838335506492, 0.005996427409039883, -0.10113938721406263, -0.10377730265762558, -0.17043304354001793, -0.08250824379815874, -0.025314476704654646, 0.002580410841108389, 0.0034556835235734543, 0.00026531716518206447, 0.0003790284395769814, 0.0027471144503414674, -0.0005760758597135096, -0.12176187898339955, -0.10012948677747432, -0.0036021818749225132, 0.012858763798786376, -0.007224404446868167, -0.24101732237566853, -0.25841182898861786, -0.16429065397645315, -0.18109968592151657, 0.16172032814400927, 0.4394582115572269, 0.36651013271579075, 0.289586200706151, 0.21503145972289592, 0.07985153940939616, 0.08005179485811617, -0.10800185412478087, -0.20733805676216566, -0.1432067484191099, -0.0766843528487711, -0.05487158751486992, -0.027086254861068807, 0.0006074415397167959, -0.0006466054045549032, -0.001108540978752247, 0.0026296734035596145, 0.008173674135216842, 0.007281889033763324, -0.009242259210014498, -0.0050015955209668445, 0.039243779199339406, 0.10054707903512333, 0.05429440844493236, -0.038496103900629776, 0.03718665424308001, 0.07248036200390481, -0.06955181730222162, 0.08471592536780519, 0.27006077074209844, 0.23161314243378317, 0.2828557171114716, 0.4578251117304817, 0.06890150616698792, -0.1982601262526397, -0.17383944897562398, -0.20720698365129875, -0.09535639423050447, 0.010736181711195723, 0.02897224476084641, -0.0022355328739492608, 0.0006148860975543437, -0.005187649504384583, -0.0018725159343584877, -0.00371168302829087, 0.005652303113306963, 0.015604787989144797, 0.07097464494513292, 0.0796834404107619, 0.1296178695792366, 0.1094218166232293, -0.055399742241463164, -0.08780583064241085, 0.012566086276710759, -0.08279718398824569, -0.06688256053181962, 0.044684593687919986, 0.006777204503262349, 0.1637913621656412, 0.3673039438588022, 0.5652143962877637, 0.09426776641808653, -0.042676910165216235, 0.06153489365005819, -0.05203906156106418, -0.012174789815777671, 0.027987652441484212, 0.0046350475276628784, -0.008136397120407911, -0.0011876101344529789, -0.002197538191059087, 0.0016801641451155232, -0.0016137352370004519, -0.00026459330333530157, -0.00333601779408687, 0.012756322160406473, 0.06895138328737051, 0.10476997951382236, 0.0775751296137091, 0.0784079127490004, 0.09082752769682874, 0.007501526341696071, -0.1058458490590393, -0.019763605488510624, 0.09671433102250056, 0.05729873867088982, 0.17729518175285858, 0.29290686369427976, 0.2721111381464315, 0.24302346193546737, 0.2901403450328487, 0.0861088366774627, -0.006473598925356772, -0.01860191910825256, 0.004792155462268237, 0.008408635837971357, -6.722303146030275e-05, -0.0015098845689955542, -0.003826558531896612, 0.0006767273743726916, 0.001816904707459986, 0.0020370437085916694, 0.0004209109135756444, 0.001613036577506957, 0.033210822734290706, 0.03625038787870387, 0.006944274810093733, 0.02078716420610084, 0.03213882836574758, 0.16063481528529766, 0.1624414970327411, 0.04127356502712201, 0.06794812118471512, 0.1089857645355275, 0.0884768841575542, 0.1475773973363962, 0.18678250338861452, 0.10154402610010445, 0.0476757210975987, 0.0437916144928058, 0.012596164696293367, -0.0005228457284067597, -0.000731292013957187, 0.00019369913544968888, -0.0014177472225878336, -0.0008509268733156803, 0.0007603723850102623, 0.004209341705928638, -0.0014429233029029356, -0.00016363380517803216, -0.0002662161921820206, 0.001579338978284485, 0.00020616886064687043, 0.0006844246742297958, 0.0010374022365768284, 0.0005561686201348823, -0.000868134657128505, 0.011423190047355706, 0.009102117531675837, 0.0026866499985625284, -0.0017830600487050894, 0.0036428380384489053, 0.0034706218527662813, -0.0026320095028492677, -0.001267396478295457, 0.0022501967521543873, -0.013366410595217038, -0.0017565689274955918, -0.015019616631005681, -0.01640354663479362, -0.004166306179104747, 0.0012230318532685496, -0.0015473492064700873, 0.001068485264372606, 0.0004520063643674977], [0.0005758483401267244, 0.0030163631732396355, -0.0016079152276896262, -0.0019853359774847125, 0.0003357505891077994, 0.0011453123353867684, 0.0016241740087984357, 0.0010845782314751918, 0.0016478788071837922, -0.0016443108654814324, 0.000656149852069693, 0.0033013614372834543, 0.0002208029985307706, 0.0019374491128511643, -0.0014758445117497917, -0.0016079041154098384, 0.003147703476437121, 0.002222072185630962, -0.0015980995696368515, -0.0021810541241907033, -0.002188034359809533, -0.0006801522054888872, -0.0013537598520376004, -0.0005514125884809398, 0.00019787245540567707, 0.0017965126237243648, -0.0037332289157884745, -0.0017503161830924824, -0.0006892621849397451, 0.0002038456618455448, -0.002253101429224387, -0.0014595173403450607, -0.0008139300539334982, -0.00047359651398140324, -0.0010299299320607783, -0.001698136513536711, -0.002338106677493659, 0.0004764125443669629, -0.006450147772292292, -0.008889389289522293, -0.0034524945150007725, -0.0004279861996975867, 0.0061158308527800385, 0.021221421156827125, 0.010356344546862939, 0.00780938855750418, -0.0010743104774480498, -0.0026956292524061226, 0.0019270844503272758, 0.00017155560434061032, -0.00016662430055799067, -0.000730122262053666, 0.0010957742723205618, -0.00016529395920494025, -0.0010141778959690398, 0.0028212973220971427, 0.0022769593225618304, -0.001510302255901401, -0.00027056813176413997, 0.0031608615980261026, 0.002857438245805407, -0.0021503065761325274, -0.0004261173418090986, -0.006287208480505714, -0.021015318730949393, -0.06071687740301613, -0.06241153450284945, -0.08777229292485104, -0.05559492344922632, 0.0039847165063591665, -0.07052666219087687, 0.04401895017348129, 0.014007191139772154, -0.039294090560376, -0.02753534453458329, 0.016065672984728385, -0.021805310644020907, -0.020757747179992115, -0.006895689594809013, -0.0053686093978612985, -0.0037030275618055637, -0.0003222434834053448, -0.001614428545146273, 0.0009405105137243189, -0.001155864540347397, -0.0019742111285994987, 0.0004217458535565068, 0.003112101181414642, -0.002080044569314383, -0.0011884588746848164, -0.013243861983706848, -0.037784711904411884, -0.09006166726142839, -0.1770674204803505, -0.17230529694120894, -0.20244863716998582, -0.10753576190940323, -0.10654082080567297, -0.1816183977886418, -0.05923886606117011, -0.0746095182593726, 0.019788537019148834, -0.029834981446653922, -0.0023781515629908894, -0.010448432093158301, -0.10346691011435988, -0.05892789271769586, -0.02497115920580447, -0.021606723898130235, -0.0027046343305084245, -0.011738722284320765, -0.0019527699427044323, 0.0010712889462073264, -0.003250225089919417, -0.002642086525330194, -0.0005492850109829433, -0.0055573721242262, -0.02854863842065409, -0.05180851622099465, -0.09409844615821863, -0.09231083249652891, -0.15771976206134566, -0.19070531814709613, 0.03237434533361863, -0.012847248518132062, 0.20784536563365888, -0.01011509845211056, 0.09003191121258554, 0.05144188576553891, -0.028436342440638664, 0.015225901310132108, 0.04587314422568514, 0.02943101051064025, -0.08967213080865971, -0.010616750762978239, -0.07266161034235084, -0.1229045062800777, -0.05167325352493714, -0.00802844941081575, -0.00915619461915564, 0.0007467084833413459, -0.0007767290483775933, -0.0022131566182050284, 0.0020695305323027297, -0.03002458872055053, 0.023854335276448695, 0.04449136535809612, 0.03936483484798674, 0.11675405410310316, 0.12533711978938508, 0.13608250487173945, 0.22990423226263557, 0.12384395935440456, 0.2808694722058094, 0.17498812436763883, 0.21901646727926166, 0.07053601943650893, -0.08924951508725106, -0.09827989599247168, -0.25610574447203377, -0.2112210081669081, -0.11166882714750427, 0.004646755834846613, -0.03534108354563393, -0.09876731363372365, -0.07743263894187426, -0.026281878112641478, -0.009495704454017685, -0.0007370272884718291, 0.0013668115552702932, -0.003271284629066152, 0.006538600487049181, -0.046523730233116234, 0.030360339407199243, 0.05489766338979925, 0.07592721475858653, 0.1899614556490008, 0.24003156190640634, 0.23564687044875926, 0.20065345846655072, 0.2270302269168341, 0.346177605820753, 0.18173982950462733, 0.04969383737896581, 0.0060043523423848125, -0.17216631815806294, -0.06275862108459347, -0.14172521673942226, -0.07906117045842896, -0.0020492871398895014, 0.07319011211005033, 0.008619196185999966, -0.09037173185531054, -0.09898999899268664, -0.01171347599565833, -0.00632055553828447, 0.00068261479463901, 0.001306131830857498, -0.013235680203693239, 0.02339662812312854, -0.033283338611322114, -0.01672376931541362, 0.01621863867510987, 0.16292038951605242, 0.13616629828647586, 0.23165653996761987, 0.26418761572838617, 0.023254554026972327, 0.28450488345594355, 0.2225559599054386, 0.31060765519645134, 0.22001076041322326, 0.3002739564954661, 0.16962846520440866, 0.2192339306499649, 0.002648571541719278, 0.08995160234231189, 0.14792767750431624, 0.1033265005457891, 0.13322439979628992, -0.02681472943333333, -0.08174745604025857, -0.009028330074916107, -0.0073984346809812295, 0.00338765132671271, 0.008280600850937892, -0.0071506224442562695, 0.028355819250163183, 0.004997402696308222, 0.07583885774114976, 0.1359585416820608, 0.162404847178085, 0.3135171072506247, 0.1312545387679147, 0.25578279136055293, -0.028567693729830833, 0.2317105757326009, 0.09210156678347778, 0.11385245505003966, 0.09738701384203066, 0.004715507552162995, 0.1045343562463104, 0.2131851309454247, 0.16664998267420203, 0.2439248665555015, 0.19117816880031863, 0.15056533996180949, 2.241172207354748e-05, 0.004618223964920366, -0.031069919029121183, -0.008938609262907637, -0.0020576234684504626, -0.0020698671983903315, 0.017656710762613284, 0.01058382851807867, 0.037952906513960584, 0.07776654652766318, 0.07499310038792564, 0.11742474525178645, 0.17027569092508044, 0.28428884074189403, -0.03268116666205437, 0.2627442935515899, 0.19112368672179442, 0.06106996552441134, -0.1218867051342134, -0.04649371462185995, -0.06490620054968635, 0.08023355726710346, -0.0016808595200673837, 0.20753635336847573, 0.22164855652837634, 0.053955628788897016, -0.07054509143068784, 0.0976897911185791, -0.005958291137285185, 0.04101850138316448, 0.011762092468560031, 0.053157251786722134, 0.11278105641371629, 0.0030638080872961845, 0.013513114997224478, 0.05845855546715963, 0.08016235165946466, 0.057346389045271014, -0.17511507432903894, -0.14780234685178786, -0.011993576913003632, 0.0452633689573428, -0.06340119553714507, 0.07018008175747212, 0.16453184983944416, 0.04652089247191211, 0.38745614432462916, 0.18476625718584133, 0.06310192219073282, 0.5263031833228192, 0.4176864640245539, 0.36376500940714757, 0.1908794118047067, 0.0927460320708516, -0.060995009216958086, 0.08963317581365286, -0.0008921028077684929, 0.13165294693593443, 0.10296977022534927, 0.04855010784785551, 0.029324249293107823, 0.0013356777780731302, 0.0032481654800943444, 0.06132374970724994, 0.13563415290042022, 0.002982558724200925, -0.34395809882479045, -0.2383284860750902, -0.1051836240985154, -0.3496308216542784, -0.32312181443128724, -0.23938373902159846, 0.05087964366442446, 0.2712832272450495, 0.8426453581533652, 0.6311218849615399, 0.8037476842330201, 0.6185865535668734, 0.4167567403188078, 0.18660061931009192, -0.1625982398864169, -0.042681924360935965, -0.02530023562433588, 0.08974261602738517, 0.18976436081376105, 0.0200579475483907, -0.056067589340451904, -0.012811206278893003, 0.004392352984316104, 3.3452696197530545e-05, 0.004748596477670571, 0.03273706008734196, 0.09514744559394946, -0.11065483659614815, -0.2774331251212968, -0.23879005603541908, -0.15898722472535684, -0.17761118168588053, -0.24203890850790724, -0.2615915263427474, -0.13742155602402517, 0.20818660841638187, 0.7420780346138702, 0.5946852602989798, 0.453230743265146, 0.13317730330730632, 0.14266914433069572, 0.06242845812305001, -0.0013491414212324854, -0.02001653893615204, -0.09990958134644717, 0.09783082109544834, 0.025757548591542674, 0.006399451199520945, -0.024908523320294182, 0.03458763285081417, 0.006876715150152097, -0.0012873850483387987, 0.0021010580939266593, 0.030802009202024618, 0.03503521454297363, -0.12153369278359014, -0.027629362011704767, -0.051239410976277794, -0.18474494841117697, -0.2176241729941602, -0.26392190532744564, -0.38952473381959773, -0.46439100283671286, -0.36189010040359865, -0.054749727365217146, -0.02093902280768392, -0.2188701624650646, -0.2433376273532779, -0.024289002058808077, -0.006266891261245822, 0.05964322048265777, 0.056329351339030644, -0.1160433232592811, -0.0604554503765215, -0.04811030602750075, 0.12427920119758674, 0.004861726018563768, 0.0015476636344518568, -0.011691175320521148, -0.000893264707939064, 0.007400400198999424, 0.019390926689596084, 0.03025556245665087, -0.17394587544120416, 0.13075434261875232, -0.05635977281194286, -0.09994896800195227, -0.1410595047108076, -0.11397014463134596, -0.23049691165929584, -0.5480903644451611, -0.39211432121799306, -0.3169951609558448, -0.32309812953079964, -0.2646344904972385, -0.28759586609648696, -0.04766376881508442, 0.09209951899792249, 0.10459787951867613, 0.14640398953870018, 0.10745074065869638, 0.06414067943646524, 0.17443379359244807, 0.212362140536547, -0.06349730747857622, -0.013668314925206987, -0.0009812668381204094, -0.0014538250782866085, 0.002194915593819686, 0.016955117348687303, -0.002758134051873531, -0.04020811408946265, 0.010209133215276884, -0.05475104885927027, 0.037942705232554205, -0.21117399777794005, -0.12785482279645527, -0.25257326124532736, -0.2105493582408852, -0.4322045756658806, -0.33592177966472087, -0.18380404141465007, -0.1757236085417615, -0.4730812875053586, -0.04918894942707489, 0.05390085245067665, 0.019441684617356462, 0.18581342241675491, 0.3109429089119053, 0.1058324682747565, 0.18667640322766565, 0.1548774939457593, -0.18743195223223932, -0.04426684365542906, -0.004069630992652242, -0.0015175228172907046, 0.005225704651107719, 0.008539396329601753, -0.04492310095577191, -0.002136209153193597, 0.008411580109433835, -0.1560379532972541, 0.03793254416488718, 0.1505486171270679, -0.08529793455016567, -0.3152502783892768, -0.3806978013006023, -0.4850035966907624, -0.3542731687390434, -0.18035239807255748, -0.21554591267846354, -0.1798963053294127, -0.2560850071353403, -0.11777177322236498, 0.010702604113089013, 0.08051125300598404, -0.07814270669701623, -0.16484617327245735, 0.04780630493996708, 0.12317309157451853, -0.207541862411364, -0.037049495417355506, -0.0038246778747549515, -0.0014661279153132453, 0.001729960908406785, -0.0003254491258868364, -0.06241996284086577, -0.05337844238433623, 0.12360417561357721, -0.10151957395225254, -0.11499765936733797, -0.19814683395073843, -0.15182120568224997, -0.1773329795189027, -0.21936698980222993, -0.2568156287783095, -0.2232516114749869, -0.06289050461684936, -0.007724324796603172, -0.043886186297712126, 0.0617425908212591, 0.051612371198471244, 0.1404801553053694, 0.027159557818185062, 0.01294224547085399, -0.04387348571172651, 0.16934618243205843, 0.3003673335940373, -0.05495610821390553, 0.0019440054567026652, -0.01023339015674153, -0.003380446174160379, 0.0001369570558500491, 0.0021620327089520415, -0.07521787295810636, -0.13940237655879067, -0.08628697543304133, -0.2776377935262669, -0.1583259455096298, -0.04843379039131176, -0.01684416023207124, -0.10318588446729188, 0.0315615753839957, -0.3246052760642804, -0.4079387726790844, -0.2544724712878964, -0.02234590883569099, -0.03168398909013203, 0.10019804575043235, -0.004891001770824051, 4.5343659132379254e-05, -0.07648313716392603, 0.07296866365726883, -0.0648380660118299, -0.004543461778519936, -0.042168914633805475, -0.03318105243268713, 0.010362579925320154, -0.013958253918789298, -0.001437046238493482, 0.00021043654395376464, 0.013192921755813257, -0.022379952924631866, -0.1220891064389747, -0.20184716319213436, -0.09179071605113732, 0.08409004990050335, 0.04772072334318221, 0.08037769459562227, 0.13562440949365254, 0.050487004709094604, 0.03244223835768613, -0.09955751469575239, -0.04681999152258263, -0.12130724336556988, 0.002197173101350282, -0.05245912644937803, -0.054114664997684164, -0.1578823480193051, -0.1738643085535293, -0.17444038159608444, -0.2558834638555631, -0.33510192849772097, -0.09188960865254474, -0.01911800112093022, -0.01902262551195676, -0.0015902037997805366, 0.000639692837450166, 0.0004946780749061635, 0.0014169218735618947, -0.022261426256545456, -0.13007412273290714, -0.22128733358560929, -0.027146023398966195, -0.013438407711392961, 0.03159196088755748, 0.14492600187631074, 0.16542789041099723, 0.20134862205883403, 0.240383112443606, 0.1093009892387797, -0.03288859630388738, -0.3129162466449189, -0.17949565052555333, -0.13587321237816719, -0.22884309661654134, -0.10219821517517767, -0.13302781218356588, -0.34433490416630214, -0.38073073120194495, -0.34741941560902223, -0.059696064896332085, -0.03687791916186837, -0.0043592731850403445, -3.590320026240193e-05, 0.0008563472446242939, -0.0012199540020180627, -0.0020286764429323324, 0.013318975129368058, -0.0848054490314834, -0.005466637147929055, 0.07173679719363361, 0.01231346844752482, -0.009845601556171528, 0.09057688637095647, 0.07415625339177101, 0.22168135620566898, 0.0775782754273353, -0.09776107810540152, -0.1375861648671583, 0.023359772534795903, -0.02026083401240325, -0.22984378592508217, -0.1540541204210072, -0.23254157549017934, -0.09317585432196936, -0.29861709169100753, -0.3909976096276294, -0.25999357759388425, -0.08417789723469433, -0.006395565183288563, 0.033850183946791006, -0.0023578031400937516, -0.00024062510786713377, -0.0017027015819807297, -0.00033709724067278966, -0.011252547786257524, -0.06263118857481446, 0.1380305010196715, 0.20179702953963247, 0.13179140790353072, 0.15968180667762139, 0.12563292162813114, 0.04394793422806887, 0.09631271765145774, 0.018136888215028686, 0.0007113334839750708, 0.07818642973129332, 0.061263113294921547, -0.07401186987499397, -0.07102178427379789, -0.029996037740260117, -0.12774979501433134, -0.12261204873205685, -0.19839722361922674, -0.1432381655635907, -0.11535015352684694, -0.06726003740149361, -0.018724968040834764, 0.00188903281616584, -0.00029460541364878686, -0.003693639402303201, -0.002304383008657553, -0.0015668420352624687, -0.017657782916451953, -0.05989473682684697, 0.07637251864778068, 0.19948523842179183, 0.30881434775285566, 0.18630822548940912, 0.15150119508942245, -0.06320887036010227, 0.08640427909301562, 0.22319121596995303, 0.1171894089599279, 0.031504513112702644, 0.1580691945569072, 0.09117902759153561, 0.25296412528327145, 0.00813909273799084, -0.13597116507151707, -0.10614661583316132, -0.21103897483171175, -0.1860951838372733, -0.11700935768051887, -0.04099882007660281, -0.014249788670350273, -0.0025854626364962396, -0.0017115363674713804, 0.0021972945178173353, -0.0004868434371799978, -0.0010253241831064454, 0.006483777836990219, -0.03655787301375186, -0.006062991304997976, -0.010516684148431397, 0.05271463643345068, 0.08895062960271959, 0.05931232210444122, -0.050312992700532445, -0.14863847337683592, 0.06975066742430969, 0.15714000689735624, 0.12373720707272053, 0.18592202676361297, 0.06443544328585081, 0.18826312135691647, 0.139896703415495, 0.023566229464389837, -0.06069307901287042, -0.02305115867943675, -0.10303205665835759, -0.07188987343186372, -0.01860278692774682, -0.008541985330838985, -0.0007620687367316504, 0.0005048888340918955, 0.0027346423221052472, -0.00040187844505770444, -0.0032676023288563355, 0.020783754924400894, 0.03387030199138836, -0.024185934132723883, -0.12522031109235685, -0.05038643634251896, -0.013059818461892957, 0.006915576240868072, -0.05394533873194323, 0.019108571500990032, 0.13862051677718487, -0.11527025174625648, -0.08891489547591803, -0.012712948305311507, -0.06936551731554455, 0.007466975809009627, 0.11828649854609806, 0.002752410525184628, -0.026951837334215457, 0.020897865036779255, 0.004053310661527309, -0.02841715956098618, -0.0020576540326649063, 0.00017194916280690746, -0.00039935512201208566, 0.0001179841855952411, 0.00027516515057782615, -6.054307588986345e-05, -0.0003907181222416267, 0.0010467401641258815, -0.017688637634708685, -0.04107930339831895, -0.08719546163353646, -0.05547521835577228, -0.033970151261450914, 0.00558575386532357, 0.0004151021744395493, -0.06444853824044915, -0.09144142636107622, -0.06923402458160412, -0.09595998175912615, 0.026911247659501647, 0.06095963347644891, 0.015443829857734239, -0.008626263040482612, 0.028738995257533134, -0.019680887632719652, 0.03034965063009643, 0.028944792513037207, -0.005484082688474138, -0.0012447877382143464, -0.0010316439382362617, -0.0003050902841395781, -0.00018525899318539625, -0.0005683807594036241, 0.0018156625512428242, -0.0002610108018318187, -0.0001479916206635633, 0.002300737203208785, -0.0014950109603755941, 0.0022711469684171407, -0.006618020422778491, 0.0016049943580867475, 0.002915604169865532, -0.00015572559037464677, -0.008120102131082258, -0.025217495616116782, -0.005041704778976588, -0.014607608687021632, -0.03521150460000448, 0.021492702181316083, 0.002838632998029604, -0.053478531261638707, 0.004814084309825983, 0.019316088903211275, 0.05064879788937479, 0.03274209640829601, 0.006667220155958208, -9.466012953783954e-05, 0.0009122304449200623, -0.0007320631120403126, 0.0017315592646263134], [0.0007057198600917092, 0.0019469136403417436, -0.0025610143933312546, -0.00019116734017772817, -0.001310586204106646, 0.0020380206916288147, -0.0002380705139342976, 0.0027309488104921226, 0.0007948606495135437, -0.0017241379015514367, 0.000426407915200663, 0.0011239680168454726, 0.002519378359994739, -0.0003358992801809154, 0.0010961647146126084, -0.0009475569975528375, 0.001568039214412482, 0.001768919608286483, 0.001625243143586671, -0.00032768919019789794, -0.001651658481919946, 0.00044725418215072117, 0.00015643466038118284, -0.001236239709305536, -0.004434700694997767, 0.0015167216052767035, 0.0018510334025084517, 0.0007187447732305361, 0.0010523369129080487, -0.0014746497126822257, 0.0005101086236114363, -0.0008043716140267982, 0.001714138245929936, -0.0017718964843898219, -0.0012270277702490463, -0.008264913556734269, -0.00509727763606129, -0.0038893151108581056, -0.00937853484410067, -0.007484767433861157, -0.009411519345598203, -0.005807394272262091, -0.0033945211321665153, -0.005686523688501008, -0.019989458390497424, -0.00617447581270681, -0.0030293510099525917, -0.007589701359477796, -0.008268012565311312, -0.004568765575896295, -0.0065183096382033364, -0.0030066146368782653, -0.0011268009442991403, 0.0005071819365981761, -0.0007502676184399385, -0.0016190912067337567, -0.0008124417630187955, -0.00011646719638901053, -0.000480195681722402, -0.002335421817399801, -0.0031406728415979165, 0.002760981416702365, -0.003754039407258263, -0.018072873257798005, -0.023252373213979556, -0.0260112703406861, -0.04234892597826533, -0.06606977621202889, -0.06912736545861241, -0.06042290300377998, -0.0740493285745737, -0.08052419042311743, -0.1305260734035653, -0.1193257593870051, -0.06589118480306921, -0.044316167949116206, -0.03621302854865596, -0.02838663357014288, -0.0283200806799409, -0.01949964077210437, -0.003987243712714126, 0.0016931956651813076, 7.445356711138944e-05, -0.0017967271693482348, -0.0013968143737933289, 0.0018723307443766967, -0.001023675565318805, -0.0013212748072941292, -0.0027664557043184748, -0.0023176667511287372, -0.009127647194652512, -0.012921180083936239, -0.10702733214564746, -0.15615211247581803, -0.11831284246819984, -0.13946969219756275, -0.20185141501737097, -0.2661163828136043, -0.2632130680065781, -0.21783922046804008, -0.3282787074344466, -0.13583240937926355, -0.14507500081959512, -0.12007696110075235, -0.041331311760924284, -0.08022279646230387, -0.0752068916893337, -0.055379325147149855, -0.03605205583581403, -0.005848249109654946, -0.007395054102025332, -0.0016323696020008294, 1.7721230256057238e-05, -0.0007901325733242478, -0.00024647388586839186, -0.0006906751120218016, -0.011445425887342407, -0.019293746518052764, -0.02035970961475028, -0.0360055355957913, -0.16909680559830037, -0.2195717928583526, -0.2687418383449759, -0.15261437783733425, -0.16309650532089878, -0.07873388639953806, -0.16898462596603955, -0.16841745175718126, -0.22939569301465906, -0.058670977618975745, -0.1333095259980727, -0.1295667936804446, -0.09150213847903407, -0.06984196234602483, -0.01548642242269367, -0.012479816862765588, -0.012533010115892015, -0.009195107338525741, -0.009833771271493262, -0.008313782600996501, 0.0003030986197726283, -0.001374618724597728, -3.6674472164506205e-05, -0.003407435958687279, -0.015104039064523593, 0.09995926586969166, 0.10183564920616121, -0.10344830716693075, -0.08394405945932255, -0.019456984034205458, -0.15371282032764097, -0.06575218204804499, -0.053321599314106495, -0.0827725349834167, -0.036483866658752806, -0.032791807478636026, -0.19842871622490665, -0.2410572855462202, -0.198399232345348, -0.23066542176231578, -0.1861784028675467, 0.011814608612775541, 0.1708999978987214, 0.07485373686493496, -0.03892762834140161, -0.03443886745109814, -0.02418054857467757, -0.005568570166085902, 0.0001223251625209497, -0.0032253529609264134, 0.00810639015028574, 0.009939567704811608, 0.020202312219202774, 0.1642403738907423, 0.07982100400768605, -0.07551532806356029, -0.05359192192007544, -0.07851279963619813, -0.0540872012273048, -0.0451451363543144, 0.02145747608121187, -0.030479624939796036, 0.05536321998966666, 0.15844283335318882, 0.16625229936635408, 0.15274684719441817, 0.12607160118502037, 0.023240292315503022, -0.00468695077940345, 0.09685246285503112, 0.23728558054306448, 0.16256803164405093, 0.030990063915431118, 0.004863314981078732, 0.012361342234091625, -0.0031667768055693444, -0.0011624985585363468, -0.0073800600156553086, 0.012961271112538952, 0.03007164445238439, -0.04465973589848151, 0.019382370295723116, 0.04485122793135094, -0.05592130824689214, -0.09920098932410518, 0.14230792739737846, 0.13890992476842243, -0.13892147779339592, -0.020702126216719314, 0.05571344501060349, -0.009696932260927247, -0.0940438339828745, 0.08700105713205822, 0.33117536429081523, 0.3589919492301922, 0.2634013893555476, 0.14174948315612085, 0.21607749054653455, 0.19165527390307252, 0.283283536126805, 0.06910479653435919, 0.00316960256880679, 0.015939118786614154, 0.0009381458695950158, 0.0025949439519680575, 0.00546902393384619, 0.018353070441945778, 0.045436152171068715, -0.02750898832154139, 0.06183503488196491, 0.15840800738820576, 0.07031381917160799, 0.12469276712168836, 0.025473623513230337, -0.19034965064482448, -0.24214629223092252, -0.0383830232353552, 0.05774727481643814, 0.30022735189519584, 0.27016673771551, 0.17953189772952133, 0.12125768287622525, 0.272201450568081, -0.03836223844650037, -0.052444253177756674, 0.07135860172283913, 0.07097992073454608, 0.15080692973754667, 0.1929634134734019, 0.04813266859454174, 0.0012686660212929688, -0.0009010872293479256, 0.00014539023828094637, 0.006646015460132318, 0.020823991688929493, 0.05387238232866928, 0.04693311938625598, 0.05984098246322111, 0.19046043055139839, 0.05336751701042629, 0.005171762218348835, -0.03256192726664822, -0.043476054931340394, -0.22887361707062318, -0.14686193532673034, 0.20883140478790022, 0.20762669841887685, 0.10362342459349223, 0.1428643445452994, 0.23715152474542048, 0.2198437173171874, 0.09044076670351682, -0.1234221236434451, 0.001816250100971827, 0.04643748571181343, 0.1831384069631001, 0.1920193255772548, 0.08341216322329162, 0.022516729057434213, 0.029362992694314468, 0.002591952862490203, 0.008578474858445128, 0.0431466721786004, 0.027341528202473347, 0.06556840318509727, -0.009442986179300157, 0.06830362657140655, -0.08806055106893783, -0.017182903344594838, 0.26509240404794315, 0.12621538556592918, -0.0036816324672249486, -0.165521314335513, 0.10911878494764281, 0.19894293571643185, 0.18699110586665968, 0.1396836564319901, 0.04826036167457041, 0.13988690676784774, -0.03804480419813626, -0.03977869029236994, 0.24738830741484277, 0.31966029068912766, 0.20292046105777975, 0.10950737242449247, 0.11619558656010946, 0.019895630452835048, 0.010938222949163976, -0.000710804473235842, 0.003248416877445866, 0.039928348989448366, 0.047453461160912605, 0.020446044227042964, 0.03876501298658623, 0.20014092445148296, 0.11641351330021993, 0.04513475666264202, 0.2247812744390697, 0.27229077652799344, 0.020461833714548513, -0.26414076998108954, -0.03438021923466105, 0.10273986732770352, -0.03746414997740515, -0.11652614104445427, 0.029168072451220266, 0.1195294582518626, -0.02804256509376899, 0.19791727695394057, 0.35139647925929596, 0.31773621174307254, 0.11135605970933289, -0.03485424889950201, -0.008635680280124852, 0.00835899070439715, 0.006167305259032649, -0.00012232218332873523, 0.005056229597997911, 0.03037883334416383, 0.0649009948352673, 0.11218239896323455, 0.10965141837407079, 0.224882958204322, 0.16089689594499298, 0.21181702703418903, 0.14166293979036548, 0.06542321108688368, 0.06823046222291057, -0.0941611100274673, -0.08764230547127615, -0.25743236796293023, -0.15954582433058367, -0.01188515900139706, -0.13593515486446592, 0.2747846760745726, 0.19318003274819875, 0.15193130569539381, 0.2755830244982647, 0.19479174391365037, 0.03105937517948071, -0.07026581891410036, -0.0320910514472346, 0.033037413212025406, 0.008872378714571432, 0.0013116403826524939, 0.0073012283310428545, 0.024766177084375066, 0.04656437999934724, 0.2223346109748697, 0.1891395478335351, 0.13523752955589124, 0.22161657971979118, 0.0777962330237638, 0.08287992409539854, 0.09042790854118961, 0.13812282579890658, 0.026185968378303618, -0.3169964209450262, -0.3599640497950168, -0.04034849130737891, 0.013165443004306573, 0.10665627601415711, 0.22088070516688182, -0.0194743031218939, 1.2001291989638884e-05, 0.08636325781616945, 0.1560447766719674, -0.013072716706760754, -0.06407066670608669, -0.024904494666868907, -0.02709749731614209, -0.02902958236054135, -0.00030754808580371585, 0.003575772098676934, 0.012668687491618216, -0.007715706135923516, 0.21402203717333537, 0.2198654813519468, -0.05722810615288267, 0.1772950492801649, 0.19216164717714887, 0.08854513888667481, 0.13282565104958216, -0.048761598561740054, 0.003694908303234528, -0.1765801401717124, -0.09788684272165685, 0.03220526751425058, 0.027429178936567822, 0.25386369348571713, 0.03665572418643859, -0.0836967956540693, -0.04318411154883193, 0.059520111715761416, 0.12269380300205539, 0.13469824609517228, -0.045869183354311394, -0.12140641679521574, -0.04173774185420038, 0.0016248467835830902, 0.0008207094263766276, 0.002989300535603568, -0.0015000848265081061, -0.04698427744815181, 0.10034324985901694, 0.06708222499943382, 0.06937791704525564, 0.17341258179060984, 0.044180294367019556, -0.08116824829954054, 0.20347146491132043, 0.00042223029557690356, -0.07251672846090697, -0.225835792981446, -0.05557463466314416, -0.06615427951829252, -0.05497175559303683, 0.08767496910825515, 0.09885328576892967, -0.17795386284880438, -0.09992401946098704, 0.018926235662181688, 0.10372217959906657, 0.1308465335587762, -0.10956694264933015, -0.24706365512833153, -0.04359230814348678, -0.004808790585981346, 0.0007484853904355146, -0.0011230366809896878, -0.01612217412630299, -0.09394144004309989, 0.04004571649109036, 0.05954602507189628, 0.06346334546369678, 0.017319245086611267, 0.22128141478314398, 0.07061046301009422, 0.09893578160520987, -0.06646514051715546, 0.004113177710475336, 0.16288239872521343, -0.18017846677201055, -0.19170828593351105, -0.104172347895098, 0.06206157962133921, -0.2004149776186462, -0.24263919414568877, -0.054557833650659034, -0.10077366667420057, -0.06731951491090232, -0.045485583101439346, -0.18229710526923507, -0.2974959449848216, -0.09806028126268189, -0.0010199146996433812, 0.0003644119226475361, 0.00048749535816247055, -0.01948139273154675, -0.14856321314496584, -0.027825331953535704, 0.08652406150471897, 0.014263384114344376, -0.060924472883088755, 0.010110204473481701, 0.18904364596989812, 0.17668920519385037, 0.28892917211243796, 0.35890145377898763, 0.32800462074455544, 0.029681373400692202, -0.1650834968401912, -0.06288803863663886, -0.06222723795057741, -0.04232981251708699, -0.09601888015372356, -0.06448398145755378, -0.14584608718302144, 0.026135186211832518, -0.014966052221520346, -0.010672767903311672, -0.1573315167968603, -0.02618604056790204, -0.0037029292111768097, -0.0011369113646031812, 0.0027993174707057573, -0.006617891903629879, -0.17806921895712502, -0.16609726891315152, 0.0035972984097862376, -0.09205525996943709, -0.027410794494945594, 0.07473197698094819, 0.0029185328815289967, 0.17673417146581782, 0.28069110950531867, 0.26586352257857065, 0.2820490333250414, -0.08866600820248757, -0.1708322828236894, -0.2816256118387338, -0.2249313424854524, -0.06829744535979816, -0.14213870674837079, -0.11714241061783505, -0.09920708160456973, -0.13257010099789188, -0.12352069478576344, -0.10049875426561251, -0.0927904423993109, 0.01239355886312073, -0.010533442537797366, 0.001188673500096588, 0.00015919087304610373, -0.007718766532690859, -0.10399238674109387, -0.21100595912509723, -0.10900063046039139, -0.008679253264300715, 0.02294444055362231, -0.022489257764397943, -0.28286702988740214, -0.09867853266806431, -0.004589072815573304, 0.2699561295351922, 0.20965295953605131, -0.11745902853604544, -0.1366683369528744, -0.26569163794757505, -0.24167175439038963, -0.12813435972379206, -0.2709027003871909, -0.2527689298824497, -0.18912366180368154, -0.3316412293111568, -0.24251026733725947, -0.025009028732403564, -0.01976553481624565, -0.017644752967917537, -0.0016784874763253947, 0.0008983395530305863, 0.0015711692852140603, -0.017494026161459172, -0.14208458480722386, -0.2310641083902745, -0.17726969856029556, -0.024133839417756254, -0.2729277178483446, -0.12801192107374723, -0.20466040083618875, -0.17506132201091493, -0.21360591475965113, -0.01153303266977694, 0.04291341843991253, -0.01874395576011635, -0.038756878822130934, -0.19471815576200033, -0.1069009764302747, -0.2384148696676394, -0.13158434324809054, -0.2892177601354015, -0.33410977973336425, -0.2923191774920048, -0.1437161632739192, 0.015104925732444149, -0.01605834604226076, -0.0074989816493902526, 0.0012770102907408386, -0.0007066721184336497, -0.001491054809100612, -0.04034224634868294, -0.10734728462684237, -0.1984459196572198, -0.11408078228363365, -0.12185361162411236, -0.27272867297354725, -0.20630092476015524, -0.09070762994203412, -0.17002231085027783, -0.19952882433815788, -0.08754832872903504, -0.20771216215374944, -0.08609500258010107, -0.0937571541889388, -0.16475385843124493, -0.2300630163260953, -0.32525360018115124, -0.2951375694805731, -0.09644116322153834, -0.0629824733191808, -0.09855428626858836, -0.05445453453367918, -0.009481780230989851, -0.005234695110068828, 7.919583897022902e-07, 0.000985867786371511, 0.001297400044076982, 0.0011722698306316781, -0.012363931430363214, -0.05111701924525393, -0.12616176844464103, -0.05316257008502916, -0.07491064654142844, -0.09543093707097815, -0.033795528027278164, -0.02084416921396242, -0.18735107793114125, -0.01847575752644272, 0.09374249901218648, -0.050599685702636364, 0.058577448982731775, 0.09144837027435125, 0.04437136639755186, 0.023526938512795578, -0.13697263360033268, -0.11557944116184235, -0.1767082690492389, -0.10318579766950038, -0.023635374279851247, 0.006861737358857827, -0.019493753796687493, -0.01839820565241283, -0.001504969533956137, -0.001235047426178141, -0.0005458740163905892, 0.0004617499783908673, -0.01967792732233341, -0.04550384811606589, -0.10383540814290275, -0.07492671306864587, 0.03096727339142654, 0.02929253346633097, -0.037049852663744075, -0.019497410824587922, -0.08849080675049238, 0.16246861371762208, 0.17456678580866536, 0.19623419669448094, 0.331405938581243, 0.21395201449844298, 0.2147183230004182, 0.16979687397947968, -0.20170925638087508, -0.05913986983206226, -0.05986169817284122, -0.092203710582151, -0.13602684266842546, -0.05496878102023563, -0.0171358562667849, -0.025978598659542523, -0.0028663808050064838, -0.0006326824337300369, 0.0023774079540182856, -0.002606553878044611, 0.009462883852736295, 0.001717294911478016, -0.005785007833212559, 0.020399249664031543, 0.013040522351603622, 0.03824108117850711, 0.07932232946439575, 0.08000320411094324, 0.05483227568726314, -0.019324118735522387, 0.051129216453463674, 0.2560115681731777, 0.20469555213387036, 0.2279132424283857, 0.21665395045459637, 0.34831376282818655, 0.11752984934143094, 0.09462908233264876, 0.10998311382716373, 0.055703305821388674, -0.019361530476172208, -0.022289851701650754, -0.017096458823510814, -0.008603422133733336, -0.003976225123649129, 0.0007224669302788226, -0.0005941134722448329, 0.0013077078199650097, -0.0038143195857705983, 0.007902094439141909, 0.017471378632506248, -0.03814367986619194, -0.07667716487747046, -0.03890011710244608, 0.033253094577402637, 0.11467887602797446, 0.009065089449900988, 0.03693063283759549, 0.005327099076579361, -0.01941130078070868, -0.08411404835037273, -0.04098521482806728, 0.09316765566932217, 0.145097709918326, 0.1519746503296974, 0.12924691349350456, 0.12389214217617288, 0.10481775114326228, 0.04928285752682456, 0.022972677278615787, 0.004176603180134982, -0.0021204004613085553, -0.0010426454749715708, 0.0005380118428101364, 0.0012121624677823766, -0.0006833369662443071, -0.0007526380437256854, -6.54653128701419e-06, -0.0005855516647681864, -0.019302720104065686, -0.01761627703327698, 0.016229603425672715, 0.02562500972959482, 0.06545924121077151, -0.006398005020606131, -0.005021601531696067, 0.016227551836730466, 0.024437378313120314, 0.05283944665491209, 0.0696450567460223, 0.06114353223673888, 0.051563564458795556, 0.07267997059060878, 0.09705227772967265, 0.055852524381609966, 0.043953872651197184, 0.019177893853543872, -0.0013265652807797025, 0.0017844376947075222, -0.00020314807863961736, -0.004655515200064177, -0.0005978516271187007, 0.0015032651841816534, -0.0016615847675052447, -6.318597447349776e-05, 0.0003347342674721615, 0.0017915782862110879, -0.00014892823724531323, -0.0025015631685997965, -0.004182938120978599, 0.001237933156790341, 0.003473543244648185, 0.020876131919871668, 0.009172247360967443, 0.007235002462413057, 0.005643869100542349, -0.005080135506719604, -0.0032068516013555692, 0.017827213383901787, 0.01786281286185589, 0.014972968526757634, 0.027731532666586622, 0.02460599473956213, 0.02219505846245994, 0.011793121270877727, 0.0004131795158411265, -0.0006947607044932872, -0.0005022440397389543, -0.0005398101225052354, 0.0026948391731792315], [-0.003380197692204241, -0.0011776536717331505, 0.0005216625708468359, 0.00010115338561185432, 0.00016789090114675516, -0.002386030316545618, 0.0020115225939379864, 0.0011405728998863066, 0.0026180612976517414, -0.0005839983181179657, -0.0011470080416471505, -0.0017402370678237188, -0.0010541912481724374, -0.0020338304458648, 0.0005840346074574903, -0.0009017750967193472, -0.00352088545361734, 0.0007553040545585214, 0.0034383838715520325, -0.0028025260746541883, 0.0018918172128873393, 0.0028255256385341957, -0.0004537257368095947, 0.001334647687378152, 0.0015112078943870092, -0.002649534873348477, -0.004554227643676607, 0.0010681235869326646, -0.0026974669214820056, -0.000762312132889767, -0.0015038636334900632, -0.0006355273024508214, -0.0012224432290714488, 0.001968462081166448, -3.3423320653669675e-05, 0.0018839889618404695, -0.0006017739395790464, -7.757002075428243e-05, 0.0019215903177544034, -0.004210107599907112, -0.001563173171298341, -0.0008218503779343329, -0.002321266678992843, 0.0025700217545411626, 0.005957358657019116, 0.001613418015214025, -0.002146724715456791, 0.0012400104201997846, 0.0004351862130668818, 0.00025514918515444297, 0.0010714518499501014, 2.5668943528357857e-05, -0.0013791230950161658, 0.0019029539409216722, 0.002403823616648366, -0.0005892012017833345, -0.00142015882984026, 0.0007681967155369329, -0.000317116310690366, -0.0005048067393989768, 0.0007961273717054858, 0.0010250311025288166, -0.00022405486029339667, -0.0014030554853355244, 0.00018891783802482432, 0.0017034005583690573, 0.009675768406173513, 0.004118396179101741, -1.168342691225105e-05, -0.03128735874680842, -0.029068980993636258, -0.11378828930723053, -0.10455278857889497, -0.054419003751001116, -0.04230281438398587, -0.05712028759365693, -0.020981178617965092, -0.006539539445881596, -0.0001711276204385195, -0.0012111938453143885, -0.002850634142891864, 0.0015208322868825396, 0.0013794352444980091, -0.0008348117125476515, 0.0028016877850373036, -0.0006575069518619565, 0.002326760291302645, -0.0004925613565547756, -0.002069358818740553, -0.0014554050328610543, -0.0005597900620810593, 0.002446276595602745, 0.004684779707492697, 0.05947427276374698, 0.05325418356386479, 0.04003812228570063, 0.05260131156922091, 0.027335795721559357, 0.001708061963547993, -0.06323594261623526, -0.05482328054751562, -0.040159382327408066, -0.1612959779046576, -0.09291722615885625, -0.041383578716577406, -0.0467296013514167, -0.039788202332651325, -0.011641679847462687, -0.007268845381281581, 0.0037626241205536274, 0.0021684998304627515, -0.0007127811374579011, 0.0016535135830562727, 0.001656780837235116, -0.0017963525387040082, 0.0016592219050115197, -0.005049109789195149, 0.02134513269828197, 0.05574702004135739, 0.0389928479251123, 0.03218807714182139, 0.1330550437466368, 0.14616503688869584, 0.21068463130332027, 0.03901255697863809, -0.05052240539342739, -0.03299498315942165, 0.0999543819883116, -0.07042892090035265, 0.014022625822394575, -0.07419624097784804, -0.10394299138353523, -0.09320641368925035, -0.08933027787408304, -0.04349813988197248, -0.040272060701274905, -0.048009191553554514, -0.017785178425179772, 0.0020778683054989327, -0.004726870184304382, 0.0012197052242094706, 0.0028072236151215437, 0.00012563476368463976, 0.004124200501181061, 0.00530986302738095, 0.06722728548150508, 0.1331385787128099, 0.11295264429954009, 0.16489025254271414, 0.21216366517528343, 0.2619845284021814, 0.09669825587943554, 0.010267209973537087, 0.09999187966643489, 0.19777056824152434, 0.09837550543199125, 0.001634369968873246, -0.12465502029778128, -0.006750325181197751, -0.14337008439325172, -0.063018362940308, 0.0775259599037487, -0.019597728690999558, -0.025128901866506702, -0.05738094755265627, 0.009706144747216256, -0.01173944700886311, -0.004398503933857921, 0.0020632946124257267, 0.0017864243511229944, -0.0043336129336605505, -0.0037730616264216406, -0.001023465878039042, 0.09011565884782904, 0.18838894687189225, 0.20910380889823857, 0.2059865005943677, 0.23253211140583757, 0.3753054688549165, 0.37745045207089745, 0.3999703023575136, 0.15853044743804215, 0.09765903269174697, -0.019585912021405975, -0.0055924602375583, -0.04290369352536973, 0.09502984346022383, -0.015505377744840098, -0.15544128595634019, 0.049472856055191444, -0.040295504709175846, -0.10598763856710226, -0.06066766280191052, -0.03525907758129972, -0.0049224112219741455, 0.0005463702867666255, -9.286298627890454e-05, 0.004757712303540056, 0.009492067485288597, 0.011071633063850962, -0.038847856844465324, -0.04414617563325022, 0.11406470500422906, 0.09270242690069176, 0.10307546960406755, 0.1784978235597494, 0.29406238458521755, 0.45552033504411965, 0.3615325029520115, 0.32087933255552076, 0.026232242617211937, 0.014556559404797196, 0.1476917633574107, 0.21591602203476962, 0.4030686583521183, 0.2660374854552006, 0.09076112636340466, 0.17016508611945608, 0.07431347780111099, 0.015379860764136697, -0.01302116166545572, -0.0392059844990665, -0.024154358970580717, -0.0014076185854641529, 0.0003667058823170682, 0.003244844600692548, 0.014451151585599304, -0.030051068751696414, -0.09034022763341328, -0.10279137715325899, -0.06995249110947052, 0.004259655477663196, 0.18387032993202582, 0.17775545320174876, 0.3876918671059691, 0.3467279686532386, 0.5612946454310632, 0.40797374713495904, 0.51333981039377, 0.31650692663105984, 0.17030769092099404, 0.12778701045312132, 0.15802645247767005, 0.07717636637683134, 0.04399346862974248, -0.013412590700789654, 0.15790372881794992, 0.09526869415201475, -0.025677601892139416, -0.05076388357742716, -0.012702920814901394, -0.002313335768587372, -0.0038665618914526445, 0.003681608210771876, -0.016105667356597048, -0.09542648915728223, -0.06291530343974203, -0.11545036714830671, -0.23255046356481912, -0.08449545057024128, -0.010463458836886591, -0.07019566221226452, 0.06479325324233282, 0.05230699236575397, 0.27504260171265243, 0.4522584978849295, 0.6952395768220575, 0.4152765697093843, 0.28599972532844464, 0.2198540729953146, -0.008698805750681429, 0.17428893235870363, -0.09904832812004843, -0.16901896753921297, 0.0725940163184753, -0.01073613123866279, -0.051329387680367655, -0.05282500239823794, -0.02601399553530637, 0.02043082630228188, -0.001849307225191548, 0.0013887627739599187, 0.009466291236336752, -0.08828154159638413, -0.12206103688639729, -0.15798242911185412, -0.20123175276255653, -0.328185803895735, -0.26502130504107235, -0.19895361036822817, -0.07957816156835014, -0.024524847260716697, -0.046398160004353386, 0.3899718078527309, 0.4636019117902474, 0.36694241735577854, 0.33307290545112755, 0.20813481513356533, -0.044870774780671176, 0.032856424491668, 0.016680864967125526, -0.03617980739623676, 0.025086164243937056, -0.13570969051225854, -0.05769131794239323, -0.019772331225891886, -0.00312914092599539, 0.006157566842582003, 0.004106989213836284, 0.0007096262695823844, 0.005880711930963847, -0.062167996607793326, -0.16295943773488758, -0.26037508461148945, -0.19821565606794359, -0.41177875467402103, -0.4278272528445462, -0.2756176000181346, -0.42854798699704477, -0.19643133807886545, -0.3295087750031689, -0.33611318480353863, -0.39129945108506864, -0.09439537725233106, -0.033393118704322426, -0.03439915446948734, -0.039692909123622305, -0.12953179685257724, 0.11333129171416138, 0.06369645755769983, -0.07113706365352537, -0.12892737926192432, -0.007806598267050095, 0.006687004182062921, -0.002994559667236775, -0.0041280503365352435, -0.0010520389581436412, 0.0011568503488225343, 0.004887896559044758, -0.06627963934661164, -0.20613494488695483, -0.3162562465062145, -0.1622753041083228, -0.2837057265252742, -0.20805896775762361, -0.29448370570931626, -0.3651710949352213, -0.2795774133333073, -0.10700093309061283, -0.47627490252829074, -0.7222298911869108, -0.3692944152380801, -0.18594144745652139, 0.0078280327788435, 0.09215111883123119, -0.21759501291012026, -0.09327873302357664, -0.013623265510852944, -0.10483075674253765, -0.1792180780499437, 0.016661884589680914, 0.029003681543114414, -0.004614828445851649, 0.0008701838525318926, -0.0005365497397629052, 0.003849702079950101, 0.02147235296484978, -0.04792651607473248, -0.2790270243721566, -0.2778903794522469, -0.1541376871673666, -0.1661952809397349, -0.028245992866840996, -0.1362648990239135, -0.09578445463325139, -0.1423523188321893, -0.331801085437017, -0.39322262011747633, -0.5371036673568875, -0.3989662849516949, -0.06673609819365524, 0.12240577063655952, 0.06454780318148748, -0.18163356324663904, -0.19206241505307167, -0.1657728544183212, -0.09495765115746593, -0.05680721640217134, 0.025920325553369122, 0.029154089529405965, 0.007313175579807494, 0.0018771749884162932, -0.0014320753315267985, -0.001213061638985585, 0.019350489118714776, -0.052827785748654064, -0.15723347889127007, -0.07973704954247864, -0.09357026913233465, 0.0653938833069464, -0.05782153704768228, -0.07114095244981915, -0.028498979988937845, -0.11239127817866691, -0.18470726117134653, -0.2744540798335174, -0.3985704088701107, -0.26231334275713936, -0.18785830028000547, -0.18732367429496125, 0.05156014118516678, -0.04274696502014609, -0.20658043466073228, -0.15452099201702205, -0.05305438495949647, 0.040184398983238175, 0.08577641144403349, 0.05470197432319029, 0.01759395536435821, -0.002571848208652127, -0.001915487903433642, -0.005319076248401268, 0.002425524816568628, -0.04504139840696022, -0.02627171560601091, -0.013373056868090592, 0.08351698600324313, 0.11121017940353324, -0.23008100652020166, -0.23256708909254153, -0.05800235930800337, -0.12204092594257235, -0.18175358701978284, -0.3009807224157302, -0.4415690407204392, -0.1901870942540499, -0.30056660445666245, -0.19029664010342728, -0.10915594345404951, -0.19204046702875105, -0.13663743597641143, 0.07136897589323632, -0.07245344919926631, -0.021502850115818317, 0.09674494597629989, 0.014834321071639, 0.03243088347639183, -7.601075442355133e-06, -0.001542278918606325, -0.0007716620960443138, -0.007336018664541441, -0.05922140703471709, -0.030814734658389648, 0.008790325589022369, 0.05010876361529138, 0.035826107803897764, -0.09819754594029807, -0.06578867891036642, 0.0731322649335858, -0.2715274955643781, -0.14073910207979987, -0.08695347366664358, -0.28594621343111243, -0.21317225142691945, -0.22458240052908457, -0.29271519041377353, -0.3304921456343582, 0.043633036727635584, 0.08063810262532739, 0.1510159504994399, -0.018726494899607708, -0.02954180947149246, 0.05548360792627251, -0.005351743849772043, 0.02535912926905044, 0.00212324827025682, 0.0027090810155970587, -0.0007169339189320682, -0.006677327241036479, -0.056844401623745856, 0.013015777063933025, 0.09275102672188462, -0.07535975090121952, -0.2366091247886451, -0.06029194170254979, -0.08107361597467651, 0.019570113343949737, 0.023263809552056074, -0.051758034728846165, -0.13715635610305216, -0.32618784776372906, -0.40775298251189884, -0.3374980380971419, -0.10342576546022515, -0.17731947180666366, -0.10567266754078229, 0.0713307920456696, 0.13797051637226906, 0.03209381277205407, 0.09054116846813555, 0.073704519324004, 0.0770331103937074, 0.030358012249362798, 0.0010001037762534656, -0.0008118776891884589, -0.0010959927987409226, -0.006615879371675488, -0.021659057527887184, 0.01931234680087368, 0.04117025447549611, -0.09945701926692364, -0.12180692979891777, 0.05708375727492809, -0.015158743980232843, 0.01546978268938427, -0.06087267681184467, 0.1012273976151769, -0.1125316563607866, -0.2680851333704842, -0.2951682930137532, -0.24860665732515444, 0.048513381171481657, 0.01174930794454963, -0.16966689915207567, -0.04907200414117023, 0.1433130554839328, 0.18775949820696577, 0.1089910395366802, 0.011594161481249431, 0.07171559771585576, 0.02704292843550771, 0.004092465070027261, 0.00012575534349366032, 0.0013535324226210269, -0.0011613229573167576, 0.003385750917340634, 0.019634813625381154, -0.060771335833465806, -0.08348833474522048, -0.2723240542254612, -0.2009534468345313, -0.2577167671668395, -0.07889980734678843, -0.2055010157630377, 0.08487676190127702, 0.04676146783965893, 0.1284968177612961, -0.09857647084772427, -0.19475663231906262, -0.027437337802282337, -0.16662848236705313, -0.1812024165459601, 0.05605043670897754, 0.0801470265743169, 0.09271309672358237, -0.05353139738068527, -0.04299826008040064, 0.04065077109357575, 0.008299808913522383, -7.748701878275721e-07, 0.0036459660400732247, 0.0008342828575638345, 0.0042329206269909785, 0.02342871581444432, 0.024287529567937966, -0.08008838410731703, -0.19749375750760048, -0.09518840614896905, 0.039317920414707254, -0.04581748241006667, -0.15697206568850214, -0.1205339313086056, 0.1459077506951149, 0.31690722999416576, 0.18422739676268823, 0.268865377321426, 0.09503596978038363, -0.014192650930201911, -0.12056546891986107, -0.09444443181180742, -0.04005211570403888, 0.022067092588678863, -0.03620009345961373, -0.04921237797987098, -0.05826696344467168, -0.00100133101140413, 0.005524842583914392, -0.0013909787232662654, 0.002310088582568378, 0.0032146181302509184, 0.001164763923096004, 0.006449545304870838, 0.040077445856061, -0.08469544927988538, -0.061069463240854105, 0.0793212423547447, 0.21674230439517184, 0.1907015152448083, 0.17467644551130163, 0.22816091908955619, 0.25783611141874857, 0.0638776897826696, 0.24896165289602276, 0.3039923207993474, 0.29322148305525936, 0.09942825246046873, 0.07254676867938388, -0.0817402725296391, -0.12563758842676004, -0.06860099043833856, -0.04764459497742096, 0.016077497395735215, 0.0016483056312050163, 0.029346823923495864, 0.010270490167291339, -0.0020310587664068435, -0.000755162556510158, -0.002048000569387068, 0.000559706626382811, -0.030583843453956424, 0.03170848242796527, 0.07028336905689096, 0.1166299580065993, 0.1586778718778487, 0.1539547625365997, 0.25656497798060773, 0.15496775722330625, 0.036589392700704264, 0.28296500880300357, 0.10614446270826691, 0.1954447378206102, 0.265600304521543, 0.16766401641538717, 0.07649964573842981, -0.1721302293687863, -0.18609396085900282, -0.14642308743743163, -0.08953227715112691, -0.02363555418916989, -0.026405452756050166, -0.01646437930412738, 0.02608037590567998, 0.00026798499729922365, 0.0015742068076637636, 0.000888496591077057, 0.0009384574053222485, -0.005195206848984708, -0.01281156309010002, 0.024664976808826445, 0.037980235601242314, 0.21524531396963112, 0.21894563380343754, -0.04021302457800592, 0.13345805255608803, 0.2556634607976343, 0.384572242385075, 0.17309965145918768, 0.07001754991172873, 0.11437900657273932, 0.03338817478107521, 0.018174022970891265, -0.0939966341221055, -0.2066145977487303, -0.13297061877220803, -0.07725630897478923, -0.05714343223930223, -0.069268176324982, -0.06348093565348571, -0.03673750664267987, 0.010339939281898079, 0.0014621007320720877, 0.0016421669154876547, -0.0010911298777886709, -0.0006525490312313046, -0.0006987472438977245, 0.0007903588161543552, 0.03061255520959094, 0.14540583454180364, 0.2403128433946346, 0.26153877688155885, 0.1498752359471363, -0.028165761895522678, -0.12612550326017233, 0.015294783417961385, -0.08292016089853005, 0.1476727149137692, 0.19131801980944022, 0.025029116367882857, -0.21981844220751207, 0.009757342181267914, 0.01516657599989485, -0.057045275622254844, -0.06527527062020952, -0.0722785022054725, -0.0721386205967553, -0.041366513179188075, 0.012570553201646736, 0.0003283465327455267, 0.0018811969825791117, -0.0029638927218833258, -0.0010661732901522559, -0.0019251905537848372, -0.004506410517216462, 0.010142950623995048, 0.08859202853002406, 0.08192865966238994, 0.09109337810095645, 0.12376937318164508, 0.031293551958451425, -0.006487847115586945, 0.08442760891607533, 0.16389941173208872, 0.09543527258623882, -0.038085494930239196, -0.11258647078084452, -0.08729086499292397, -0.040831484066699265, 0.061374985650558364, 0.08114743199948792, -0.012435473514951577, -0.04021008909365067, -0.08453165454136978, -0.05435747337012091, -0.005174854141160461, 0.001046616181589022, 0.0006486557309676716, 0.00031883937221436476, 0.001934156451448672, 0.00040162656640462837, -6.499964695322873e-05, -0.0002950014425290771, -0.0018383272620617996, -0.012296180431537719, -0.03315283841329601, -0.04619441023372772, -0.02450671683085744, -0.014211059511183097, 0.00829011808478835, 0.0750450564268417, 0.04642767196682369, -0.038075900824387686, -0.01799757025987532, -0.028431010537961737, 0.03087498279388199, -0.022978480053833975, -0.09081174155022395, -0.049300369182160006, 0.07702331282232362, 0.019863933299239602, 0.005677563980272922, -0.0079661609722025, -0.0036147604971943498, -0.0031455569247346602, 0.0030827477207627696, 0.00019527422448565012, 0.000597518812094767, -0.0003225633382857089, -0.000447968370898608, -0.00013488596183374287, -9.397770449432527e-05, -0.0025108428523694507, -0.0007983950544496867, 0.0032628778927597194, 0.002440847264926083, 0.0040387834797467005, 0.0053705716515455824, 0.003810773088525103, -0.007933148885427342, -0.006467473102699967, 0.021061739592023135, -0.008956521789173222, -0.028472326584002516, 0.013535021826443996, 0.013533389845605781, -0.03885677287022829, 0.005001275103715075, -0.0022482184916453, -0.007281509629509353, -0.005208535837631111, -0.0003233359611136393, 0.001966874855508593, 0.003443783544468603, 0.0023482312803797564, 0.0011111511955462017], [-0.000664340953273101, -0.0013850840985399266, 0.002730578718908306, -0.00047646075901145596, 0.0007998299212487208, 0.002737533102301374, -0.0027418229733685534, 0.0006310870407499769, 0.0023321865454727485, -0.0006312406512977557, -0.0031307115339711876, 0.001954294023942961, -0.003135162167670186, 0.0013793440879056149, -0.004260223931502309, -0.00020395022680340068, 0.002093183455173397, 0.00015372749810292256, -0.00042821793855973264, 0.0011853837831192024, -0.0019291696675435863, -0.0024118704293301153, -0.0003817766164276946, -0.0019180657579553361, 0.0026218823133120884, 0.0005010351821877384, 0.001756098200935314, 8.02523482896929e-05, -0.0015559585583773208, 0.0012150070169960538, 0.0018029866016848234, 0.0014701951722722703, 0.000448279132372495, -0.0008152510206636915, 0.0004483848417803134, -0.0018932414048285094, 0.0015834309860314661, -0.0027790449303493297, -0.0006590853663699522, -0.002146332943970963, -0.00307370861021316, -0.00264928983370134, 0.014422539734885508, 0.021951320770633335, -0.02589409506910682, -0.00861960420624292, 0.001494686824030439, -0.0018448424118603771, -0.00028579059046347966, 0.0005212300340204642, -0.001811534620771194, 0.00013484551851572474, 0.0006295215198915883, -0.0001437008015772746, -0.001712919224690966, -0.0011220178210657806, 0.0007604666326734746, 0.0026574757843335272, 0.0013916441835164293, -0.0015432331995738936, -0.0019264193291631585, 0.0006861919566826478, 0.001018355961079775, -0.006340890986530757, -0.012113094886269852, -0.021926268161352295, -0.04404586711907745, -0.06512124390620556, -0.046519834211999816, 0.01396956887000291, -0.011379616105926598, 0.15210725064487, 0.07967706199761387, -0.026424737993981116, -0.01329676739716525, -0.006455450278560315, 0.0003289496477760137, -0.002804088066100623, -0.0010188807230049487, -0.0006145010585480957, 0.0016677951490202201, -0.0019086933645370095, 0.0003506718517873348, -0.0036713821360203043, -3.2329669811542224e-06, -0.0005283849586943, 0.004980573504244696, -0.005235859861870784, -0.0005955677550485216, 0.003336521623230789, -0.002780027646286787, 0.0048508659612562935, -0.044195850739355835, -0.10452664702967739, -0.06400444909389441, -0.12009081198463024, -0.01695338037837547, 0.01720487424338557, -0.11553188816616392, -0.07397704947036655, -0.010334586077412194, 0.0917372919137388, 0.1310674706791244, 0.03219124805425306, 0.01794453461492158, 0.003645195766723775, 0.032938827149898195, 0.03676473071961277, -0.007570208660747525, -0.0064646024643345, -0.013659219929512929, -0.00021766127910269125, -0.0005188319712536237, 0.0009710478352425519, 0.0026439185877784118, -0.0018755961131301634, -0.0015784379028716303, -0.006009981210049499, -0.01424315653127049, -0.03575515987748498, -0.015404400554346913, -0.08835850247828626, -0.1423076080647472, -0.09823250633597166, -0.026763968661024228, 0.1402322871489427, 0.0005155952808492584, -0.0351696632055897, 0.09683877427347462, 0.08447205332171706, 0.08669592103069565, 0.013211142710971074, 0.024325499047625775, 0.003282067823028779, 0.07415023993155449, 0.03554205439334984, -0.00227692608632739, 0.00837569215098924, 0.004333221910067739, -0.010043582535272317, 3.329698600973742e-05, 0.000852545069020371, 0.003610555216971358, 0.0018389270354240354, 0.03265435924379494, 0.11316089289685562, 0.10177408294428752, 0.08436386368337931, 0.059747666101745665, 0.12130974428898912, 0.09815808455727613, 0.06379074279062329, -0.027425826215066784, 0.17491329515211387, -0.016085783433936494, 0.17796315778753183, 0.06518906770699184, 0.0692092126550312, -0.03377583735761004, 0.007370188430008268, -0.08181148074168684, -0.05835445346550305, -0.0027301456564606534, -0.07009100947891138, -0.02868317274587703, -0.0004176441745306126, -0.031622027876391415, -0.01670764654446957, -0.00012942793244962011, -0.0019981168453441505, 0.0003193634564315275, 0.0060433137608115065, 0.006844443675525184, 0.03915032594704946, 0.1300031875623038, 0.16625623644382745, 0.17830507147891822, 0.24949395839867441, 0.4627472498010076, 0.36992414649129024, 0.3092592614967706, 0.3036312283191859, 0.13818169473646055, 0.05241360682221201, -0.1549232517925641, 0.051488285505135276, 0.27200988710216484, 0.17417915498704123, 0.3437806760940824, 0.19544891559401284, 0.06428915777719595, 0.017155226625448654, -0.0477157808438167, 0.04002734520148071, -0.007247299120811015, 0.0013770969184634734, -0.0003393152748794009, -0.0034789524231812795, -0.0039007163972731925, 0.008857433403898161, 0.0015985988513133873, 0.012044637099748956, 0.09645166565030451, 0.13723240458351388, 0.04188367100429874, 0.12547339551176837, 0.4965088885750471, 0.32776575660954527, 0.34197041099309894, 0.15765143981240154, 0.01906425531301971, 0.15181874145555033, -0.00834753912518846, 0.06120415434284382, 0.23741147955096903, 0.3650506191001811, 0.2963576948018466, 0.21926341475203187, 0.08626162558680785, 0.05771984914770502, -0.059747641288845285, -0.01293394150687344, -0.012653489909733957, -0.004816966577575934, 0.0008551811396848115, -0.00031577457914029643, 0.0018252887898560287, 0.01564541788773161, 0.03241282943082332, 0.003835889790551525, 0.08071560614973682, 0.0921215611613683, 0.07807591653147528, 0.14063581306279122, 0.07932069097352697, 0.30467900559084493, 0.3996593096648164, 0.2122404632853784, 0.03413141463791786, -0.10071202862632225, 0.049857665224348084, 0.11716215980342655, 0.23795169791853255, 0.28425175019846016, -0.04326015406132359, 0.00913827427767681, 0.20644488886558768, 0.07992707671794652, 0.005306694799815875, 0.03504838424567514, 0.01946853460517078, 0.0019582685918352, -0.0005567743354414947, -0.00817474491123684, -0.005721724541314001, 0.014307993187642792, 0.053377367612706186, 0.06856810641432443, 0.2190468365624148, 0.1965060625125609, 0.035908996771145604, 0.12855361052463493, 0.018416470229511178, 0.17044203213121062, 0.27056138531220375, 0.15460728967286733, 0.11544898307288091, -0.06014532367376995, -0.07709577247486712, 0.11102229749340127, 0.23284158208240846, 0.10481762846240497, -0.06738539799942837, -0.07465251624916591, 0.15347710684751376, 0.12502039392509479, 0.0697115617050403, 0.06288233694786567, 0.009928706431446275, -0.015606842854569385, -0.0015680687814925679, -0.0024941316257485586, -0.014731778577991754, -0.018678789749974955, 0.15043033601208403, 0.06285884352031393, 0.16870490010139724, -0.036339605415286906, -0.04672566378480899, 0.042192534169390325, 0.1010423374975803, 0.21473561660508744, 0.10739458615953912, 0.13929144514360428, 0.11569840419090706, -0.16009820885580023, 0.12776177044004594, 0.0360911922943776, 0.09180904691965863, 0.0678086026564586, -0.029337451608428357, -0.02502235948603366, -0.01992700618939039, 0.08148610159438356, -0.05791322258865606, -0.02541941035832234, -0.011272933258040406, 0.003893360203199806, 0.002869342530943833, 0.0014480309369315084, -0.0097128061986605, -0.023942655053747756, 0.16974775519352872, 0.02244851301755089, 0.0046438175719798955, -0.009591469513972037, -0.09737274939961263, 0.09079053200519506, 0.17445051554746518, 0.18066388542692471, 0.015228601712944243, 0.029264799814212657, 0.13563796951521057, 0.08481362523165815, -0.007774057352239397, 0.049539223546982224, 0.025072091613829263, -0.13520262279012238, -0.003460746198624852, -0.027915358967068916, 0.00020666231273462816, 0.11684597597377429, 0.019139648378002146, 0.011441882458921814, 0.03565619110874746, 0.004320127468516068, 0.001199717317617005, 0.0019709705918824643, -0.0045132603131627855, -0.03084373407091617, 0.24215201737219044, 0.1292514217151375, 0.051883405686606446, 0.07934140775005763, -0.08961156993679623, 0.14932669193676473, -0.12352592020029253, -0.11453707130572974, -0.2979803533153523, -0.3272511010411983, -0.1321846601627076, 0.1293793341203459, -0.013955944917853503, 0.10471152251403748, -0.042719036061682494, -0.12079104210303773, 0.016197769092745003, 0.024667198246650472, -0.007109872341082282, 0.20249155120518936, -0.07770666649326961, -0.04528591802212132, 0.009630605006577182, 0.0021890112655386772, -0.00032470370161825777, 0.0006133610927085554, -0.0036904804132933985, -0.030453210500779693, 0.15040073004882623, -0.013807175649964422, -0.12804869357199283, 0.03681676837599334, 0.07087579433114224, 0.18309526526796607, -0.33990427813733826, -0.3064609907043094, -0.45083233933876227, -0.22077582785981453, 0.22612938373406033, 0.11537389089106041, -0.010073465913251178, -0.09901888358043762, -0.13777753001519857, 0.18818243013529148, 0.13556486616915112, 0.09326523643791443, 0.016782695623262785, -0.16728756011779272, -0.20844863619553142, -0.03791721504811271, -0.005720118192157608, -0.005917839257414579, -0.004008397019210144, -0.0028380616054492444, -0.0035126040341571674, -0.024896811841115644, 0.0022605236137112758, -0.1583986997540618, -0.23932032716820062, -0.13773272213057874, 0.08637956434068099, -0.04285833556677757, -0.19142830792383178, -0.27863186387544436, -0.3875986619642199, 4.055789486170691e-05, 0.390783865360643, 0.11923406014393433, -0.005420543167008042, -0.11370970683044676, -0.05413917296431553, 0.21766423899236745, 0.06617334652712263, 0.022534502263898287, -0.10402349508103148, -0.23161252644463687, -0.23182453132847147, -0.056693703376181424, -0.014490909193221482, -0.0005706979620013376, 2.907420482098361e-05, -0.004348102756020903, -0.00193939086838322, -0.04763321084260719, -0.08067561639702443, -0.12300271058083057, -0.22168876368520746, -0.09691623445572652, 0.11148140113609283, -0.13894692964879016, -0.10837588785473418, -0.04314159577884038, -0.2107154653158796, 0.1584817464389747, 0.15747599562549028, -0.014935686032895518, 0.0003784780897472511, -0.30440273873420787, -0.17825045613037926, -0.21913137592626053, -0.03570635906456292, -0.019836597470186134, -0.14382326277971627, -0.18924403237241524, -0.20464269418613545, -0.11479825063264962, -0.01922484642047025, -0.0026119653397260645, -0.0002327353589045305, -0.0025300864044458977, 0.0014163814789905354, -0.057082670899780356, -0.09353090432966998, -0.023106959082882867, 0.06877674122944075, -0.08310414512500654, 0.03398857121331401, 0.030115936131242284, -0.04222023494464678, -0.026535575777366045, 0.013283669109471463, 0.07578304864659305, 0.014404665728996749, -0.4054085099381068, -0.21022252242041006, -0.46128496240285505, -0.4533823386527056, -0.34292440198482244, -0.2390275650553921, -0.16292092766008598, -0.13178404147780856, -0.17531557223996927, -0.08013156604403845, -0.11483930018754561, -0.02997326487940469, -0.0022683177210053077, 0.005660917897861636, 0.000743739571265643, 0.0039279088376190366, -0.059150188118909985, -0.18538909511173912, -0.15906306288817135, 0.08912728830397385, 0.02618540842938293, -0.058646129447060526, -0.017930349128317005, -0.002830342501730715, -0.11659786214004751, 0.1535203210879448, 0.0035072109630566745, 0.008861190065966945, -0.2251660170169646, -0.3074409166791133, -0.39262093930355785, -0.3613183052106509, -0.09476420261517768, -0.11813456209666297, -0.19387068915272404, -0.04313536037931814, 0.04466778567169899, 0.14855876476103777, -0.028948213390316304, -0.00018577615921160692, -0.0027771362540050903, -0.0027848514849634918, -0.0011225542454292607, 0.007763354686753161, -0.0908934261119092, -0.26488946732582824, -0.3015170632127929, -0.11979975042291326, -0.02912388727823106, -0.09399561760214781, 0.051583822845113925, 0.04926172823966318, 0.02928809634422504, 0.08916913676647707, -0.028998363844273848, -0.10006077344655322, -0.22026726927726514, -0.4074701377159177, -0.24554218396581176, -0.16843297798868814, 0.02108920010152891, 0.0732191768896603, -0.12258062326971615, -0.12397032260823476, 0.0036379691197478115, 0.06915722779534184, 0.015486961319870367, 0.009358261911649277, -0.0006735162156319711, -0.0004168800431935898, -0.001023772398609918, -0.006934753683605141, -0.11415193988562483, -0.2581412795104773, -0.38126025981389905, -0.17298134034377283, 0.03607394981886416, 0.0614734621174773, 0.0060679770906687846, -0.004697128287764984, 0.04221765921655586, 0.022536914824301604, 0.11941361914174328, -0.20756269780956277, -0.3677560698208375, -0.3577335955398679, -0.24426397271678105, -0.0938990566977068, 0.25469496686060256, 0.11878739758892667, 0.027068979988720637, -0.040995382572454844, 0.1204004572473234, 0.1508923538416167, 0.04306277565199431, -0.005764775474397098, -0.004965389899240472, -0.0008694786024428794, -2.660817846203213e-05, -0.021374015033035754, -0.13277281737789634, -0.15689294868438675, -0.21763950231900916, 0.0029926876123196446, -0.05086425172537547, -0.09062482924574615, 0.09267275998852216, -0.043340606591708984, -0.1653520305206651, -0.08177327947488246, 0.06637021071223059, 0.11181819598749725, -0.0164666099258068, -0.1009364585027013, -0.05373691720686085, 0.1043282337075587, 0.31794541221912687, 0.19743950885138054, 0.06692436532435578, 0.09372916143649158, 0.2558449860768881, 0.2450269084516253, 0.0705855890034016, -0.0032959000083921794, -0.001014922487084908, -0.0021836380344776056, -0.0005090568702312929, -0.03260361336899104, -0.08182564117438883, -0.06712122003520872, -0.13392279842281077, -0.0429305764875669, -0.07323766316941199, -0.01848388904036933, 0.0341925537908366, -0.006412829110082612, -0.15037321250571759, -0.0972339317345458, 0.007427059187352703, 0.22007082085900176, 0.17323324985488206, -0.09382317514084024, -0.06859815120295891, 0.0290200339255358, 0.04753684628077308, 0.23543912646367077, 0.1117364396897758, 0.05468241440769584, 0.21563355044354557, 0.2864322090709861, 0.006680573004782175, -0.04764349978272165, 0.0020701272471099854, 0.001386334132827151, -0.0015355398554293815, -0.013510183555782821, -0.02282739944464417, 0.015616118269641025, 0.007569861743311677, 0.015623790645052187, -0.13751717197802704, -0.07048420554884842, -0.04927846207080394, -0.18872575250337376, -0.17002292130589772, -0.21541557291094138, 0.08130629930870227, 0.31603968146804784, 0.065852613140641, 0.02747371398736174, 0.1141374958558892, 0.1657417595858593, 0.06538050232887117, 0.26245091877886617, 0.1593464887647499, 0.10113394127337177, 0.2252164141405103, 0.17765286511775913, 0.025482606973759224, -0.0028749661568150437, -0.002576681789495028, -0.0009105358530191118, 0.0009622813036633761, -0.007746188270535761, -0.00345797380663421, 0.05741277436445757, 0.09838217567230145, 0.06180317993873949, 0.06825058953529402, -0.05700308895028832, 0.01848414256567975, -0.05359081565031085, 0.09577234709626122, 0.08034116428022749, 0.2805406112199421, 0.16347109242519173, 0.3796642971846774, 0.4919400437782643, 0.4497130060920576, 0.25107636097033553, 0.10559802434458161, 0.20678906499043914, 0.10310358963896814, 0.07142087798678595, 0.08223814905462307, 0.12121189432489464, 0.001310000031859512, -0.002612884638615936, 0.0010164710501546124, -0.0019423552469705959, -0.0007778276468805151, 0.006792608148933456, 0.0057295333175480054, 0.041538058703455255, 0.08084989388987446, 0.14163110567131887, 0.21071401641840465, 0.18979242638520058, 0.2946497553692747, 0.4551956508718032, 0.5094582429703386, 0.3510010321838704, 0.4375784292822692, 0.36823568456577516, 0.42134894670929124, 0.346734013292859, 0.24508818524100578, 0.14297720720672707, 0.05036246518151501, 0.08599970156499674, 0.025617424144025455, 0.06333444033468578, -0.004341576580212985, -0.040010886568639936, 0.0020599842712339072, -0.0022331258017816965, 0.0018355594694056355, 0.0007746886419296228, 0.0027274201601847196, -0.0006831331688018015, -0.0007054218415299969, 0.015797251251950382, 0.06863979141928055, 0.14100797766498174, 0.1946946570706768, 0.24743630515942133, 0.335929708015042, 0.3024939468946748, 0.28861608004070216, 0.3989288712427329, 0.3555641130461627, 0.4082681931356627, 0.2796907395226481, 0.2851339293437043, 0.2347280019639878, 0.057882768479439545, 0.10976059766195195, 0.0868954794962707, 0.05883231268286593, 0.029837222129335393, -0.032089224896715875, -0.029606259389635275, -0.00047765691446798335, -0.001673324487419309, 0.0008379441732574564, 9.901967569908476e-05, 0.0026326710597894608, -0.000472892617773856, -0.00224625640488179, 0.012091360625229284, 0.04465113861262785, 0.06807327110661109, 0.09134784536829411, 0.07863685564671771, 0.08260674951824587, 0.09645451503362873, 0.11682610140727573, 0.12256736022327148, 0.07211357486447417, 0.22039973598972404, 0.1974262792273123, 0.1519390257143963, 0.11749707041724068, 0.08809746962231008, 0.07122708359695987, 0.058902636173413715, 0.047253350221529995, 0.007527830291706553, 0.0009280538055556469, -0.0020110870732078664, 8.418080842628772e-05, 0.0010176369524777758, 0.0028311049962069655, 0.0022845377450785827, 0.000473918241736087, -0.0014889313810065139, -0.000941592469235633, 0.0007748154653419776, 0.0007047913064161454, 0.0005865132252551641, 0.02249683694986641, 0.021255681896230935, -0.00046658469728819764, 0.014720246818089129, 0.014247663259745691, 0.024152297644849437, 0.0003940439371925058, 0.031509195423879706, 0.05386824068172036, 0.012689370028898517, 0.0025934229118868436, 0.02165750575340774, 0.00836432541250109, 0.0029779510156249236, 0.002582336813824471, 0.009031189708394238, -0.002155098610570666, 0.002076145498819288, -0.0017061826210628844, -0.0024114466152046652, 0.002081772537513678], [-0.0025744476065274885, -0.0006943700526462428, -2.098835821455647e-05, -0.00014999386603263556, -0.005057251289855362, 0.00041079513594940683, -0.0005110537517996439, -0.0018551864154282575, -0.0009430005489955171, -0.0007856628638818474, -0.003608126860153277, 0.0003719517644363923, 0.0008269255254373889, -0.0016469264386067598, -0.000364198449876649, -0.0014354805249084648, -0.0018605566353630699, -0.0001481157047279697, -0.001957142436056742, -0.0011703860321233884, 0.0012315796035839545, -0.0020246657017475187, 0.0033281717365503173, 0.0022753440652739368, -0.002773072362549748, 0.0029087719213272897, -0.0008176137518468648, -0.00011601511615226021, -0.0011119534737625576, -0.0003741902773671955, -0.000339794339651658, 0.001025326906454828, 6.527801345637025e-05, -0.0006035290503367965, 0.0003778714251686486, -0.00143234143021925, -0.002431700832612995, 0.0010643886700436238, -0.0023985749179242255, -5.714630391351222e-06, -0.0002364154314894902, -0.0002907240853342324, 0.001654548574358243, -0.001271149269518433, -0.0005943023302376948, -2.54722139093383e-05, -0.00018047994135728362, -0.0016010613624878357, -0.00025650403215340636, -0.003919320197695677, 0.001004979217595983, -0.0025586190619687017, 0.0017190611837671883, -0.00019396174088902944, -0.001196248273839927, -0.0017540720062341137, -0.0016970165909502455, -0.001523859362268648, -0.003502065784747593, 0.0005702285029966211, -0.001003227875533396, -0.0011554872884781363, 4.986873670483308e-06, 0.003907728783197736, -0.0006593730359470525, 0.004171842524516933, 0.00404700451874416, 0.004502196785520897, 0.01692205688178772, 0.052398613032201724, 0.035825709117728824, 0.03628991893118047, 0.030758058140531785, 0.018534495576387262, 0.016069342903593107, 0.008381677476108948, 0.002838300226334379, -0.0030549582921692918, 0.0011805906194225493, 0.0006814477355754004, -0.0003514620850379045, 0.002117183696462797, 0.001296438191154773, 0.001446918711991888, 0.001530035853108737, -0.0018135043751853, 0.0005709914604479333, -0.0006356304028199371, -0.0004381891567503559, 0.0012765826752508134, 0.0063450460597177126, 0.016023743347767468, 0.017045302342281847, 0.0030343716929967087, -0.01348136954008786, -0.0006124420321587034, 0.05723320893976165, 0.09696311926913659, 0.12869768735456472, 0.14406822295677066, 0.1760164415384719, 0.1646045820450728, 0.07715114184915145, 7.321607207650317e-06, 0.03322791888466712, 0.03641737140942265, 0.02042538892683834, 0.012657346894012031, 0.004338671576627232, -0.001326600551508701, 0.0010853123742189626, 0.0005739106542128615, 0.0002921197703722766, -0.002604335704505401, -0.0015946200568044792, -0.0007752016124554026, 0.0008414901648614614, -0.009929733468866017, -0.015534443681769153, 0.0040886359506392515, 0.04266009588039349, 0.05254967298523746, 0.017047477530526222, 0.06776757428310938, 0.07773963014063752, -0.04371120100891673, 0.0724838462589643, 0.10117863364391316, 0.13211118932803068, 0.16168635113604773, 0.08486134282073869, -0.005232751168473664, -0.02599562193969472, -0.030602975203692106, -0.001022220808946292, 0.03459583934874959, 0.02002981545925692, 0.015047966188940299, 0.010377872114869204, 0.002241303618390947, 0.00028774874904822524, 0.0006517264807442511, 0.0035632695294323872, -0.00686618102504727, -0.0264463490664268, -0.057202853013841634, -0.05387859838205333, 0.0001135846259936928, -0.05324519663596673, -0.1420052949835171, -0.06779608406144542, 0.18596762162735334, 0.18812079460977246, 0.12892175371872325, 0.0684154543787506, 0.06042293858834668, -0.10842275410735014, -0.02156907765324998, -0.05817229708721125, -0.02137395782149698, -0.03657943611966363, -0.08008387594637988, 0.06691294432325992, 0.03449302783164975, 0.0377531804445229, 0.014620714702853577, 0.006631466847549803, 0.0012900993332800874, -0.0008021626297370764, -0.00023758916168682578, 0.0004071772363927344, -0.014132963207822797, -0.04057627715194379, -0.1038530793592525, -0.16171135715700977, -0.05626356532581521, -0.21001735249341458, -0.2631030715467178, -0.1945201744155183, 0.0022179744858535364, -0.009186086854990247, 0.06968540358492298, 0.009975963360668114, -0.14923696123521002, -0.20268134396050783, 0.0020841217687306065, 0.09323536970946586, 0.1100700344218034, 0.1366653740302524, -0.07336491975396593, 0.07056374886412459, 0.10239416517375027, 0.03124785288151402, 0.03795947292521498, 0.006539869849012806, 0.0024935439057687417, -0.0012698402064434979, -0.0012026880003111792, -0.00486388289137502, -0.028408990100522457, -0.025543884761124958, -0.07448284062898687, -0.25420084460804476, -0.1884127851520333, -0.0548646713555284, -0.3865011716284191, -0.2803234973236562, -0.037415933535207425, -0.012516803588434842, -0.07349350222106535, 0.022911165174056697, 0.16319552257831843, -0.055601562839380676, -0.0433175688592515, -0.008658080738802677, 0.047276191039421704, -0.1512456305513665, -0.0013091120246057162, 0.05723053764823803, 0.07555493603501798, -0.018542726563510747, 0.02086718336275844, 0.004768469537113204, -0.002848136347704039, 0.0020225128159434675, -0.004257970517531093, -0.013173275760910826, 0.0013728453161933327, -0.06466667298993282, -0.1706352845287719, -0.10808918006755175, -0.19205690660991512, -0.14818757738043742, -0.20326702621061563, -0.362915461395573, -0.23715228428668994, -0.30021176680513834, -0.1785452094131922, -0.1608881955327514, 0.028041946565560492, -0.02881373662406741, 0.008300301569692343, 0.14356482052600547, -0.052766075273442965, 0.017953700067063788, -0.004988918654973833, -0.12431716185919016, 0.02381409129149852, 0.05547926420812392, 0.02667937636773332, 0.024068476160915418, 0.0033456418731545416, 0.0018855987834220116, -0.0078957963599827, -0.010280229712979434, -0.022734006898480593, -0.17536728237619134, -0.2835093184351702, -0.11749425799561763, -0.22860283767568076, -0.15451151844922822, -0.16579421149605528, -0.3505573431397839, -0.17256675296789462, -0.5383329366046133, -0.5051540328104488, -0.2714894108052515, 0.053522576477050936, 0.22009401701430703, 0.07857667376757675, 0.02097306041214431, -0.054707052989403655, -0.04964376279998077, 0.07257025477505674, -0.11150395960673948, -0.03712625493305546, 0.12597610097957557, 0.056654795766289935, 0.03607551628681182, -0.01017860639274237, -0.0004475681988619915, -0.004685705776931872, -0.01872806145249931, -0.020355238977363622, -0.13092299709479452, -0.25687107460559233, -0.23627974614748032, -0.09580916733517195, -0.20330326305012808, -0.28259480769948253, -0.5186443087943603, -0.42694771081746785, -0.4851816294129834, -0.513600941898409, 0.058112684595758746, 0.22688022155524531, 0.21971196449245625, -0.08137235298965838, 0.048041392352807966, -0.06873402375931444, -0.01775860235240282, 0.1018874170649209, 0.09202747899999353, 0.0257212541882402, 0.15225561464163997, 0.03307933279960549, -0.001155780296327747, -0.002897038575691241, -0.0006083596448473795, -0.0014474934215924998, -0.010121965291204394, -0.03425491566764643, -0.1269541909929195, -0.13158557549320116, -0.17010398665573995, -0.06967266214135578, -0.11508733937036136, -0.3091052047558788, -0.25342455120753166, -0.3477406889596041, 0.08540480191256898, 0.4642034598615467, 0.5441221486445212, 0.2643173627127394, 0.0060558116525544605, -0.0950223580541945, -0.04423484630606954, 0.0942646892245853, 0.14333023675017492, 0.10472037290844644, 0.09237936828308344, 0.08336196892616966, 0.05727573520896168, -0.004426884734770099, -0.008558181632089436, 0.002117609407202214, -0.002906048618667171, -0.004833758099677946, -0.004410040562054093, 0.0034419634215743914, 0.038684395635578635, 0.10933646540928682, -0.12422760507433588, -0.2264112513996051, -0.20681147590271232, -0.16118788349186355, -0.11049647596731521, 0.09855295196700113, 0.6253033065831907, 0.7666460144290135, 0.4022581314157856, 0.03311401216587491, -0.02511023721857849, 0.09446349728724543, -0.07063392492202186, 0.09492961304259354, 0.06728136515777648, 0.14934902840240002, 0.026937997210508796, 0.1024765015833045, 0.009517215330636061, -0.043847214766846554, -0.0011111470309700757, -0.00045208425691933347, -0.0010862006100258868, -0.002145407890411004, -0.015982175641532353, 0.038882275536239234, 0.23172381116556992, 0.1949000389815494, -0.02801732694251711, 0.06963831465678486, 0.06431433288640576, 0.04216031060314546, 0.11493856127207584, 0.4891339059294295, 0.8419404475821114, 0.32426013285432803, -0.00045714190340210854, 0.23927170410571752, 0.18797653358853492, -0.07481826835902157, 0.03621043985254177, 0.24352240469785597, 0.001303131252509853, 0.20246110663171685, 0.1875482154575996, 0.1219538982394008, -0.08483026649348863, -0.0495138671661425, -0.005522791571561308, -0.0033865651765727575, 5.932764224668488e-05, -0.00286233820826166, -0.029539876058806376, 0.036060568866124396, 0.18231483307719196, 0.10317322969429016, 0.21606531628293998, 0.18777943218626095, 0.24174004497589757, 0.38754476755945017, 0.39034053330719476, 0.5500677321576419, 0.40920840688038107, -0.019384814423131995, 0.03127129754238286, -0.11392509562976114, 0.10657101632074482, 0.1758155125795313, 0.30619377953987387, 0.13733017693866323, 0.05472778680562954, 0.1098901345209604, -0.01209204964079508, -0.03349612038042656, -0.13222799137791338, -0.04227841151430161, -0.008776409203910677, 0.0024707780217878153, 0.0014824501440107896, 1.692819706300203e-05, -0.012698878529313123, 0.025310443600503954, 0.12822820914468872, 0.14036477556027765, 0.18758121396160662, 0.26391769871847326, 0.4475480960393565, 0.39192861197513534, 0.2632291422577667, 0.15428939130683908, 0.25551596505513774, 0.10298765517704721, 0.06468403496012368, -0.020392081056880396, 0.278198132019766, -0.021537955736045576, 0.1507138521025046, 0.24223153541342538, 0.09071524156779455, -0.11812420109820702, -0.15681440791705836, -0.06858525886702754, -0.1623066729651509, -0.017782539337195286, -0.01902250630524144, -0.0016298989458820314, 0.0010538078687374653, -0.00012772271882339014, -0.009201086612287726, 0.027484004615153986, 0.1258465295637144, 0.2762905517439258, 0.2491444043299068, 0.1656556989465244, 0.15497456638063192, 0.05565403694879267, 0.11000126984056981, 0.10578686013469674, 0.047625318250341164, 0.09390914586776992, -0.024015641197356743, 0.061596982741852185, 0.11940719894880597, 0.02627138067716146, 0.11179880127993369, 0.09056598928963598, 0.12598422944461105, -0.16794854916223279, -0.14872994037306567, -0.09437907593223947, -0.1393670088586416, 0.004291364269257856, -0.014373484093668494, 0.0018998383242640453, -0.0010717361616678447, 0.0008938707956822651, 0.0011646187357739434, 0.03235244145013938, 0.016526762771903583, 0.08448665798660232, 0.21490340287634638, 0.03305463481849556, -0.001383525949288385, 0.025292155816031274, 0.13142944561251838, 0.12534258810197005, 0.12798714549798149, 0.005336151788373408, -0.07922114687893313, 0.1746178628074529, 0.14086004237911504, 0.04583232909351689, 0.016775310017777025, 0.014704332651297006, 0.013409719355914276, -0.19884081661085154, -0.24840189787962505, -0.1754382930475278, -0.0787586016315716, -0.043610440382272984, -0.021940853690811637, -0.004318637319128273, -0.001001690354725685, 0.001374047439580468, -0.001858592723057882, 0.02255758534887744, -0.03203660900790184, -0.03533000470663304, 0.10301768913156266, -0.05285568204559989, 0.04681800273712487, 0.009067445426800378, 0.15516542752062917, 0.13643343397636903, 0.1438409885310591, 0.15344519490426486, 0.2437490047557414, 0.040638113585831484, 0.15610050542232495, 0.08406573514901723, -0.1126132701897423, -0.04877990890562563, 0.03312753358629974, -0.3088419308215013, -0.29018963909975487, -0.18807597802792608, -0.030422054565116846, -0.05606979298138368, -0.02010599401979494, -0.004374326003441685, -4.356185656300716e-05, 0.0003470691277260162, 0.002188843419590126, 0.010962602294090807, -0.08881417284481799, -0.059162678557331844, 0.05373692342805056, 0.012171001089146012, 0.07422126663616323, 0.23950399544822193, 0.11292705820576572, -0.20637524659401296, 0.09727368370828973, 0.25197468223483405, 0.14183113100086728, 0.11621739942608814, 0.1311663418754466, 0.07938749058075947, 0.006489403897044272, -0.12686426023593395, -0.17676008228476855, -0.3013148399855421, -0.1713388144943066, 0.06290448566854602, 0.08757676754939288, -0.009732737977640982, -0.006253285825541848, 5.01925544297653e-06, 0.0025439326178918853, -0.0009288666024531682, 0.00031061255034209664, -0.002353729279914083, -0.0848410281296217, -0.019152661716185154, 0.0599990586034155, -0.07523456173320194, 0.034470488237844744, 0.09248079604144074, 0.0383034095219442, -0.03920339217647288, 